-17
-27
50
-54
40
-60
-74
-55
6
-71
-64
87
51
-61
19
57
-48
71
-75
97
127
-30
-71
-70
127
-51
-3
17
55
5
-50
95
13
105
70
29
16
-13
-55
114
-91
31
-100
-94
94
-71
-109
32
-25
19
20
64
-76
-94
111
-112
77
-57
53
14
-119
23
-112
112
-82
76
28
80
-44
95
-5
-89
-37
3
86
-97
60
53
47
86
114
110
-103
43
-76
57
-67
-83
-16
127
103
27
-65
126
81
45
76
14
24
-27
-68
-85
-31
31
-5
-91
-71
108
46
-36
13
-5
-80
-92
-74
-42
33
-24
-96
21
-100
27
30
-90
-31
95
-88
69
-39
85
45
-87
61
98
36
-18
79
-78
43
-109
-105
-84
90
-30
-1
118
38
64
-104
-46
5
-70
-7
95
-24
-40
-83
-103
90
-15
82
-94
114
-86
60
-92
55
35
54
-23
-5
10
101
76
-80
-69
-35
-47
-19
122
63
95
88
-84
-49
97
-2
2
-61
-42
21
-88
101
47
37
36
-30
55
3
73
-19
-11
-73
88
4
-37
-31
68
-18
55
114
100
-28
105
100
25
-37
35
16
97
64
-67
-54
127
-100
31
-110
120
91
121
-117
68
54
-7
99
19
-15
75
28
-26
-44
-44
37
119
-82
-57
-95
102
41
-11
-98
-110
46
14
-114
101
-83
-52
121
48
-60
53
106
63
-56
122
-18
98
-99
-116
-55
86
31
38
127
-32
-78
-16
5
76
-44
31
-88
59
-104
101
-67
-21
25
62
64
78
-3
-40
-92
-127
-115
76
-27
-10
-72
-63
5
-18
127
68
-17
-54
81
-46
59
-89
56
-16
-69
15
-4
-52
-73
-25
-17
73
63
7
-72
-74
22
34
64
84
80
34
-74
-5
41
-43
65
-30
0
-79
72
-69
46
88
-103
101
-12
16
81
-63
-39
-90
57
-82
-9
33
9
-59
-22
40
-97
19
18
-76
40
100
80
24
-96
74
57
-20
-75
-44
13
35
5
-78
-104
34
-75
-31
40
71
83
43
125
-83
14
43
-49
76
124
67
80
99
-49
66
12
101
-122
-34
41
-44
35
-69
-52
-118
-119
-61
-94
42
114
-69
105
118
-43
-86
34
127
-26
54
101
-6
-57
-57
36
-113
70
21
57
-96
59
-46
22
-18
-82
7
7
-54
-82
14
-102
-68
-118
70
45
97
49
87
