53
83
10
-2
-31
120
66
75
-52
-73
65
80
97
2
1
-15
-11
-82
62
-44
69
-1
35
1
28
81
-49
22
64
127
65
71
91
125
-61
-2
-99
48
69
-30
-92
23
-52
73
-83
-1
-3
55
-48
88
-87
-53
73
77
4
-15
65
62
19
-46
-64
88
30
-81
-49
-1
-75
-12
-52
38
-85
36
17
9
56
-35
81
-89
-2
51
-7
-47
-35
80
44
13
-42
-7
-4
57
-15
26
0
-1
-3
-44
85
76
-15
68
101
-29
-54
-29
18
32
40
-64
-7
9
111
-47
113
-26
-50
-27
-26
-20
-55
56
2
49
82
-57
5
-62
-38
-25
27
106
0
-5
-65
5
-102
80
34
-95
-74
-107
-59
-69
-66
-96
-14
28
105
-46
72
37
13
36
50
-101
59
-55
77
127
-77
122
-8
-11
17
86
48
122
71
46
-73
31
42
-52
101
73
34
-59
51
-18
11
29
59
73
47
-2
-46
-59
-72
-89
6
3
-61
-37
-23
-78
-19
-60
59
57
80
-58
-36
-38
55
67
-24
-71
-52
-90
-69
-80
91
55
99
23
-91
-49
-66
106
54
35
-1
26
-62
11
-36
51
-43
-29
52
-82
92
-65
-85
92
22
118
-25
-47
72
62
54
3
-59
-34
-110
56
35
60
109
6
-95
-87
-2
-39
-78
71
-58
22
33
31
-26
-60
-67
-27
26
71
80
-45
44
-31
-42
85
66
107
41
-62
0
61
20
26
20
80
-74
-52
62
-23
-4
88
-53
-64
-46
-60
-45
-36
71
-63
-61
45
44
15
-55
10
-47
49
99
-8
41
34
92
-77
115
5
51
14
88
16
77
71
86
-25
24
37
-55
-48
-50
-17
51
53
48
48
2
-106
33
-86
-76
57
41
63
13
101
-98
80
-32
-62
-58
51
87
62
-57
-38
-5
56
-27
47
-62
98
95
55
55
64
72
-91
21
-78
-54
-17
-10
-80
87
96
-28
-30
-16
9
18
-56
-28
-57
-71
53
-110
55
17
81
-55
14
-81
-59
-1
-51
25
94
74
-5
2
17
44
-47
-47
-64
61
-88
-28
-100
-27
46
-28
-66
-2
24
-4
-8
-16
-12
-128
-69
-23
-4
-24
-78
1
-25
-94
-2
-112
-67
-78
-89
-43
-85
30
4
52
-10
-45
-72
-85
-83
40
70
36
42
77
-3
-69
33
57
-4
33
-6
-74
-78
-61
-24
12
-4
4
17
-128
-38
-56
-31
-18
11
-10
2
14
-63
-54
-25
-19
1
-47
54
3
-63
-62
47
37
-64
-43
40
-33
44
32
19
50
-4
45
50
18
31
-1
50
-12
-25
-55
92
41
-82
5
19
40
82
34
82
-51
7
-47
41
-73
21
-77
51
85
52
39
10
-3
-58
75
-55
-52
-19
-13
70
-13
-44
36
67
65
38
-23
-59
8
53
9
-24
-3
-9
-31
-16
-14
-74
26
-68
23
47
26
83
-49
75
-11
-64
-27
49
-79
-85
2
44
59
-59
-40
10
-3
18
-66
51
-60
-82
41
-67
27
21
-74
-19
25
-2
64
82
57
30
13
-48
31
-1
12
42
69
-1
-17
77
86
37
60
-66
-28
-59
48
-1
-84
-29
-124
39
51
108
-60
40
58
37
-24
37
70
-72
46
-66
-10
-24
-9
91
17
-43
54
13
-98
31
38
-18
-56
-56
34
57
77
50
-18
-82
2
-80
-63
-55
27
37
79
-89
-10
-99
-80
-109
-75
-21
105
41
-83
102
54
-70
35
-30
7
-73
-70
-88
64
-45
-61
-20
-46
-76
61
-2
65
73
35
112
-59
17
-31
-70
51
-79
107
-2
93
-57
-4
-61
-23
-71
42
48
-24
33
-62
-81
-8
-49
-5
-42
-58
77
-5
-57
38
-68
-31
83
-58
-51
-67
52
-10
23
-11
-45
62
87
-20
23
73
-1
-7
-101
-97
73
39
34
127
-39
53
109
-26
-18
36
-76
-32
20
9
-4
35
-52
25
52
98
33
95
-6
48
-7
-73
-24
89
-62
45
54
19
24
113
23
73
69
87
-2
-29
-9
19
-5
-63
58
36
127
90
22
-53
-17
9
108
104
99
1
-7
94
-13
-33
-102
-61
3
108
-39
-4
-54
-85
54
-15
9
88
0
50
-94
-83
73
15
97
-45
-50
49
-51
-55
34
15
-62
91
-83
-41
8
-76
-80
-56
77
-61
108
-21
60
2
0
8
26
81
74
97
-18
-69
44
49
-24
-15
-64
-84
-77
-43
-44
46
17
-44
-63
21
-105
67
-25
66
-65
100
-40
37
77
-33
34
127
110
-55
64
52
122
-33
-20
-43
93
51
83
-45
124
32
25
4
49
9
-31
74
-47
-85
107
56
-53
9
35
68
-16
-39
2
110
1
4
52
-24
-47
13
-100
92
-71
50
20
17
-50
42
63
66
43
-3
-42
4
-79
90
71
75
52
43
-62
29
-58
-55
79
93
-49
2
47
88
-89
71
39
28
74
-105
55
77
76
16
-8
-71
-35
-40
63
20
-106
-51
64
41
60
-66
88
-50
-63
-52
-6
-54
-73
60
-83
71
73
52
9
18
54
-5
-9
-105
-56
25
99
62
-27
99
-69
59
-94
-37
113
87
-10
-76
-15
63
-53
42
93
-86
88
88
15
-87
4
59
-56
56
15
95
90
-69
97
90
23
83
-93
-70
-70
127
-64
53
33
-16
-78
-94
17
-48
-55
9
-75
46
20
88
-51
82
-37
93
115
97
75
-3
-57
73
-103
48
47
-90
53
21
18
66
99
32
2
-50
-35
-74
-51
-17
15
-82
87
-7
94
91
127
121
-11
-48
30
-47
83
0
38
118
-57
111
-79
42
-58
51
54
33
-13
12
-58
-29
-95
81
67
49
15
37
33
4
21
-38
22
46
99
46
89
108
70
38
50
68
-40
-33
91
-57
6
7
-52
23
71
59
-10
57
36
9
-37
-89
6
-18
-79
75
-48
-27
70
-61
-31
-8
62
35
27
19
-78
9
58
-92
-89
-86
-75
-69
57
-15
-87
-56
86
-93
43
79
-7
-59
32
-62
39
-83
-86
-83
-92
74
65
38
-7
115
-87
111
96
109
-34
37
85
32
17
-38
52
84
-50
31
44
63
-17
91
-6
-91
-23
-40
58
61
-52
-49
-78
33
-45
97
8
-15
95
40
85
82
-65
36
86
-76
102
66
-88
67
44
12
-23
-7
50
79
121
88
125
-6
59
67
99
115
9
81
-26
-68
-74
70
127
-22
107
78
76
-21
15
-31
-13
84
-45
-92
13
56
51
36
68
-56
-8
-81
9
65
29
-118
55
-56
86
42
75
-78
36
-11
94
53
9
42
15
-23
84
-104
-9
-63
40
-57
34
-75
38
73
105
49
37
-59
84
-15
66
2
11
-80
85
4
9
-68
-63
-89
48
48
36
-5
76
-40
-9
42
94
-84
-102
105
-13
80
92
108
118
-67
16
-48
59
-36
-49
126
35
-29
101
87
80
-67
-9
-29
111
43
-117
77
2
30
-59
-54
-91
-52
-68
-63
-98
-96
81
68
7
100
81
91
89
-77
44
24
-106
-120
11
64
-11
26
27
73
-15
-53
-30
17
29
-59
-9
46
-21
-53
-2
51
-41
-72
-6
-84
-44
63
-16
12
19
16
-38
-55
-49
-53
3
-81
44
-22
56
-69
-67
-128
-6
-33
-83
-13
46
-7
46
93
-78
82
-4
-3
-60
-68
74
43
74
100
63
48
55
16
-51
-63
104
66
-21
52
102
16
35
-52
71
3
-94
-77
-54
-89
87
24
-50
14
46
-39
0
25
-23
-39
-39
-68
-17
54
32
-97
-82
-17
46
-36
-91
-68
-41
-106
-32
53
-78
90
27
38
-80
79
79
92
54
-17
-48
-23
8
4
85
-56
102
-46
-8
26
3
-42
79
55
-55
-7
66
106
-6
40
10
101
-68
-32
87
-77
-25
84
-6
42
-21
21
89
47
14
71
-49
62
-101
6
74
112
8
44
90
-30
-84
-3
-61
-4
46
-60
-78
-82
-72
-22
-18
-7
-128
-41
-4
-75
-50
-91
36
-28
-50
24
15
-85
-30
-23
39
-17
-35
47
-10
-34
60
58
112
7
-36
-58
53
9
11
23
-76
-44
57
-43
-29
-66
12
12
-72
-61
15
-71
-35
7
44
-56
12
13
-83
-66
-1
34
-17
-64
82
-59
12
68
-18
18
20
-7
41
-17
-52
106
2
91
83
96
-60
113
23
-5
78
-25
51
100
52
25
-42
0
-37
-61
16
19
-30
-52
74
-23
24
-91
16
-83
-52
-55
-31
-58
-84
79
-46
-26
-88
0
-18
-38
-45
65
-28
27
2
60
49
-19
84
-26
-60
-15
-29
4
101
8
62
91
33
-67
38
19
19
8
43
-27
80
-76
-78
-20
-38
-49
73
-71
52
-2
-1
55
-85
40
38
61
36
-27
100
10
15
-85
-82
71
118
34
-98
-80
46
117
64
-84
-35
-60
16
19
20
49
59
51
-25
52
-34
-49
-9
-57
62
-4
52
51
-77
23
60
52
-55
1
38
-11
-42
-42
-22
2
-24
-37
-17
-15
-63
41
41
4
30
21
-29
13
-19
-10
21
-28
-49
56
69
34
-38
-21
-49
-51
48
36
43
83
54
66
-39
28
53
29
-39
-53
19
-21
7
-52
-62
-11
63
60
-40
-7
7
-105
5
112
10
-31
-80
-44
98
56
64
-106
-20
19
-36
-6
-46
-33
94
24
-14
-128
-11
-17
78
20
-26
-29
-67
-64
58
-56
-1
41
-71
34
19
16
-57
59
-17
-11
-31
-46
27
-64
-1
19
3
43
13
-70
50
-80
-100
48
43
80
42
-61
73
87
34
42
-24
-19
-21
102
-54
-3
-43
40
-38
64
-56
-33
-60
83
-34
-31
87
11
-35
29
-18
-59
40
32
71
71
-5
6
-40
-50
-27
67
-58
13
-16
-19
-73
46
77
81
75
-19
-83
-61
-47
73
-63
97
-62
97
42
9
4
64
-4
-54
-40
-80
-46
-69
3
-57
-84
-69
-40
63
78
-31
5
43
16
44
8
80
-48
-94
86
54
63
54
57
76
60
-78
11
66
80
11
89
116
120
31
-9
59
-13
-40
26
67
-10
127
36
66
11
84
-21
43
23
56
12
-43
-27
0
75
-30
-25
-41
73
-64
-62
44
-66
48
24
-30
-4
52
-81
-69
-88
32
26
-6
-35
-82
85
-99
62
-80
-51
-69
1
-59
-99
1
-27
-90
-49
-111
-66
-128
-66
-16
6
-21
-93
-5
-80
7
1
-43
-44
-63
51
-92
-35
49
49
-2
14
33
-32
-32
-79
-80
8
-31
-14
56
18
62
74
5
29
16
-19
-36
77
62
60
61
48
-70
49
-30
-65
1
-4
89
11
-57
79
-60
67
94
98
9
35
22
-76
9
75
-40
-56
86
-44
18
-83
26
44
-16
-48
2
17
-60
-14
33
36
-53
-87
-47
22
-3
-39
74
-37
49
56
-58
-92
-120
-84
71
-67
73
5
-72
58
22
-54
-60
65
-12
4
1
-85
-11
-53
79
5
91
-81
-32
-86
-47
-36
23
52
55
81
3
12
-68
-56
93
7
78
-40
-22
84
-55
1
57
-34
-63
-56
-21
40
-17
-80
2
19
5
19
-69
-25
-67
-8
-52
11
-2
-21
-5
39
-66
-42
-18
-7
-26
-98
-83
57
80
-18
49
-56
5
71
83
-47
-42
-34
-61
46
-47
46
14
-7
45
-52
-59
-28
-19
9
-13
49
11
-59
36
42
62
-54
52
14
79
-41
-69
11
-39
-9
-45
34
-59
11
-5
-15
35
77
-37
-45
-31
-26
-43
-41
-36
-10
45
26
-59
38
-56
29
56
67
50
69
22
-44
-50
-37
91
-70
62
83
73
83
-26
49
-9
7
20
-27
68
37
84
-53
123
84
56
64
12
78
78
-15
-11
-44
123
127
84
30
-49
20
-68
-72
46
76
-20
2
-26
-18
-16
31
-40
-69
49
-27
-11
-39
47
-30
66
55
-6
24
60
24
31
114
18
92
58
33
-54
-15
-2
-12
-37
27
45
79
-52
-69
-54
1
26
1
47
-49
11
85
127
2
-46
-41
10
28
-6
74
-25
7
16
37
-6
-6
-14
-17
-16
-24
56
96
-54
-71
82
-73
2
60
-63
-21
-66
20
47
-7
-45
-68
80
-23
72
29
22
-3
50
44
-71
8
45
-25
-26
32
82
9
2
-3
7
-72
-1
47
-81
-60
51
23
89
3
-61
-45
-75
-22
-60
-4
-80
10
32
0
-24
-75
48
-63
-45
22
-62
-52
26
-42
-43
-90
20
-38
-7
-1
89
18
47
-6
40
-67
68
-9
117
9
51
87
-9
48
-17
57
103
-59
6
49
29
60
-33
43
37
24
-43
-44
-66
-11
37
-12
22
69
-76
30
67
-73
