-27
45
-30
5
-39
-30
42
15
66
44
-3
64
-21
49
57
-45
-23
-110
36
72
20
-77
-101
-3
-40
51
-32
87
-50
100
-121
1
-10
-98
8
48
92
-49
-38
54
-35
19
-42
-25
80
33
43
-67
-17
93
106
-37
-42
48
-99
-29
-14
26
-64
20
19
58
48
-27
-96
62
20
127
-8
72
98
11
7
-26
-51
115
-82
-76
71
73
27
38
76
24
57
-37
-91
7
67
-40
-76
54
80
59
-96
66
-98
101
-62
-52
-112
-8
-118
56
-3
25
85
89
39
-118
99
72
-64
-9
53
-99
54
-59
80
-56
-69
-1
-26
-16
5
12
-77
91
55
1
-107
-14
-81
63
-12
-4
49
-80
32
-112
65
-62
-59
-56
-71
113
-74
56
81
60
-45
-80
127
-105
41
81
-120
-99
14
114
-35
30
53
-26
81
14
28
-81
53
34
55
65
51
109
21
-69
-77
87
12
-77
-62
-14
98
-89
-127
-102
60
-85
-8
68
-7
52
95
126
-27
-65
-40
-91
83
-108
67
106
94
29
34
102
-73
56
-119
-116
-40
87
105
33
-12
-64
-118
84
96
-86
95
87
33
65
9
9
108
78
6
-22
104
-57
-32
-124
-112
-117
-16
88
126
-98
117
-7
19
-4
29
82
39
31
-16
49
33
-99
-89
37
82
-92
24
112
70
39
-30
88
-8
54
40
-47
-108
58
-96
91
-102
-52
23
50
31
92
29
-82
43
-52
-109
73
118
-49
-32
110
21
-49
13
-27
-34
-79
-102
90
63
6
-26
68
12
-83
-83
-12
90
-91
6
-84
-40
57
49
28
25
-2
34
-128
104
4
3
93
26
-22
-9
-59
15
83
-71
104
32
-37
59
-51
81
-93
27
-6
-85
3
-47
86
62
27
-61
89
-102
38
4
-75
37
74
2
-33
64
33
69
59
98
23
-16
17
45
-81
31
75
-67
46
10
-23
-82
2
99
99
10
-77
-46
87
75
37
-39
-19
-22
45
-6
25
-58
24
-55
-17
-14
-86
-63
-85
37
18
51
37
-32
63
22
-78
64
20
-68
-37
-22
-72
96
35
120
-9
76
-48
-35
24
-33
-35
-101
-87
-11
127
-67
75
-16
-80
36
-47
-19
85
-45
64
77
59
-103
11
74
-108
93
33
-39
4
98
-6
-30
7
96
69
-56
27
59
-4
-36
63
77
9
-95
67
-38
-112
-80
101
66
40
33
19
62
-47
-81
-58
-47
-58
-95
-60
-81
-78
47
-36
-16
58
-6
76
78
-71
58
-109
39
-53
-56
-101
36
-36
19
93
-26
13
-24
77
-7
-128
-47
66
64
35
-5
-21
33
33
-57
76
127
60
-5
22
-50
-1
73
38
-45
-61
-46
-95
30
-65
1
-78
-7
22
-47
57
-4
-88
-80
-17
37
-80
-64
13
-30
-89
-48
29
9
58
81
-47
30
-95
12
-48
-87
20
-81
46
-17
-6
1
-17
-49
74
-21
84
36
-64
8
25
76
-80
15
-86
-38
-49
-44
80
-47
10
72
-34
-97
-89
54
92
96
84
-26
-96
-7
-80
30
-11
-38
33
-58
35
-35
-78
31
106
36
-10
-9
74
-2
-35
-96
-99
45
29
6
-37
61
-39
-51
-101
-102
-80
-2
-52
-64
83
99
78
-40
-5
23
-56
85
10
-33
67
28
100
82
68
-71
-122
55
-27
-83
22
-9
-88
3
-37
-105
32
11
19
-57
-25
-27
21
-86
-41
-9
-2
97
3
127
-33
0
8
-79
118
85
-27
118
-56
32
-6
27
-66
11
55
3
21
83
-83
-106
108
-89
-87
81
18
41
-73
100
-101
-63
48
20
79
87
-25
-105
118
71
75
-92
32
127
17
10
46
-73
59
94
-34
-30
108
-68
-59
14
-4
-75
-42
-100
69
125
43
106
35
-16
-43
-113
3
24
-23
-9
-128
13
-97
-89
-35
17
-70
31
-79
-67
101
-55
114
42
-79
52
98
-69
51
-22
19
122
-104
-17
89
69
14
40
-81
-31
9
-102
72
-88
3
76
71
87
-25
79
86
72
-20
35
30
-85
95
-13
-59
67
-44
14
15
14
55
-109
-128
-56
-17
-82
60
3
-3
-57
4
-90
18
-64
-55
24
66
-16
-64
-9
0
-24
88
-52
36
101
-72
-6
35
-61
-81
71
70
-102
-84
-40
-4
71
79
118
-30
57
-32
98
-23
-105
48
-109
-23
-58
-76
-18
-98
-34
59
88
-69
-11
-115
-94
-71
