-93
1
69
-66
-103
51
-84
23
63
-82
31
77
11
-74
40
-62
-21
-74
107
29
16
-6
-20
-97
3
78
39
-88
-30
-98
-66
90
17
26
-42
19
-58
-24
-91
-37
-81
-36
89
-2
12
-15
88
-62
76
-105
46
-8
-38
62
23
43
48
-69
-57
-50
54
-38
-37
-47
76
-19
-4
7
47
-30
96
-25
60
-84
71
41
32
29
33
51
-88
70
-103
22
21
-40
72
63
-95
102
4
-83
54
-1
-124
102
70
11
49
123
-22
38
38
-66
-16
105
-94
-18
-108
4
-109
-19
-84
-69
-39
26
-26
-8
-85
-56
17
18
-56
-86
-31
-72
-38
18
74
-91
90
-24
31
-76
44
77
-46
-95
0
54
-11
41
-102
45
15
62
75
-63
-68
-102
-16
68
-15
88
-23
71
-40
72
-82
36
-54
90
24
105
63
-54
18
42
-58
-108
69
-26
4
43
16
39
65
-110
98
-20
-30
-27
64
-37
-55
30
-24
52
16
-75
-15
38
-45
-60
13
93
28
2
-74
-67
-61
6
-34
-64
30
46
-48
-107
79
-91
84
-110
-73
90
31
47
-35
-32
-32
-36
-71
93
-62
-68
67
7
-74
18
-18
61
72
22
58
45
56
80
90
-61
-76
-48
-2
70
62
-2
-64
-16
67
-72
120
-32
-7
-74
11
76
17
-32
-42
-47
-117
-96
28
60
-24
-15
20
-121
58
-77
-77
-1
127
-107
-92
-13
70
-65
11
14
102
-24
-87
-16
-97
51
-87
-20
40
-49
44
5
75
-89
62
59
-57
67
33
8
-54
-44
12
-38
51
-81
73
57
48
-89
-61
43
-29
-59
-71
-68
44
-45
-50
-19
-45
81
-27
2
-33
-73
27
-65
57
63
-84
-21
40
-6
52
23
-37
2
-91
-63
15
0
-9
-14
-68
-59
-28
-24
27
-88
-91
22
-74
96
4
62
36
-21
29
-38
75
109
-63
-13
89
19
40
83
37
-8
84
43
-63
-84
-10
120
-52
25
-11
-68
92
37
-2
-23
104
-14
-35
-21
75
-106
-17
-42
63
-49
-50
72
-74
56
115
51
-73
70
54
-92
59
48
83
43
-5
-69
-50
50
-65
-63
51
-91
99
-1
30
16
-65
-83
-15
-69
6
95
82
-92
-48
-90
-60
-67
7
25
36
67
-44
-80
-68
91
-83
-6
-36
45
-12
55
42
-7
69
92
-24
57
81
11
51
105
88
-100
60
-74
-16
-43
55
9
-22
-57
33
-30
75
22
-19
53
-41
31
20
-38
26
60
-33
64
51
-16
8
-7
16
28
-13
11
12
-23
23
15
-80
-70
42
-56
-39
6
42
45
51
-62
-34
-69
25
52
23
-5
16
-2
22
49
-48
45
53
-94
-35
-66
-9
-6
15
24
-15
-29
40
90
-65
2
11
31
-43
26
-11
-49
-71
58
6
-38
68
42
-36
-11
5
20
14
28
38
-2
32
-57
57
23
72
-56
-48
-8
-65
-39
11
19
28
-7
-55
55
82
88
39
-83
46
-23
1
-7
38
-58
-33
19
45
78
82
-25
56
-39
48
37
-20
-38
-70
55
-8
-27
-43
-48
-27
17
-8
60
-43
-45
-17
-62
16
-25
-27
-43
24
-62
-27
33
-56
-71
38
-51
45
-77
-49
-45
36
-15
-3
20
8
59
19
-49
-66
-26
-13
-37
-28
34
19
-22
45
59
-25
-37
-48
-9
6
27
-13
-5
6
-25
18
80
-54
55
-52
-63
-14
-63
-24
-20
82
24
8
-88
-20
11
-53
-36
-53
-44
-128
15
56
-8
74
34
-14
15
-31
15
-95
-35
-50
-31
68
6
53
6
-16
-63
-32
63
-9
43
-34
44
25
-21
65
26
55
47
65
-17
7
59
-77
-66
-48
37
64
64
-51
-25
33
1
-49
27
40
43
35
51
-20
82
-29
-14
30
44
64
-18
-27
-13
10
-40
-49
17
6
22
4
5
-32
-21
-55
-36
10
6
38
-20
48
-73
-57
-64
35
-38
-34
35
47
18
26
-72
-1
-7
6
-50
17
23
44
-18
-16
-30
-38
29
44
65
-51
11
62
38
55
10
14
26
19
62
-25
-51
-7
16
65
-1
51
-6
-7
3
26
-45
-14
14
-37
-8
-42
-9
58
-42
38
-19
10
28
32
-50
39
6
33
31
-3
-25
21
-61
46
-72
-11
18
48
3
40
-15
-44
-56
-27
-68
-29
-59
49
44
26
-12
41
-15
-36
55
-34
20
-56
20
-69
20
4
38
8
71
-15
74
-61
8
46
-33
57
21
56
34
11
-64
2
-7
14
35
-51
62
-38
54
-40
-49
29
3
-23
-52
59
32
-43
-11
-15
6
28
-17
56
5
-15
-66
-18
44
52
-41
-5
-12
51
-75
-61
-5
49
20
22
43
12
-58
-42
-37
-32
-11
-10
-34
-22
-59
-1
-15
-37
-40
-26
-42
87
9
-34
41
2
-15
-18
14
-61
59
-29
-27
13
85
28
46
-9
64
-18
-61
-26
-8
-75
-34
1
-14
49
-2
33
5
41
1
25
22
-8
52
23
-69
19
-52
58
64
15
4
-26
51
-40
11
-5
26
39
4
48
40
5
-33
44
-40
-9
65
31
-2
35
13
56
-32
-30
11
-43
12
-42
-14
-57
16
31
-5
55
35
27
-37
-29
-49
18
-48
-38
59
-5
-14
22
-64
2
-61
14
51
-9
-1
22
-41
30
17
3
-92
-68
-24
-90
-8
-51
-17
-16
57
-30
-57
-34
-10
68
17
21
-45
-65
-9
33
52
63
43
-62
46
77
31
50
6
-53
26
-65
33
-35
-13
-10
2
-7
29
-14
-47
-12
-72
-65
4
91
0
79
-22
-8
-19
38
38
-44
-29
-22
29
-61
-23
-79
-57
65
33
11
72
-46
-61
-46
-42
-17
-93
-7
4
18
29
-50
-30
-45
-34
32
-28
-43
-128
10
-32
-6
-28
20
43
-9
8
-47
-5
55
4
-36
13
-11
-6
-7
-43
8
22
-18
-40
-8
-17
-69
-33
51
45
-3
48
-35
20
19
-35
-4
-7
29
-28
-4
-85
79
1
-1
-43
58
-73
-27
59
-121
-93
51
-48
13
17
41
9
-15
-84
-83
-44
-19
12
-13
37
-63
-65
22
17
-41
-50
13
-24
-20
58
-8
12
-48
-21
-76
-4
70
-36
-10
-41
23
-8
-4
92
61
108
-1
42
56
21
-69
68
-8
39
-43
6
-16
6
-35
-31
-38
29
17
-19
53
-26
-78
46
9
47
35
-58
55
60
-57
-18
-1
-45
46
82
50
-9
49
35
-22
-18
28
-40
-66
51
-18
-120
-76
-37
-31
44
-29
-21
-34
-64
-1
34
-51
-27
-76
-36
-41
56
-24
57
-18
-33
39
-56
45
46
16
-33
-6
-48
62
-30
44
26
72
-16
-13
39
78
24
-13
53
-48
9
12
-51
-74
-43
50
-19
15
67
6
-73
-60
-29
33
56
-57
-30
19
-21
69
2
10
6
31
5
31
-45
12
21
4
-34
-22
11
34
-45
-42
19
71
26
-49
42
51
-6
-24
-51
-60
-52
15
46
20
43
43
46
-45
4
-2
-2
65
62
-3
-37
-57
-89
-34
-26
43
-10
-67
-16
19
-16
61
45
71
63
67
-33
4
-42
40
5
-35
62
27
-45
-7
46
46
60
8
-12
38
5
23
-39
-12
-60
-53
-69
-62
24
-80
19
9
44
23
-42
-58
-50
-57
4
0
30
-46
24
-30
45
-54
4
25
62
-8
-40
-58
-2
-1
10
21
59
44
22
-93
9
-56
-37
4
25
22
28
21
18
-41
22
4
34
-21
-36
34
-35
25
12
20
13
-67
-76
-12
1
35
-2
-10
3
33
-12
5
-21
-17
7
34
-33
-13
24
7
-68
-16
-70
16
72
103
105
-6
-1
35
5
-32
-78
-67
82
69
14
42
-44
16
37
52
59
20
-47
14
-7
88
62
-100
41
-128
18
51
100
-60
-56
-14
59
53
55
63
30
-36
-77
73
41
0
8
16
7
52
-16
60
10
-36
-41
-62
37
-31
50
-58
-65
57
-3
-25
-22
57
25
43
-24
39
28
61
96
29
-8
-77
-44
-33
-98
30
-34
-58
45
43
70
-21
11
-41
-64
77
-9
-57
-52
-20
43
48
34
63
-1
-26
61
-24
-65
-9
-40
-68
56
-22
92
59
69
70
37
-92
-89
58
46
65
-56
55
11
19
-2
-37
75
-20
37
-18
49
-33
33
11
-110
-47
-31
59
-16
-60
-62
37
-74
47
10
0
73
-54
-58
-55
-54
26
-62
76
14
81
-16
-25
-34
-52
-19
-26
9
-49
65
-28
-18
-114
-63
-1
90
66
15
-79
28
-66
8
27
-74
85
-59
-100
-93
39
-105
-16
26
-38
13
-19
-18
79
79
-18
19
54
57
94
62
105
102
13
3
-4
-74
38
-57
-61
70
14
-35
-28
-45
-42
61
-17
-31
27
38
13
18
-24
88
12
-82
-8
-57
43
22
-5
50
-85
18
87
38
-61
58
29
39
-43
-81
54
6
25
-62
92
-54
13
117
56
-19
-84
75
-23
66
-34
34
33
-3
76
-15
69
-7
-31
-1
11
-19
-75
-29
-28
59
32
-81
-9
14
1
-43
-9
55
25
43
-27
-81
-75
72
42
-8
-90
-82
28
-58
82
48
80
-50
-22
78
42
-51
32
-29
-78
-5
-54
-18
70
-18
33
36
-54
7
-62
65
-32
94
-38
-9
61
39
38
-74
100
-8
54
-6
-51
-23
75
-5
46
-54
-6
97
41
12
-26
-60
-60
46
-43
16
-47
-43
55
13
-8
-41
-35
63
-58
-61
12
-57
25
-19
-30
-7
-7
-9
-1
1
28
62
31
26
27
-44
16
-47
-87
37
-94
-84
-3
57
68
-21
-28
68
68
-36
-53
8
-48
-79
-32
49
-104
49
-39
-39
0
-12
21
-84
-59
-74
-57
-15
-69
-6
52
4
57
72
55
2
67
11
4
76
100
63
-8
14
-31
-8
33
56
67
66
85
51
-3
77
15
73
-11
86
-45
-33
-47
31
2
27
43
-46
-30
-5
-90
-53
64
-55
-18
-34
-111
-54
-42
29
40
23
-83
48
75
0
48
47
-78
64
94
1
20
19
-87
-75
-36
51
33
-77
59
85
-59
0
0
-4
-88
40
39
8
10
-4
14
45
14
64
26
32
-29
10
52
-9
14
-44
6
38
-53
-64
-16
45
23
15
7
-62
-81
34
-40
-62
-54
-82
2
-49
82
23
21
-60
-37
21
2
-58
-64
26
27
49
-43
-63
-5
-18
-90
-54
-6
-42
48
-47
56
72
4
-33
4
-27
58
-12
64
53
-15
3
-5
15
-15
-26
-20
-19
-45
-19
18
-57
21
37
6
23
-36
85
-75
-16
12
15
-35
75
-18
24
-25
35
68
-23
-9
59
43
50
7
66
-46
-6
43
-80
-30
-68
0
-20
-57
58
-61
-3
-30
4
37
-67
90
92
-12
-35
-105
-22
35
74
-55
-77
-64
-45
-57
-58
-34
79
-4
25
-10
73
101
19
34
-25
-29
5
57
-43
-4
-42
39
68
-45
-3
-45
5
29
-35
39
33
-64
-3
-42
0
44
-70
-41
-2
55
-51
-28
-10
35
-94
-51
-39
-3
-38
66
-5
2
65
-14
-39
30
-7
65
127
71
32
2
24
-24
-50
-61
-75
-39
49
-31
51
-57
41
75
-70
-27
22
-75
-48
42
8
111
-21
16
-35
34
-22
44
32
65
0
-66
25
-56
-65
-37
-55
-26
60
54
17
16
-3
-3
43
53
2
-14
66
-57
53
-35
25
52
-13
38
-45
33
-57
-22
-78
-105
-53
-24
-21
54
2
10
47
-40
37
-29
-59
-36
-58
-52
22
15
30
69
-8
-1
-10
-20
61
40
-68
34
40
17
28
52
47
33
40
-37
43
-41
2
-14
62
84
40
-28
-43
-20
-89
62
-70
58
-66
20
-39
-46
22
-44
79
-31
66
-9
70
-42
20
-26
27
-44
57
63
72
63
24
17
70
86
82
-1
55
65
54
30
13
33
-36
62
-10
-41
-4
19
18
-61
-42
-72
-45
-57
65
-49
-45
-35
-29
26
-27
-29
47
65
44
-4
55
-39
59
78
81
88
59
63
-69
11
17
13
11
25
41
-64
8
7
81
-56
26
-25
85
26
-43
44
-31
29
4
-38
31
-45
-32
-68
14
34
-51
-44
74
0
-25
-33
-34
9
-27
35
61
-79
22
-39
-69
-64
29
-16
-53
65
27
4
23
-15
-22
-40
-20
-66
41
21
-62
-32
59
10
71
-67
66
-53
31
-70
25
21
-77
-29
-52
-16
-30
54
-12
-46
-10
-18
23
54
-75
-58
46
-53
40
76
0
-59
-26
-9
57
21
9
27
27
-8
-57
65
85
75
-8
-21
58
81
35
7
73
44
43
-22
26
19
19
-59
-36
-70
-40
84
85
10
27
-67
-61
-25
-45
-58
-20
-21
-62
3
71
-65
19
-18
20
8
-73
39
86
55
22
57
90
-36
46
-92
37
23
-45
20
21
40
59
-4
-79
-40
60
-7
40
12
-37
34
92
40
42
-115
86
0
-33
-45
-87
44
-73
8
75
57
20
-30
-54
36
29
-68
67
45
-16
68
51
82
79
34
-75
-121
-12
-37
-62
-37
-26
-32
127
16
-29
28
24
42
17
-73
-61
31
-77
34
-23
34
18
99
-4
75
65
29
29
33
-12
-17
50
-62
-71
-1
-53
-69
2
-42
-4
11
-77
1
105
66
74
62
54
9
-39
64
-24
-24
14
-16
-41
-63
-31
-21
14
38
-38
-55
40
120
-39
-26
8
49
100
77
37
6
73
-38
-4
-19
0
-27
-31
53
58
-33
-64
84
-14
17
58
71
93
34
-38
-39
63
-40
-29
40
57
63
-62
48
-13
3
40
5
-9
20
72
-82
10
-5
10
15
27
9
-63
89
28
-67
-20
-25
-100
-53
-3
12
-38
-57
-120
-71
-20
67
10
-40
-44
16
46
-40
-59
-34
91
-8
58
34
41
-42
24
-45
43
-5
77
-24
-56
53
50
84
75
44
0
-19
15
62
116
10
-86
4
-75
-65
7
-41
69
-60
-5
-41
-107
-44
-32
-7
-45
66
-22
58
92
-63
20
-13
23
70
51
39
-59
62
88
3
-12
-70
62
-41
97
3
59
-30
67
49
101
-7
66
-1
7
-21
-27
-73
-33
-15
79
-48
84
61
-25
0
31
-55
-4
19
-58
-12
74
6
-42
-69
-14
39
18
122
83
71
-74
103
8
10
27
92
-33
-40
-66
30
-18
-30
-57
11
-26
34
-31
71
59
-26
-55
22
-32
-69
28
-99
-55
54
-55
-33
6
-55
83
32
-37
-74
-42
-99
24
-2
60
41
-118
-18
-50
8
75
33
53
87
78
-63
-16
4
21
57
-47
-34
-106
-5
11
2
21
-65
-55
34
52
-3
-79
-40
73
77
0
55
44
46
13
23
-53
-26
18
-24
58
42
40
26
75
10
-35
41
85
45
40
22
-26
-25
-42
35
34
25
-59
-52
-21
-49
-34
-16
-54
3
-55
72
62
-50
23
-12
-23
84
31
-29
1
27
4
103
37
-30
-19
-48
-48
65
22
-75
-2
1
76
76
94
89
6
72
82
53
34
5
-32
-36
-39
61
-11
-9
-84
23
-28
31
-46
-78
9
0
3
21
-35
68
62
63
100
1
50
5
-65
-42
62
23
-16
-85
76
-59
-101
-5
52
31
-18
64
-77
-5
6
91
10
-61
-49
-59
22
-4
-11
-80
2
-2
-27
-73
-58
27
-16
12
-128
48
13
80
-37
103
1
114
29
92
-33
-2
-56
-24
-76
-54
100
83
104
52
-88
16
-11
-4
69
43
-22
-46
91
-92
12
4
32
-41
-19
17
87
18
51
20
3
2
-79
-15
-73
-40
108
-45
-20
17
-43
16
-50
94
104
2
102
57
-28
-5
33
28
52
-53
-91
-52
-76
-81
-37
24
-28
-31
61
-31
-95
40
48
6
-25
-24
-71
-82
-90
53
-51
11
107
8
-34
99
9
11
-85
-33
25
55
-21
-52
-32
16
83
-98
48
14
39
-63
69
10
-51
-104
-83
-67
-72
-19
52
8
123
-24
43
-7
-43
-83
-20
-5
14
17
74
-41
-70
-39
-16
-4
18
-6
107
25
99
54
4
-4
12
62
-86
65
70
51
-3
-59
-25
39
-60
-30
-67
-38
69
88
53
-38
-54
-42
24
73
41
9
-82
39
84
33
-29
-89
-64
-17
72
-21
31
-55
29
44
-5
13
-76
-44
2
87
106
48
-38
59
84
10
15
21
-60
38
20
-64
-73
17
-35
94
-17
-22
85
-75
3
-58
3
-37
56
-37
52
-31
64
-28
67
10
18
56
-22
-73
41
-37
-14
-80
-28
34
-48
-16
86
-25
-59
-1
65
-39
12
-105
-41
-74
-50
-63
72
-58
-8
-74
-69
-3
22
31
46
48
-127
-25
-54
-58
-5
34
-39
0
-25
-14
-19
-49
1
68
22
-12
-39
-51
39
-71
33
-19
-53
30
-40
-74
57
32
-21
-46
33
32
36
46
-83
-57
45
48
-13
73
-75
34
89
50
-8
49
-17
9
-28
-57
68
12
12
4
10
75
-18
-53
42
43
-86
-47
70
-23
56
17
63
63
-27
-23
21
24
57
28
-28
43
14
67
-30
5
47
-66
37
-37
-50
7
79
-31
-38
27
68
71
54
60
84
70
-22
58
41
67
64
76
18
16
-114
-67
16
-47
-75
-36
-6
-83
-82
24
85
43
-54
-63
44
28
-62
-41
60
17
66
-46
-58
-3
94
-10
-45
-79
-6
-75
44
56
-58
-87
66
-98
32
91
92
-28
-31
65
45
27
43
-44
-107
16
3
34
24
-74
-54
85
35
-31
-6
-62
26
-40
108
-83
-16
-15
15
58
74
-55
44
57
-72
-34
-87
48
52
62
-80
27
-20
17
-84
51
78
111
50
-83
-83
-118
-120
63
-56
87
42
-42
51
41
-91
-125
-18
-85
-12
-107
-21
82
108
69
-7
-42
-116
-83
100
-81
-93
0
97
101
-40
-57
-115
61
-67
-51
-92
-18
62
-19
122
-49
-36
-23
-19
-7
33
75
-120
-12
48
-125
67
-42
78
47
-50
87
-125
-79
120
71
-105
56
-122
-85
-86
-48
16
-19
-88
105
-89
53
25
30
-95
-122
91
0
48
-50
-2
-51
28
93
6
-25
-50
-63
-95
123
-26
37
-93
48
35
-48
-18
-58
-119
-63
-91
-21
-62
17
58
12
124
-43
-84
-80
31
-68
-51
77
-61
-95
100
8
85
-100
53
90
-19
-100
113
-118
80
72
-74
-50
1
-7
-36
110
-40
32
-34
7
-93
21
-73
-69
-92
34
-53
-41
56
-94
111
-75
13
-97
115
117
-30
87
-71
84
-124
23
-1
-37
-106
-76
-21
-4
-80
45
42
-32
-61
65
22
103
95
-67
-11
-89
56
43
-6
28
-60
-73
32
-111
54
-84
38
-73
-62
-7
98
12
-24
-46
-5
-104
10
90
6
-44
2
-66
-41
-63
109
76
8
76
40
123
-78
15
-18
-26
14
16
114
-69
-6
-43
-47
82
124
-49
71
-41
-83
82
-43
-99
73
39
114
30
40
81
103
-52
-48
-114
-98
118
-57
-109
-57
-55
-92
-92
70
54
-83
-55
-56
-54
34
55
-47
117
-2
1
105
2
-91
-101
95
18
34
-93
30
-46
-90
5
-88
95
7
-11
32
54
-67
-96
-13
-78
-51
95
-119
115
-75
94
70
74
30
72
-58
-115
87
-126
-99
-113
126
119
33
-40
-107
-124
104
-41
-47
-104
117
-60
-23
119
-66
-6
-96
-90
95
110
-107
-113
86
118
51
-85
-2
91
-78
101
-121
-74
-44
76
51
-79
-21
-86
-68
-12
-64
-96
-29
93
-25
64
44
-41
-70
-78
50
124
91
-2
-93
-62
45
-19
-1
-5
41
81
-59
-68
47
-47
108
-21
94
103
20
83
-78
-93
-125
92
65
-8
21
-53
14
102
114
20
-123
-50
51
-122
-23
117
58
18
99
-96
-81
-23
18
14
118
-3
54
63
-108
12
-43
13
81
127
-48
63
-111
-57
-61
99
-123
-5
-31
99
63
-91
-117
-61
-127
112
-1
50
53
95
54
-20
10
29
-6
32
-102
-52
-65
-115
20
19
-47
-54
-23
-119
-89
2
70
-5
-107
-39
79
-7
-31
88
17
45
-61
-21
109
-4
-124
-48
59
-83
-14
68
-109
-31
-1
7
-48
-48
26
-99
82
-101
-88
62
58
-101
-81
-126
-115
-107
-46
11
-23
61
123
-3
-15
-34
21
60
5
-30
12
45
-47
40
8
46
46
-5
19
14
-25
28
8
9
-36
32
-37
50
-71
22
17
16
-18
-35
50
1
-3
-97
-64
30
26
-27
-5
18
-12
34
34
-47
40
22
-46
50
57
65
-63
-48
-32
-40
23
49
57
89
14
-33
-27
51
-61
15
50
-70
-41
-13
50
1
-60
-18
51
-38
27
-43
1
29
43
-20
-8
40
-21
39
-45
-51
59
57
53
-7
22
3
48
-3
41
-101
-38
-76
-82
-18
2
-56
-38
23
-52
-52
21
-46
19
39
-48
-3
76
-23
0
30
-21
-34
40
10
40
-49
3
30
-4
-57
-34
-70
-75
-13
24
-10
31
29
24
38
20
8
8
-17
-26
31
3
-46
-3
11
-56
9
-30
-32
-13
-4
13
37
15
41
51
-68
-45
-2
18
-34
-68
-56
-43
-72
-33
-61
-71
10
-14
-52
42
-60
-56
-11
-29
10
-23
57
-40
-20
12
32
43
7
15
-43
28
-47
10
11
-14
-24
3
-46
-18
31
-62
-17
27
-17
-9
-41
-15
15
26
-25
61
-46
-43
44
-35
23
-11
51
15
-51
3
-85
6
43
-80
8
-17
68
-23
-71
-7
-61
31
-19
-42
-21
-54
0
7
-43
51
20
12
23
-3
55
78
47
-32
-1
20
-57
27
30
-6
58
-51
-19
-31
-9
22
64
26
-17
0
-88
34
18
15
-33
17
-36
-19
5
44
45
-17
42
-27
-1
20
4
-7
-19
-6
14
-50
0
34
-47
55
53
56
41
14
63
-27
32
29
0
61
16
-12
34
24
3
-50
-8
-32
15
48
-16
35
60
49
49
37
-52
-31
2
-32
-58
-41
53
-9
0
-17
52
45
7
-46
-29
4
-46
43
20
-21
-33
58
30
-33
57
36
31
-13
84
60
56
-66
39
66
3
-27
-60
-30
0
23
43
29
-41
10
60
-10
24
63
-30
5
20
11
25
-43
42
0
37
91
3
-20
48
-47
-14
13
-26
-5
40
3
31
13
-23
-12
-1
-63
-11
-50
46
-72
43
-67
-65
1
-3
-38
7
1
-13
52
45
-49
-5
17
45
-22
35
-28
8
-57
11
-43
-1
-38
-63
-23
51
39
33
-21
-47
19
21
-57
30
-10
-9
31
-33
0
62
46
-40
-24
-5
54
31
14
44
-43
-9
-19
-6
-7
-22
-25
20
55
-42
48
42
56
48
-63
3
-14
-32
67
56
26
17
-55
-2
-128
-22
32
27
-52
56
-45
61
-48
-71
-68
2
-53
0
-54
-9
70
-32
59
-22
9
44
-83
-50
-101
-33
-73
38
-56
-38
-57
19
27
82
0
-81
75
-20
-30
-27
63
-8
37
0
-15
60
71
111
102
-52
-95
16
-69
61
-63
33
65
-34
67
35
26
-3
-16
-22
-34
63
-92
8
-38
69
20
81
28
14
-17
-67
-40
43
47
14
-28
-24
49
-19
-27
40
-70
72
-71
58
-50
63
24
79
-61
25
-64
43
54
-59
70
54
75
31
79
57
84
-62
98
9
-71
-79
-85
-20
49
74
-59
-67
-41
48
-10
-52
104
-43
49
-39
7
5
-19
29
-29
-30
83
-43
59
-53
85
-41
56
61
54
27
-79
-5
-128
52
-24
0
-28
-16
-5
-55
73
64
-80
0
-14
-65
53
-43
43
50
84
-37
-3
28
-39
11
30
10
14
-92
-55
26
22
-104
42
45
91
-57
32
-85
47
-80
-14
-71
-36
114
-75
85
127
25
44
72
18
33
93
84
-34
39
91
73
57
-69
37
21
-22
60
17
-26
58
84
-45
-36
37
12
-30
-56
99
28
-3
53
32
32
70
26
66
14
49
-23
41
-64
-61
9
3
-26
-78
-71
59
34
-43
99
98
54
2
1
4
-53
46
-73
-101
-38
-48
-28
4
-18
63
-34
-58
27
-58
51
-19
-102
12
-7
59
-46
-71
1
14
80
26
-16
80
-21
-16
106
-3
70
-28
-88
-86
14
-70
-82
1
-59
-56
69
85
53
62
19
-23
-90
27
-1
43
83
-60
-53
-59
-33
53
-59
-33
13
71
13
-16
42
44
-84
85
-8
3
-5
72
-58
29
-17
-32
6
19
-78
75
-6
-76
-75
-37
71
68
46
79
37
98
-31
12
-63
-18
68
62
-29
36
-88
-93
11
-46
-6
-62
-18
-62
-79
87
-14
-28
-34
96
-16
67
-45
37
28
50
-26
-20
27
89
41
37
11
0
-83
45
-65
-54
-45
-59
54
-2
-64
29
-66
-46
57
33
-9
14
66
-88
-3
69
15
70
-29
-25
-23
-5
-69
-87
-66
-24
85
30
56
-8
-14
-57
82
-2
-27
-86
-87
22
-50
-10
62
35
-16
59
57
53
55
30
11
46
-93
90
95
-27
35
-26
19
18
25
-12
12
17
17
-28
63
50
-24
102
-57
45
5
10
74
-61
-41
15
33
1
2
-46
8
66
52
-64
80
71
42
43
-65
60
56
13
23
82
-79
80
69
-70
-33
57
2
-46
1
-34
-57
-76
-41
69
-24
27
-56
3
45
75
47
-13
-117
-41
-2
-56
-31
7
11
-108
-57
-38
-92
-4
51
3
-5
11
21
-89
21
11
-98
20
15
31
95
-32
29
-63
-104
-87
-43
-86
105
22
8
7
-30
-111
14
-105
110
66
-26
-3
-33
-92
48
56
-48
-57
-55
-88
-88
40
13
66
97
66
-82
-27
-8
-8
95
-91
-43
-51
79
-63
-64
-1
-88
43
79
102
18
-38
108
44
-67
-64
-67
68
88
26
87
98
-5
-4
-50
-52
58
58
87
99
34
10
82
83
62
3
-114
-32
99
-110
83
43
-20
23
76
-110
-58
-59
-60
96
-14
-107
39
-60
-91
13
4
91
-12
-45
-15
-84
45
23
74
107
57
33
-56
35
93
-5
56
37
-63
15
-100
76
-36
-107
55
-40
29
-115
-114
70
-23
25
-63
92
4
-73
-51
2
32
72
13
-24
94
87
-88
-111
26
24
42
38
-115
91
-8
53
-36
4
-118
42
28
27
-110
-114
4
111
-58
-19
108
-114
-78
98
-49
37
-38
-87
72
48
-27
-46
-26
-83
90
33
-64
-65
61
-28
-41
-61
-46
-105
-74
100
59
-36
54
-80
-73
-35
-88
84
5
-40
-108
12
-16
-115
75
-104
-79
99
-70
-1
-105
-66
67
-72
71
27
-113
96
87
-64
6
71
-55
59
-67
-107
-16
78
-120
-76
-82
15
-30
34
-42
17
-100
29
-99
-38
68
88
77
-57
-94
-79
26
-68
99
7
-73
38
-87
-54
-110
114
-13
-78
-25
15
47
42
78
-102
-57
-72
23
91
38
-74
104
11
-119
-69
-42
-73
99
39
65
-59
-18
38
-116
87
-24
-41
-80
18
-32
103
66
-36
77
-27
-22
93
112
-105
-69
113
89
-63
-107
-27
-38
-63
-101
-84
2
-76
18
-93
44
16
-90
-33
56
-66
3
83
44
90
43
-30
-39
-11
61
23
0
-23
-2
-22
102
-49
97
-42
-93
-32
-119
-70
13
-14
-66
19
-26
0
-50
35
12
26
26
53
57
-16
78
34
-23
74
-21
-128
-99
-97
-111
-93
-51
-114
88
-15
31
-38
-90
-112
-114
62
-86
-84
-85
-105
71
-17
74
72
-31
-93
-112
-57
54
-85
78
-25
-114
-94
-31
-66
60
67
-24
97
-4
51
-97
-8
-88
-12
-3
51
89
82
-121
-19
24
21
5
87
0
-37
18
-48
-12
10
111
-65
-68
-114
-64
-120
-114
95
75
-71
-46
-5
93
44
11
83
102
63
-59
59
23
-78
59
-98
-49
-106
-84
-4
-31
-41
-48
-4
-70
-44
-42
-62
-83
-48
-36
-49
-72
-24
-4
-15
24
54
34
19
-51
-21
-3
-19
-64
-65
-23
16
5
113
74
-30
76
40
34
32
-15
38
10
15
-50
9
-86
-112
57
9
22
-21
-71
-47
-41
-13
-2
-81
47
-44
80
34
-13
-56
3
35
62
56
76
18
-12
43
40
-75
-16
15
-21
43
29
-19
9
78
-48
23
-68
-28
-37
-38
-87
23
-17
27
-45
67
16
1
-7
72
103
-37
30
-31
25
-10
-26
16
69
41
-39
36
6
-38
-11
-44
-1
65
-35
-18
-65
-57
51
51
-44
49
1
-61
-52
19
-4
52
-30
-37
-35
39
12
-10
14
78
-12
-62
-68
-27
4
-9
-54
66
-22
31
33
38
63
27
23
77
21
-58
-35
50
-41
-17
-8
-29
-58
-40
42
28
-60
-53
70
26
12
28
30
-15
0
-3
-3
23
17
85
25
-15
-38
-43
2
36
23
-18
-55
-68
-42
-67
-46
3
52
-24
34
5
94
3
55
-18
-49
-23
39
48
38
35
-15
64
43
-43
52
-4
13
46
4
-34
-64
20
-44
56
69
55
15
-67
-30
-65
7
70
-46
-47
-11
46
65
36
127
9
-10
93
-24
40
-52
-35
-37
-17
57
60
7
26
-68
-36
-21
53
17
36
74
48
-90
40
45
-54
-46
-20
-65
-14
-10
25
55
61
-47
-31
4
50
37
-53
45
5
-111
-103
39
-7
-26
87
90
-26
41
74
56
1
2
21
22
34
40
66
47
11
-2
-57
-47
21
12
20
-2
20
37
-39
13
10
-26
19
65
-11
-81
-67
1
58
-55
-25
18
36
-85
-7
30
33
58
34
-14
-82
-47
-74
-9
-62
5
6
15
7
17
29
-67
-50
32
19
16
19
70
-56
33
6
62
34
36
49
-65
-67
53
-63
-14
25
-10
-11
76
-19
27
-12
-16
21
54
0
57
29
48
37
-86
30
3
-4
17
-26
72
77
-2
-71
21
9
-30
4
12
12
-80
51
-41
-60
45
-91
-3
-49
-66
-50
-64
-11
10
-66
29
45
-36
-45
-62
-39
66
4
4
-18
6
43
-62
71
-9
33
-51
3
45
62
60
19
-2
-35
-19
-20
18
1
3
46
4
53
3
50
-27
-29
3
62
43
-15
11
-98
46
53
25
48
-53
-91
-34
31
49
-19
22
87
51
-7
34
54
-45
12
45
42
24
-34
-78
-42
15
47
15
-34
-76
-77
-10
11
3
-17
-25
60
-9
26
78
90
-20
32
-68
-76
-41
-59
53
13
47
68
17
-52
-36
50
-37
52
-14
87
16
-36
101
-22
95
93
-88
58
1
51
82
35
38
48
-36
-93
-57
-43
-8
102
65
-16
-9
-46
-68
-57
26
-65
-91
-25
-92
-64
56
40
-4
-6
-57
-30
12
-46
-66
77
-38
-23
49
-54
40
-27
55
-5
93
-68
3
-78
-1
-22
-22
-33
-21
-19
18
107
-108
-5
66
67
-59
-42
39
30
62
32
108
31
-19
29
38
-29
-10
20
35
-95
41
-6
42
-20
-58
-63
-29
6
-45
24
-74
-33
40
63
68
11
-87
-34
-58
82
-9
-39
-1
-13
-72
85
49
-42
-16
-1
44
-52
-16
25
-29
-39
59
-33
-112
65
1
-65
112
8
18
-13
77
3
-101
-57
-87
-34
-24
23
6
100
-122
-16
-73
69
-76
-64
-21
34
-78
-26
-100
29
-13
-53
127
-70
70
-52
57
-56
4
72
13
10
115
-93
24
64
77
52
-34
48
-19
-12
-38
11
121
-10
13
58
-57
-21
-9
0
-73
-7
50
45
79
72
64
-38
-63
-7
69
46
-18
43
72
-17
-20
-79
-21
81
-42
-48
-34
3
-58
87
-80
91
110
48
94
-49
29
-94
-81
-38
-85
58
91
-6
99
15
68
75
53
-86
75
46
24
-19
-67
-73
-59
44
99
-30
-60
-79
35
-8
101
6
2
32
51
-71
28
-25
-41
68
-43
-71
-109
96
-64
-30
-40
61
-28
40
61
82
-45
58
-9
-49
-40
4
9
15
26
77
-91
-88
90
-42
-70
-44
123
-62
45
28
-1
-47
-25
-10
-42
29
-75
-21
66
13
72
-74
-6
83
-56
20
-16
21
-19
19
-51
62
80
-58
-39
68
27
-52
87
40
-29
-7
18
19
11
-62
64
-20
-59
1
45
-106
-10
-33
56
0
75
2
-21
97
-49
-32
-64
10
22
-24
-106
22
-70
-18
-83
-89
-30
105
74
-45
-92
29
18
91
98
-22
90
93
57
2
70
-101
-103
77
-40
20
66
73
100
-5
-122
32
-13
78
-67
-85
91
86
5
-106
93
-71
-4
-18
76
3
-81
60
-32
-5
80
80
-35
-40
-63
65
-32
-21
83
-79
-78
55
-86
-26
115
72
71
75
53
61
-11
-89
69
-9
-15
13
91
-7
68
-110
104
6
87
73
52
71
46
-24
64
67
53
45
-46
13
4
29
77
93
-60
-5
-33
60
-44
6
-59
71
73
-78
-1
77
-22
50
71
-61
-18
-20
15
111
-57
-90
-55
-66
82
-3
89
-67
61
-43
-67
-40
-37
62
-37
-64
85
42
-40
85
-28
10
-10
61
24
-7
14
-10
-54
-30
-4
9
-61
-13
8
32
-55
-33
-22
-37
-10
-31
-17
82
48
-28
-38
-11
-28
36
21
13
34
-24
40
29
10
-38
-55
-56
-60
-23
-9
8
50
61
-10
34
86
57
-21
25
-63
64
16
-72
-53
-62
4
42
46
-11
-4
-38
63
-37
78
81
-35
52
30
55
-33
-70
35
-3
11
40
4
2
17
11
13
60
-8
45
52
1
-63
-15
-92
18
1
-55
18
61
34
-25
25
-20
-1
17
-6
-48
-53
29
52
55
72
6
13
-46
-76
33
31
-36
-33
59
49
-44
-62
-6
0
-24
52
-26
37
13
-18
-8
-30
51
-10
-47
-62
-128
59
-21
51
26
-14
-17
-5
20
-10
62
-22
48
-51
-19
-45
11
-46
26
-39
-30
-24
18
18
-62
-55
7
-65
-38
24
43
-18
-85
20
-62
-48
8
50
-42
-44
51
25
-46
7
-18
-72
24
-43
-64
-49
0
-83
-66
-11
-19
70
55
-14
87
39
18
4
35
-61
-8
39
17
22
-45
-60
-5
-1
29
-63
-67
28
28
-40
-90
-20
-27
8
26
-19
30
-66
-40
-75
-38
15
-45
42
-53
68
44
0
57
-66
62
-21
-20
-45
38
13
19
-49
-55
-37
-39
-79
-63
0
8
34
27
73
-29
-18
-53
-44
0
20
22
26
-55
14
27
35
-41
34
-17
12
31
-36
-10
9
-86
-66
-29
19
10
-5
-24
-53
5
22
-35
-56
-34
-52
63
-9
18
11
-43
19
-66
22
8
-49
67
-12
-5
-53
-43
-41
2
7
-36
-22
-37
2
5
28
2
-32
47
-52
-33
-64
37
-6
15
49
46
60
56
59
16
-50
-44
-32
41
22
-18
-10
-3
-66
-49
-5
3
-32
42
5
27
15
-9
70
20
66
32
-27
9
-53
-63
-40
34
26
73
-10
15
-45
11
-27
56
21
22
51
56
37
28
13
28
62
30
53
72
47
24
-24
14
-71
42
-53
-34
43
14
-62
-26
46
32
11
16
-30
-10
3
23
-42
-48
-39
-11
59
23
20
34
-64
-12
41
35
31
-41
-62
-50
-1
-67
-61
-53
-38
51
60
-10
34
-3
14
-32
-2
13
-43
-56
23
61
-13
44
53
65
20
58
-32
11
-34
30
-16
-60
27
62
-27
48
35
85
29
57
-65
68
57
50
42
-56
16
-16
31
88
-77
-61
-74
3
-37
-11
-3
-28
-37
-56
-1
40
-34
8
-61
-65
-91
37
31
-85
32
-64
36
-18
-32
-67
-70
31
42
53
-104
-100
113
-82
25
-120
-28
71
-105
-106
-95
110
-25
-98
74
102
-38
-34
-24
4
81
86
83
-96
19
-104
14
72
57
77
64
-38
72
23
-14
10
8
-17
54
-67
11
-102
-81
4
-120
10
-24
-4
97
26
86
-124
-61
-81
121
-91
101
-56
43
-52
44
-96
-41
-11
-37
-20
121
16
-70
-52
-20
110
-32
-118
-95
-40
-123
47
-102
65
77
-83
-35
52
77
-32
-105
63
31
87
31
22
-1
-112
-91
60
-11
-60
92
-39
113
-53
1
-25
37
-2
-9
4
120
-111
81
-48
-63
91
-75
-45
26
-128
-95
88
80
-19
-19
-47
-40
-13
-82
-61
-38
13
-81
42
-78
-94
38
-60
77
-39
36
2
-84
36
56
90
118
-30
-62
111
30
59
-120
5
-35
10
-61
37
-72
-121
59
101
13
-40
-40
-14
-44
60
-84
20
-14
-65
111
-40
49
-103
-51
-71
24
-89
-12
114
-16
-29
34
-58
-5
41
5
-87
-36
22
91
-60
83
-91
21
-30
9
46
-33
7
-34
-99
-69
-88
-20
-82
-99
-115
21
-111
57
126
4
-98
35
-91
-86
106
-43
77
27
33
-5
-121
-13
-25
-38
6
-38
-57
18
-94
-98
85
70
-23
95
99
71
-69
-123
25
74
-117
-122
2
123
-104
41
4
-120
-10
1
23
95
-76
21
-114
12
50
-46
63
107
-104
-91
-124
-65
95
87
-102
5
-77
30
69
18
118
32
-118
-18
55
-20
-79
-68
-112
35
22
-108
15
-9
47
-68
76
-48
-17
123
83
-32
27
-110
-62
-27
-61
87
-80
-35
-43
46
-25
-102
-109
85
-83
121
-78
-111
58
50
-116
-12
65
31
51
-116
-53
-64
3
73
-121
-100
-105
75
-70
115
17
-12
-103
83
-52
-3
-37
-4
-114
123
-83
121
-44
90
55
-15
-115
-41
-103
-45
-80
-28
65
-2
-88
-107
82
-111
-118
-46
94
37
-46
119
127
-77
-75
-77
56
-63
-22
-116
-116
-72
-116
1
47
-7
83
-96
-19
13
-84
-113
-99
-124
101
82
81
106
-81
-6
3
74
-43
36
-76
-60
-120
0
-123
-123
-12
73
38
-68
91
0
-10
-19
111
-45
22
-74
27
-77
28
-17
-74
37
114
-59
40
21
15
38
-83
-51
-40
3
-95
41
-24
-45
57
79
-108
-66
-75
-91
-40
-64
-121
79
-19
-6
-16
-82
-31
-19
56
-37
125
-96
63
-118
-60
58
118
-11
-3
-99
-33
117
-85
-67
49
-116
96
81
-99
-3
-108
108
121
93
126
67
-46
101
-44
29
110
95
108
45
-77
102
-44
-59
23
-125
-68
-122
26
-95
-83
-126
44
122
-57
103
48
52
55
65
60
-30
87
-58
-122
70
-109
-122
23
11
-81
-120
102
75
-57
62
0
14
-46
6
-100
117
63
-67
119
120
-82
-73
-19
-4
-42
-117
13
-64
37
-127
103
92
14
99
55
-31
-33
15
-29
-43
119
-107
-60
119
30
37
112
106
71
58
-119
94
-118
-84
-56
1
-67
13
52
-17
-118
-31
-68
96
-96
-63
24
-75
-111
-2
-92
-123
-123
-31
-73
-74
109
-89
98
126
35
-82
-37
83
-71
-53
-20
41
118
27
-39
-19
-112
-121
108
-72
-68
-29
40
-98
32
-7
77
-111
-47
51
-126
-51
83
95
19
-119
-95
4
113
-10
6
-120
-60
-4
-123
-99
-64
88
96
-72
-63
-13
-94
-87
76
-25
-16
-13
98
-89
-28
104
-120
100
38
124
-93
-22
78
41
-20
-125
-99
-112
81
15
-10
-122
82
121
-93
-23
43
-47
-112
31
0
-56
-96
-67
-34
42
17
91
34
18
-128
126
-36
107
46
-61
87
-32
109
10
-1
-57
98
15
-69
-40
117
-64
-32
-36
29
-12
-77
-125
-30
-122
127
105
-6
-39
-55
94
55
112
-32
-24
43
42
82
-118
70
55
39
88
15
32
33
-78
11
-16
5
-89
103
35
50
47
-64
119
113
73
-26
89
-37
71
59
-12
117
-28
-17
-126
41
75
-76
-10
50
-104
3
-90
76
35
118
11
-85
-83
-24
96
25
28
-66
114
-100
47
-120
-78
-16
-88
-117
-33
-56
69
-71
-109
21
-53
63
-56
-53
27
-106
-125
-11
39
-5
-81
-73
65
-91
-115
41
-1
48
-36
-125
-91
-121
25
-63
-78
-17
60
-118
81
-50
106
5
-12
85
-122
-56
-103
-109
1
-32
-86
70
70
-9
37
-77
77
92
-96
55
116
107
-70
-81
-79
-47
117
-18
20
-39
97
24
113
-108
106
-78
97
-48
-120
-33
-46
21
-79
3
7
-19
105
-96
85
-29
-34
-59
60
-58
-61
-110
31
-87
11
67
-2
86
6
5
49
14
-96
92
-114
-36
-114
103
98
-12
108
-93
-10
7
-33
13
-113
-110
-48
111
47
-95
-9
-27
-37
-121
84
-113
-68
-21
14
35
-69
-95
-40
-89
21
-34
-75
-112
13
5
31
37
-37
43
-29
127
-109
-1
-58
-48
69
-14
-64
42
-56
-6
-25
-11
-110
106
52
17
9
-82
-18
49
-83
15
15
64
3
-9
-54
39
24
20
-6
82
103
-27
-25
-71
40
-4
58
52
11
-1
23
-37
-27
-60
-83
-51
36
59
94
-14
10
15
34
28
28
-14
-20
56
-34
-50
-47
-50
-36
-30
45
-9
-77
-17
-59
-70
-40
-47
21
22
77
-19
47
-57
75
0
58
3
-51
-41
0
25
-2
20
-7
63
-60
-52
-45
105
63
-41
-67
43
-12
79
-68
-44
93
92
-29
27
64
-35
11
-14
-70
61
56
28
38
-11
54
-36
-55
-37
70
58
86
59
103
20
19
-84
49
-36
7
94
-19
-33
33
-36
50
-5
-79
-5
8
-13
24
1
24
72
-3
50
57
-41
10
57
69
101
55
19
3
-32
14
33
-74
-42
10
45
-23
-53
-9
-44
-1
38
64
0
-39
-6
41
32
-69
-127
-24
29
28
89
-2
-47
43
42
-88
-99
7
-31
-7
43
-51
1
-17
-81
-4
-59
-28
80
75
47
65
100
1
30
-36
76
65
-27
-48
-58
10
9
-48
-46
-8
20
0
48
-40
-6
7
79
36
-72
24
-3
63
-64
-39
1
8
37
-87
36
-68
12
-70
29
90
17
-30
32
38
-2
19
23
11
-38
-31
-43
75
-39
52
48
-27
-20
72
35
75
85
104
25
-4
24
57
-2
-13
24
32
47
-25
65
-59
-40
-69
-18
-36
43
-33
-44
-41
-49
6
-12
1
-50
-28
23
-11
-5
46
-17
49
-35
-21
-18
-53
59
-53
46
29
-41
-61
76
-73
42
-73
47
25
37
25
64
64
7
-22
-74
80
-30
-16
71
-58
63
-46
-55
62
-53
43
15
-72
59
59
17
-28
27
-48
-65
-14
-6
52
39
26
12
72
70
94
-24
28
26
-81
-27
-12
66
-47
48
-53
-95
-42
-36
-16
-58
0
40
32
62
2
-77
-83
-90
41
55
74
27
-42
-27
-3
-49
-29
-40
-74
-74
-38
-25
62
-62
-18
-42
29
9
3
-26
43
-26
28
35
-29
19
-36
-46
14
-51
11
15
-13
25
-15
-1
25
-52
-44
-36
43
-22
-70
-8
-24
-27
56
-47
27
38
65
31
70
-89
-49
-5
-62
-84
55
86
9
-56
-25
-86
25
-37
68
-41
-21
56
-19
71
-59
29
68
-63
-12
-33
19
-51
-44
58
-72
38
-16
40
55
-7
50
-77
45
-53
-65
-14
-37
-63
-9
36
46
36
-36
-33
-29
46
-67
-6
50
-101
-53
-42
18
-38
24
-59
-44
-73
-25
38
45
-30
-7
2
46
4
-72
-60
39
44
-76
24
-43
-16
-65
-47
-47
-73
18
-8
46
-8
26
-24
11
29
16
41
70
-45
93
39
-30
64
40
50
64
72
67
-53
-74
-50
71
76
49
47
48
45
17
11
-26
19
21
-47
80
6
83
-85
-118
-99
9
-119
-14
68
51
-5
53
-28
-9
22
-39
-2
-9
51
62
-40
22
-45
-93
-57
47
-61
8
20
-20
95
-36
-25
-1
-15
-5
54
24
3
-44
19
-46
-12
20
34
-64
-98
39
47
8
-55
-87
7
51
42
-22
-12
4
6
-72
-27
-87
-15
-13
30
4
50
26
-32
25
-77
-35
7
-66
-61
24
56
-29
45
15
-19
26
28
-39
30
30
66
14
39
7
11
18
-42
-67
1
-58
65
29
12
-71
-60
-44
-15
-40
-42
47
-44
3
16
-62
53
13
-26
-28
-2
-22
-20
-39
64
-2
-44
-81
102
45
97
41
1
-89
23
-70
-35
17
65
23
38
-5
-2
81
108
-21
-56
-53
39
9
1
60
82
-24
23
59
12
1
-4
-63
45
-41
42
13
-11
78
88
-22
9
26
43
-12
59
-7
-22
-6
15
-113
47
32
69
22
71
-84
24
-54
6
57
-42
-15
-128
-52
-14
42
15
27
-27
25
77
16
-32
-47
-32
52
0
39
4
-46
26
-9
-25
55
-52
-19
77
-3
36
-54
-24
-70
-3
67
80
17
51
-1
18
-41
-65
-5
-37
11
41
-44
-5
-6
-35
12
67
-22
-7
-84
-27
-20
21
0
8
-24
-9
59
-66
43
-54
-52
-36
-26
42
-22
27
34
-48
55
-26
-6
-77
9
-58
-49
-13
41
3
-33
-66
19
-54
61
51
-29
28
15
5
-60
15
32
65
71
44
51
26
-5
26
27
57
36
-36
14
14
43
5
-15
-18
0
58
54
2
40
-66
-18
16
-17
-19
57
69
-18
-32
-35
-45
15
51
90
75
-47
41
-18
-66
19
-3
19
-50
-41
27
-50
-27
8
14
32
43
-4
-16
-7
55
42
-54
-11
19
-14
72
-55
16
75
-25
27
50
51
-52
44
-7
-8
-18
44
66
9
18
23
26
36
7
-81
5
69
-56
24
-37
44
-75
26
-3
-32
-36
-14
12
-24
-57
84
53
53
1
-63
57
-54
-33
21
-48
-39
-5
-19
-43
-60
57
-59
-25
96
-15
51
-66
68
61
11
-62
-60
-55
-21
57
-72
30
90
56
17
30
-5
-20
49
75
-34
68
-51
45
-42
35
69
-4
27
2
-45
60
31
-31
58
-40
3
-19
64
39
-4
62
-3
56
-30
37
32
31
-50
-18
25
9
41
-28
70
8
-21
-86
11
-100
-81
-53
-15
15
125
77
80
35
-22
7
-11
22
-28
52
-71
-25
33
31
-15
30
12
9
1
-52
90
48
68
58
61
-26
42
19
92
-25
-72
-43
24
46
-55
-64
-33
-26
-59
17
-59
-1
-24
14
-75
-40
89
-11
79
-10
76
104
-16
-27
-34
-50
-84
19
-4
32
50
85
59
-96
22
118
27
7
36
-67
98
8
-63
17
-40
5
12
-14
78
58
-19
1
40
-10
80
-16
-51
-2
63
34
68
53
-29
-66
45
39
19
39
38
37
-36
68
-9
19
127
-3
81
25
22
49
-53
-36
38
-64
-73
28
-25
19
76
-20
-53
19
-57
-42
62
-1
29
-41
39
15
-38
-8
-53
8
27
76
10
86
19
86
43
-16
5
-60
-16
13
36
-53
-19
-67
-36
12
84
-17
68
74
72
-21
-53
-17
-56
-16
62
-3
-80
28
64
48
61
-13
15
-87
-15
-89
-2
5
45
65
-36
4
-56
-11
-22
-68
-28
-71
16
-3
75
74
-32
8
54
94
-4
61
-40
55
52
34
-14
8
-44
-7
15
-13
-20
65
-52
-38
-28
-29
0
-30
1
25
7
-73
48
39
-22
58
69
12
60
32
22
-13
-51
-68
37
64
-49
-83
12
-3
32
56
45
13
19
-69
60
21
-24
-26
-2
-21
6
100
57
-21
63
-9
-9
-43
15
66
53
-47
29
-71
36
48
-18
6
-79
-36
-49
-1
-42
15
-22
-22
3
-29
51
-30
12
63
-60
-39
-27
-71
13
-72
4
-62
72
17
6
-33
-62
34
48
26
89
68
-57
-8
-56
8
43
-61
-64
-24
-65
-44
-10
6
17
-49
29
27
55
-36
27
40
2
11
-33
9
39
-45
66
-70
41
-52
6
23
51
74
12
-19
-55
-59
-27
44
64
38
75
88
58
-19
76
37
3
-1
-58
31
-6
-10
20
7
39
10
-32
0
-12
19
-83
-32
-12
-23
-22
-80
-57
-60
-14
15
-46
-8
70
-37
13
47
-25
-89
-31
-46
62
-55
10
-5
-56
58
64
25
23
9
-36
26
-46
-58
56
70
24
-29
3
34
-5
29
60
-28
-16
-44
8
-15
-29
80
51
-25
-46
-47
-28
-66
-27
-90
36
19
7
-4
-29
-10
-91
-73
-28
29
19
-37
41
69
-12
-9
-38
-65
-58
13
-62
-54
5
-57
-72
-36
55
48
-46
26
-56
31
-87
-76
-52
21
-35
88
7
-9
73
78
70
-62
-37
76
-35
117
0
-40
-16
74
59
-80
12
46
-8
22
11
-25
-89
-61
-116
-44
-76
-14
22
40
-73
-5
79
-57
-30
-34
-83
-5
91
60
-9
-55
15
13
35
108
-8
-73
47
-21
28
-58
-32
-10
60
-75
-63
42
87
-76
-11
-87
22
7
-40
74
51
-71
39
-43
-96
-15
-4
-71
-22
-46
-4
-96
64
57
-25
-68
71
-25
72
-87
-60
-22
18
-49
11
87
-20
14
-54
-36
92
80
-30
-20
-72
43
86
-39
69
-18
-46
-67
15
18
27
-1
37
45
54
8
-19
-48
48
34
-17
96
34
0
60
103
8
-6
7
29
34
-29
-60
-90
-25
-94
3
-75
36
77
-50
-8
-11
51
63
57
26
48
7
-2
-106
-70
-53
71
-45
37
43
76
39
-71
2
92
-3
-10
-123
19
29
44
110
-61
-72
5
-1
-15
-50
-110
48
39
55
-30
59
17
40
127
69
-61
-26
52
4
10
82
114
105
110
-50
-3
37
18
74
-21
-35
-54
2
-20
-27
45
60
-83
-54
-32
-45
41
-100
33
1
-48
89
-41
56
-30
27
19
2
16
0
-75
-44
-55
-64
107
-21
61
77
-70
-15
16
25
61
117
20
0
77
16
-34
-12
-13
-76
-11
-52
100
78
42
-67
11
-13
25
-9
31
79
67
-41
62
-50
72
-38
17
-13
-10
61
-88
40
-1
74
54
51
-81
62
24
-7
-64
-103
-34
63
-42
-22
25
22
-68
-28
-9
-71
-2
70
-53
-92
-29
32
10
-32
31
25
16
82
77
-41
58
-30
60
-69
85
48
-19
-70
-36
46
37
73
-62
-23
-11
-63
-43
76
65
94
-28
80
-63
-48
32
55
86
48
44
-12
18
-8
1
96
54
-25
4
-62
27
15
76
-71
70
-24
-28
86
-1
-10
80
20
28
94
45
34
-58
-36
-25
76
14
57
-57
38
-47
8
14
-87
-71
-1
20
16
-38
-74
-68
55
79
8
-22
-58
-106
-100
-89
-89
-3
35
-15
-1
56
46
-81
57
41
35
61
-55
-82
-67
71
3
-82
15
-49
-41
-83
-25
-28
75
-21
-89
-44
-7
-11
40
7
22
60
-118
-92
64
-76
67
90
-16
12
60
30
-50
-63
-67
-21
-87
1
73
-52
-63
53
-17
-33
-71
74
-66
-24
15
73
46
-69
44
-19
88
76
45
-75
7
-84
-40
-46
26
-24
21
36
-30
28
-70
-10
-69
-94
12
63
-22
40
-11
-5
51
-53
72
61
46
14
-27
-99
-46
73
-4
5
89
-17
90
62
-49
19
-27
-113
-104
50
-34
-104
-78
-93
61
12
-62
21
88
100
81
-115
85
-50
20
-69
12
101
42
29
-57
-93
-46
-86
-12
-33
-106
-25
30
-37
-25
107
-118
-100
95
-68
98
107
60
84
-107
-112
-68
19
29
17
-22
-113
-14
55
87
80
-21
94
63
84
-111
20
-58
-37
0
-118
-71
-102
-43
-86
-26
-59
-63
45
68
61
-10
68
27
76
17
-19
48
-68
-119
30
-52
-93
-26
-46
39
-86
-107
29
-20
-21
-117
-5
-18
20
-103
41
39
-114
15
-89
-14
-74
110
-97
85
-4
-99
-45
-87
-76
73
-85
3
-70
102
38
-35
116
62
-114
78
-67
-80
49
-17
37
50
-7
106
-52
-113
92
5
-103
101
47
-128
-72
7
-33
56
47
-9
-38
-117
79
12
-107
40
-69
-69
111
-105
65
50
-90
-17
73
-115
30
-99
36
52
-22
-28
-53
33
-82
49
-79
-52
-20
98
-119
29
-80
76
-112
106
-21
-85
28
114
-22
44
98
-12
-123
-98
100
74
-118
76
98
106
14
-34
-50
-29
-81
-50
90
32
-29
-61
23
-53
64
-93
-87
-96
-120
36
-10
-37
-43
-109
43
59
-48
101
-57
83
82
-114
63
-122
8
-95
-77
9
27
57
37
21
-25
15
75
-71
71
-58
-68
78
82
67
80
101
-2
-95
-85
-53
32
-102
-2
-87
38
-39
-63
-6
45
77
-30
-18
-117
47
-81
18
-66
28
46
97
-39
44
96
102
72
45
-65
95
-109
-58
94
-115
10
-99
-114
-27
-71
-119
90
-25
97
80
83
24
-77
59
-35
-45
100
-13
-64
-21
61
-51
31
-53
-87
-64
47
-74
-65
-54
98
34
-101
30
22
109
-18
87
-107
-38
-15
92
-8
-89
25
65
95
99
-68
110
56
23
-33
-103
-96
24
-81
96
-17
30
-119
105
-45
42
-58
-76
25
-119
-87
64
-104
109
-35
-91
-62
-1
49
9
-29
-1
-41
-13
-61
-38
-97
-106
-15
-81
-34
-38
-93
-22
-42
67
36
-91
-67
22
10
-45
-81
-7
-73
37
-100
-95
-39
80
-73
-106
-4
1
-79
32
11
-53
-104
34
-19
80
-59
-109
96
76
-43
-80
41
-56
30
-24
1
80
-70
-117
90
-83
-62
-91
-33
14
87
102
-90
4
-77
61
-116
107
7
58
-91
-68
-14
46
26
-100
18
79
68
-123
-112
-92
-63
-73
-8
97
-36
-54
48
34
-42
59
-83
-56
22
16
22
49
87
-55
-18
13
-5
-36
-32
10
6
-34
71
46
54
17
21
11
70
67
91
38
31
51
-16
-50
46
-60
21
-3
23
61
20
64
29
88
67
8
-77
-45
-35
53
-69
42
41
14
44
-50
1
7
59
-16
56
12
5
14
51
-34
-19
66
6
-31
-44
-54
3
32
1
-8
-24
71
12
38
22
-3
-15
-47
-36
-43
49
-26
32
22
-73
-51
-58
12
30
55
-59
101
37
68
-17
31
23
72
59
75
59
37
11
-58
24
-36
54
50
80
-21
-98
-42
-127
-36
25
3
71
77
88
59
-26
46
-89
-39
1
-10
39
64
55
45
-51
-38
-96
26
-27
46
-14
0
22
73
29
27
25
-63
-86
31
33
-39
-55
44
69
-16
55
69
70
-51
34
-54
-43
-16
48
45
-7
-94
-43
-61
67
-30
17
30
-40
34
-41
33
-21
66
-36
-52
-46
-91
-69
18
76
21
20
-39
37
-21
48
-18
50
24
40
1
-35
50
6
22
-23
-18
41
11
56
-8
-57
-13
9
-56
16
-55
52
-45
-26
79
-34
-23
-26
44
-12
65
13
65
-57
-8
11
32
-16
42
-94
-70
54
-25
-18
-53
-25
-33
23
-101
10
-51
-33
-7
28
113
-26
55
44
41
-43
-64
-7
-55
23
-1
62
31
19
1
10
14
-55
-92
-39
-44
-13
-35
-45
48
13
-29
-36
-39
-48
-53
22
-37
91
4
7
9
-60
57
-49
-34
-45
-15
36
40
33
-66
-22
-21
11
15
-84
14
-28
15
62
-83
-39
-43
9
-16
-31
65
-48
24
4
34
-3
0
-51
27
-38
42
45
-37
62
-29
57
6
-8
47
-35
-74
-36
-74
-31
-5
-64
72
-65
-46
23
37
-2
37
76
28
-62
-67
-9
82
51
-60
-24
-24
-50
28
49
-56
59
12
-70
54
69
3
21
12
70
-63
-11
-73
-3
-46
-38
25
-15
-25
-36
16
-11
66
12
32
-35
18
-15
-2
-15
38
10
-61
54
36
37
50
-31
-81
36
-42
-7
30
41
34
-60
-56
-34
17
22
-32
-21
-21
-51
17
27
127
89
-9
-41
-65
-51
61
29
71
8
-32
-20
61
7
-56
90
-56
45
39
-40
58
-51
-58
22
-33
55
42
-36
-10
-57
5
-47
64
-70
-67
8
22
106
61
75
-18
-57
67
-11
-54
1
-11
27
-50
82
32
1
-77
78
26
35
-34
-52
18
17
-12
57
21
27
38
39
-45
28
44
-30
45
-31
-2
12
-40
16
-23
4
1
3
31
4
8
32
94
123
53
-43
74
77
-45
-50
35
52
32
99
75
1
41
31
41
-42
-94
-48
-40
11
16
76
-40
2
29
-3
-11
-42
-48
-81
-25
-62
-75
-19
-37
30
62
-6
67
-19
-23
59
13
-41
-48
55
30
25
-76
42
59
-16
-77
44
37
-40
-32
25
-70
16
-81
11
-1
46
-31
-83
48
-84
-19
95
-69
45
47
24
61
5
19
85
4
27
67
-6
-62
60
44
-46
35
-15
3
58
-5
16
-24
65
41
60
-18
-25
-32
-17
44
-32
-10
-44
33
53
-16
28
17
-17
59
11
92
32
7
88
89
-44
127
88
54
75
-49
46
46
82
83
52
66
9
9
-76
-74
46
-27
66
-39
-39
-2
7
-63
2
-49
-1
37
22
-28
1
-71
40
-35
-65
97
22
0
-20
-80
-21
26
95
-11
55
26
56
23
-56
-16
-52
20
76
-44
38
41
49
12
-25
-68
-40
-59
34
10
-71
-23
-3
-26
68
-2
49
65
58
-40
-37
-8
25
7
75
-12
-50
-61
79
-58
-16
14
50
49
-64
59
83
-14
-37
-79
-5
86
-43
60
76
6
38
-24
-26
4
52
-40
20
20
-12
40
-9
-45
15
13
-30
8
82
-21
11
49
48
-62
-46
-26
-24
53
-31
101
-51
0
-114
-49
-8
-4
-24
8
26
-29
-61
-49
-6
-47
31
-31
58
-48
-43
-4
-20
77
-63
-61
25
10
17
-54
23
73
25
-13
-7
-9
47
21
-50
-56
54
-36
12
74
22
-65
35
-10
-32
61
-31
-23
3
-62
10
-43
-50
44
7
76
57
-88
-9
-31
27
65
76
-13
55
63
13
-41
15
18
43
62
-66
-21
54
-50
45
9
-19
-38
29
11
-53
52
-78
27
66
-56
9
-8
56
38
-35
-44
20
68
13
-45
-99
90
16
-29
-68
0
37
-37
-58
11
-23
49
55
11
-32
-81
-15
32
97
-54
-51
6
-34
-77
2
11
78
-32
-70
-21
-70
60
51
-36
24
-12
-15
-36
-10
-5
-1
-93
26
19
-13
-62
-56
-36
79
8
25
-51
-48
-61
-82
-26
-66
-16
-9
37
49
16
16
8
26
-66
-45
-28
69
2
43
20
70
-34
51
-11
-67
-45
-16
36
-81
-68
-1
-74
11
56
92
3
-18
66
-44
62
-33
57
8
-54
32
26
3
38
-43
-13
-29
-55
8
77
-2
-70
-68
-5
33
65
65
4
45
34
-63
-73
16
79
26
-21
43
37
15
48
-19
-47
67
49
61
40
-4
48
36
-47
27
-35
44
-60
-37
16
9
-92
-40
24
32
97
104
-19
127
-20
-55
-19
59
-64
-53
-38
-5
-1
-13
-49
57
-43
-42
-19
-21
-10
35
37
11
-28
-44
78
1
-42
-59
16
19
-29
-39
-78
-69
59
46
-18
35
-60
18
56
-35
-24
0
-69
51
-74
13
-48
-68
65
34
8
-52
-34
19
-23
-11
34
-5
46
-38
46
43
35
-34
-31
-42
-71
58
-42
26
21
40
67
38
-51
27
-13
-28
4
60
-23
35
4
58
-18
3
-14
-62
-25
-59
-49
-25
2
-19
34
15
-27
-37
26
43
53
15
10
48
-38
-14
7
-64
45
30
-5
59
-52
23
52
21
-51
-13
69
8
-3
-40
-64
-41
-12
-62
-10
-39
-47
33
-51
53
-2
41
-44
56
-50
26
0
-51
-39
1
12
16
68
-41
49
-31
89
76
-2
-8
-21
32
-26
33
-55
19
-31
-35
-53
34
-3
-70
18
-43
-20
-63
-4
46
32
-19
-41
-30
-3
13
3
42
29
23
63
-41
37
-13
-14
-100
-4
-86
-24
24
-60
-5
64
35
41
-12
54
60
20
-60
-43
-15
-83
23
43
-41
40
41
-5
50
-37
29
-24
-80
0
9
-18
43
23
-48
0
2
-18
-65
54
20
38
-43
5
2
-23
-5
17
-11
-30
-85
-43
-64
-62
-36
-7
14
-40
-48
-61
-8
-70
42
-41
-52
-15
39
-16
-5
-82
-61
54
-62
-36
-33
-30
-21
-41
31
60
-18
-18
15
-11
-34
5
-39
63
24
-14
11
67
-59
47
-24
53
-8
-69
-33
8
55
25
-40
-72
11
57
-15
-9
55
-70
16
-18
22
31
-41
67
2
-29
-24
-18
-18
-28
-31
-1
91
64
22
-34
77
21
22
42
44
30
27
-1
75
61
8
-23
40
18
44
-53
-21
-34
0
-44
23
32
-42
41
-54
22
10
32
-33
13
13
-67
7
49
8
-33
-11
45
-63
-49
-26
-12
20
49
65
-57
-17
-16
25
-8
25
20
-48
0
-3
63
69
-57
-38
50
-52
29
28
-6
56
-6
34
65
-16
-65
45
-75
23
-28
-24
-6
56
59
-68
45
-1
-106
-13
44
-50
-33
60
56
7
59
-24
54
17
59
40
-6
-44
-7
3
10
8
-16
32
-19
-52
55
-36
-13
0
2
37
63
53
-38
-20
-47
-46
64
76
-4
29
-34
-20
33
50
-29
28
-36
-39
-30
-35
-61
72
-58
88
113
-45
-27
-53
-72
-43
63
-87
53
112
-61
27
46
-17
90
-74
-63
31
19
-39
1
-7
-21
64
20
-52
-126
-53
27
-29
-57
70
-7
-6
-63
-63
-4
-72
36
38
39
-70
-29
-81
-117
3
44
-93
46
46
13
72
-10
-76
116
-26
-50
-5
76
74
49
9
34
16
17
47
-17
40
-92
-90
31
-81
79
-13
-47
-43
-15
-107
6
91
-19
51
48
-24
-21
26
-67
17
48
-14
33
74
83
-19
16
-15
8
43
40
71
76
-65
-13
1
75
66
24
-64
59
-31
39
-55
77
-103
-81
-47
37
-18
74
-79
-85
-44
48
-71
74
28
54
-66
56
95
43
-35
-63
10
-79
56
45
-22
-61
-71
28
-3
107
58
-4
18
23
-96
-79
-46
10
24
-36
-20
8
-23
-14
-43
-14
-34
-38
7
55
-56
-67
-93
31
43
-9
9
-12
-104
70
-49
-58
-51
58
-12
3
103
84
19
5
-87
-43
15
62
-82
-18
-26
-11
-12
24
17
-64
-1
-46
58
-41
-66
-73
-25
52
-74
70
-5
-7
6
-90
-8
22
-53
-4
58
57
-54
21
48
60
88
-30
-35
19
44
12
-91
-32
-114
11
-31
16
-56
-75
-16
-41
-12
-71
-61
47
54
-57
5
-79
-46
58
-56
-92
-81
77
29
-59
-86
-101
-118
-80
-87
-67
19
-1
18
-51
93
32
-7
5
-6
-11
20
2
-31
9
13
127
18
71
-15
-80
64
88
39
-74
48
53
-89
93
64
-51
51
-73
-103
-57
-48
-81
57
89
-71
20
24
-67
-72
-61
-38
73
-109
-55
-53
-30
36
-42
68
4
-61
-59
30
-73
-12
-10
47
-14
51
-37
2
-13
-74
-93
21
-38
-23
-82
-61
8
88
2
-82
56
-42
-98
-74
46
38
62
5
-47
44
-60
1
-27
59
75
-22
62
40
14
-69
-1
-43
-8
28
57
-78
42
2
-25
-25
11
73
-77
-30
-60
49
-70
44
75
17
38
-72
-69
-103
-4
42
33
-104
-64
38
-2
-85
-19
85
3
65
67
18
-63
-46
-46
-47
73
3
-51
-27
9
-32
-86
-43
60
56
-48
-2
43
6
-49
52
-42
-28
36
24
79
29
90
-10
28
-43
-37
-31
78
-6
17
-20
74
-24
8
58
-58
64
22
-26
-72
100
-80
41
38
16
8
35
-19
68
38
82
-30
-71
-71
18
-113
3
-60
27
0
54
40
55
-21
60
17
127
60
-9
-41
97
-89
-34
82
-75
15
-4
12
-22
36
-16
30
48
-12
-71
52
34
-28
92
56
-16
-44
-12
31
-14
-1
61
-14
2
15
-27
-2
-46
-4
45
-19
57
5
-18
52
-13
-92
60
-87
27
-12
9
48
57
-22
-41
52
69
-25
-74
47
-62
79
24
50
68
-14
11
22
68
-51
9
29
-83
29
3
-25
-57
10
17
-48
16
-5
79
74
87
30
43
-1
45
46
21
-3
-20
-4
-47
-77
-84
-21
35
-29
-5
15
15
-52
-21
-18
33
57
63
-8
39
92
74
-56
-57
-38
62
35
-12
-2
100
30
-52
-58
-63
50
67
56
57
54
40
-50
-75
49
31
-3
12
-23
28
-7
-4
21
-35
-77
-40
-41
-3
27
19
-64
-3
28
8
25
67
-75
49
-50
26
-79
7
-68
53
18
-45
-48
80
-24
27
-57
-71
-45
-7
11
-43
60
-53
-38
7
23
53
6
-22
-16
24
71
-51
66
-21
40
45
89
83
-47
18
40
-20
10
5
-31
55
27
-34
-31
118
0
26
28
14
-12
-63
-17
3
-23
-43
18
19
28
2
4
-41
-14
-4
3
26
18
-14
-86
-93
28
-53
71
-1
49
47
3
-6
-21
82
-29
66
-64
23
-64
42
58
27
23
69
-22
81
2
13
57
-1
67
-66
-73
19
-59
-8
10
8
-43
81
-57
20
-29
-4
35
64
-29
1
-2
-44
3
-4
-55
-35
20
-68
6
18
-10
-77
57
-43
-7
-54
-9
-26
100
92
79
-25
26
-57
27
-69
-2
4
-64
6
-32
36
58
-40
17
58
-68
50
19
-56
68
60
82
-41
13
32
44
-23
-65
52
47
30
-29
-27
14
-60
30
4
-43
-23
-70
17
-43
18
-41
83
67
-32
9
13
-8
76
48
-55
-33
-47
-38
-69
65
-58
-56
19
64
-17
40
-57
-53
-34
-6
14
-52
-12
-70
-71
45
-2
8
32
-82
0
73
-39
49
55
-64
-19
-53
15
17
-67
51
5
30
20
15
-127
8
-16
6
-56
-31
-43
24
-14
31
64
-22
6
53
26
16
-93
-15
-68
29
18
-72
-2
-52
48
-42
-67
60
67
-15
-34
12
-45
-35
47
-58
49
-25
20
-61
-22
-45
7
-23
-36
-25
40
43
28
23
-51
-29
13
38
69
87
82
0
46
35
-72
14
59
33
-58
2
5
11
27
-41
-70
-11
-13
-2
62
51
-34
-49
29
-46
-1
14
-61
22
71
50
-18
18
-84
55
-47
-77
17
-22
16
-44
-10
-47
62
-28
-44
13
27
-46
25
-52
-49
0
-42
-60
-3
-1
-27
66
-85
-96
-38
7
-84
38
-47
5
-119
58
-105
72
56
-49
33
-49
2
-83
71
96
52
-10
33
-34
66
97
51
42
53
16
28
-8
23
-69
64
-23
93
-74
-18
60
67
30
-74
-103
34
-93
-33
47
-104
-53
-79
-49
-90
89
96
-76
46
5
-26
-91
73
-43
27
-27
99
23
37
19
-3
27
-54
73
-99
23
11
78
20
-74
24
-88
86
5
11
-37
-12
39
99
90
17
-50
51
-94
45
37
-31
-33
-102
11
-50
-70
-90
68
73
74
-13
37
-84
-1
98
-20
6
-27
-18
19
28
-43
55
-94
13
56
111
56
35
31
-21
29
-10
-31
1
73
28
-101
20
47
6
23
41
42
19
-74
86
6
74
-27
-18
-101
16
-59
18
48
58
-22
-30
-62
42
-33
-49
-3
10
44
74
-28
-85
7
-36
-79
43
-61
33
-66
-69
45
-83
39
-29
67
-31
55
33
-24
-65
-11
65
87
-10
7
44
8
-52
-16
45
-111
11
-10
25
-10
-32
-17
-93
61
53
26
62
35
78
-17
104
65
14
-117
-46
0
-73
-63
-32
-111
-30
15
-62
-22
-4
75
-4
-30
21
-9
-62
15
-42
75
-71
-7
19
44
-16
-73
70
-87
-12
69
-25
-97
-97
-73
-53
-98
-90
-88
-91
-64
-74
99
-25
-77
-53
-34
8
-121
-45
-59
103
66
-12
-75
-79
61
-9
-67
-41
-29
-66
28
-82
-87
-106
14
-78
14
12
-22
38
-26
-9
71
107
-48
-45
-72
-84
37
-6
59
42
-65
63
27
-77
58
56
-86
36
-66
75
-88
62
55
57
-59
-68
13
-49
-68
-93
-90
91
-59
62
-38
62
34
7
92
78
-68
30
-64
83
20
76
-65
-34
92
-91
-22
-10
1
57
85
-4
-48
-27
67
7
91
69
-98
-94
-89
-6
15
59
58
80
1
-11
-74
1
-97
-32
-23
12
-51
-42
82
-114
-84
-117
-63
76
48
-31
17
-10
9
-14
-93
88
42
-85
-61
-10
-13
-38
-66
-27
27
-102
31
41
19
13
-22
85
-40
19
-41
-101
-27
-11
17
27
-6
88
-91
25
88
95
39
-128
21
18
-18
-71
-49
45
-47
1
-29
88
-76
75
-30
65
61
-71
-26
-52
-99
55
-46
-44
82
109
29
58
-58
66
23
-88
4
1
75
-3
-72
-32
-39
58
-108
69
-14
66
64
77
-26
109
-40
6
54
-48
-72
74
-72
-67
-17
-30
43
-11
-3
60
-34
82
78
66
-25
-48
-3
-73
-22
-78
12
-41
85
73
1
45
36
41
34
-11
13
47
-47
22
-67
-96
-67
-44
-40
19
100
73
-8
-75
14
42
-78
-83
-1
52
-63
17
-83
-75
66
-82
-68
45
-28
83
4
38
14
-72
25
37
-2
50
-32
-15
76
80
-16
-78
-46
-61
37
73
-35
-32
-66
48
-26
53
102
-10
67
69
83
-52
85
-71
34
-25
-20
-86
-58
-71
21
45
21
-12
-6
-2
2
-98
26
18
-128
-22
-13
-12
-35
9
-67
48
16
15
64
80
31
55
-25
46
-49
68
51
18
-24
-7
-55
-9
-40
107
54
49
76
29
-72
72
40
62
78
53
94
-3
10
30
55
74
-17
-12
57
-81
48
15
-25
-24
-11
-33
-71
53
72
24
-46
33
-26
63
-81
11
5
-66
-9
-4
21
71
-27
-6
2
75
-5
-19
-14
-38
32
-7
4
-32
-23
-49
-66
-20
-6
-22
-58
-70
69
15
17
-2
-19
39
-42
26
19
21
2
3
51
28
-51
-2
58
29
49
-47
7
-19
95
13
42
-4
41
89
-18
25
-25
75
-2
-9
44
-77
27
-85
25
11
-36
35
77
-37
-66
-56
-72
-64
-42
-22
-45
40
-57
-37
80
67
0
27
5
-45
-29
73
-9
64
-45
-70
37
45
-10
29
53
-10
29
37
87
79
80
47
-48
20
-33
-18
-7
-39
51
54
87
35
16
17
42
35
92
-108
-26
39
55
9
50
-75
-18
-4
-5
-12
-6
-14
10
-31
-44
-35
58
-63
-77
9
16
34
-57
-65
35
-43
-83
-45
-5
76
-40
56
-50
-41
16
-56
45
-28
-20
-45
-20
46
-83
42
55
-34
45
21
33
-35
60
-43
-68
-50
60
-47
45
17
32
65
18
-62
38
83
9
-8
-45
-6
75
91
-27
55
33
-35
-23
31
0
52
-38
-1
-29
3
3
27
0
-52
-74
-44
-9
-79
12
-70
38
35
116
35
80
-3
-54
49
33
67
28
-28
87
-25
11
38
-39
-39
36
39
-46
53
31
-40
0
-48
84
96
38
-6
-61
-42
19
-42
-45
-23
18
41
-51
-66
-64
1
-93
-16
-117
-117
18
-60
-20
11
30
75
-64
28
-5
-54
5
-49
-47
-37
-20
-9
72
-42
-17
-22
61
80
64
71
1
37
-83
-65
33
-40
-31
15
-83
-76
-47
-5
-47
20
68
-38
8
-29
-46
14
54
-5
53
37
80
78
35
-46
25
-11
119
24
-14
7
66
-19
11
-44
-29
-96
-42
-18
15
50
-42
-73
-66
-71
-58
-18
-2
-41
-46
-31
37
-17
56
-44
4
32
-44
51
13
0
7
20
58
4
10
-94
56
-37
20
33
48
-14
-16
28
8
2
-34
49
-32
56
14
-6
26
58
13
25
-63
-30
38
28
35
-33
-31
57
-20
43
-32
8
-11
-8
3
-33
0
-31
56
3
31
18
-51
-67
30
-52
-52
11
24
-40
36
35
2
12
30
29
6
18
-70
-28
18
-63
-22
14
42
34
28
-81
29
14
13
39
39
-4
-9
46
-27
8
-45
26
32
3
-14
-66
48
38
36
38
-2
67
-1
37
-53
-19
13
6
-62
38
-32
-10
-88
-58
-61
15
-94
-6
-55
35
-16
36
-5
54
-42
63
-40
9
-1
7
43
-36
42
42
-43
-23
-36
21
71
-26
-39
42
38
-45
29
88
-3
-61
-20
28
35
-21
42
9
-57
-61
-22
-41
-33
5
-74
-76
21
-15
-40
-40
-49
-38
55
21
-60
7
-53
-79
-19
30
3
-55
55
2
32
-30
3
23
-44
43
30
24
39
-8
48
-19
-27
-11
46
-56
64
-21
42
-43
39
43
-11
61
9
45
-27
-26
7
53
-27
-51
14
-15
36
65
35
-29
65
18
-1
-67
-23
54
-22
-23
35
-33
-41
-74
12
-48
-65
-39
53
-12
67
60
30
30
64
33
22
22
-2
55
-8
7
32
76
-50
23
22
-22
-40
-19
-38
15
-58
37
-29
-47
60
78
-17
57
-18
-41
1
-16
-34
17
-8
-36
-23
-5
-4
5
-29
23
25
-36
-28
35
34
40
-19
25
78
25
-7
22
9
-48
-11
2
1
27
47
23
-51
18
-14
58
6
-57
59
-55
-38
-49
14
25
-12
-34
-20
-12
21
35
-63
-25
15
-54
-50
-34
17
52
-60
-57
-13
19
-46
-19
-11
-39
-48
23
29
51
-45
-65
-13
5
19
-23
-57
-52
34
17
-33
-30
-44
17
54
-30
47
-32
4
65
45
-21
52
50
-6
55
-8
-53
-44
-17
-54
40
-2
38
-8
-19
-21
19
-8
-10
-41
-56
70
28
0
7
34
4
-8
24
39
38
-12
34
-3
30
-39
-26
-91
-128
18
-10
58
68
-29
61
18
1
-59
26
-27
42
-46
-23
68
96
-28
-13
33
-65
2
-5
-27
-13
-23
-47
-5
-9
35
43
49
-52
55
23
28
-54
-25
28
-21
-11
55
-13
33
24
-53
10
45
28
43
50
95
11
60
-47
-27
51
-75
-41
-28
-45
35
-48
-61
14
25
45
47
43
-33
27
13
-10
-26
-57
-12
17
-20
-52
22
65
3
-21
33
-87
-64
26
9
-5
-12
-40
56
31
34
31
-11
38
-2
-28
67
57
88
-7
16
-47
0
-24
1
-59
-16
15
-4
-16
-39
64
-8
15
113
-51
87
28
53
-60
25
36
-62
53
61
66
-81
-25
36
-20
3
47
56
54
11
19
11
76
-31
35
-33
61
-1
4
69
-65
87
86
25
75
44
-38
-45
-38
-2
-48
54
35
-15
-112
-128
-108
57
2
7
-1
59
77
-5
88
51
16
-84
-28
-20
77
-45
-20
61
-12
53
30
24
-60
-36
51
36
-39
-50
7
-52
46
-70
-69
24
-56
-3
23
1
-25
-96
83
19
-55
-56
-43
26
46
-61
-24
26
18
-72
-35
-19
54
40
-3
-80
9
-51
51
-3
-25
30
14
64
52
-50
-3
67
12
5
17
37
-37
-52
4
-11
104
36
8
-61
-68
43
-59
77
89
90
-37
-68
26
49
-2
38
-31
-36
15
56
16
31
60
-56
-48
29
-87
82
93
70
-32
33
35
-26
83
1
-56
-93
-73
69
-30
83
18
-22
-24
-25
-35
-52
74
-90
-58
13
-43
-58
-49
57
22
55
-44
58
33
53
0
63
-59
34
47
47
61
-79
-14
5
1
52
-40
-13
-68
21
55
-48
-39
-49
35
-50
-19
16
65
-2
48
-48
-20
24
-1
-7
50
68
-68
69
-48
92
-30
70
6
60
8
-9
-9
13
-14
-40
-58
-46
43
36
-65
-46
44
-6
49
-10
6
-30
-49
-8
6
13
73
22
35
-20
27
3
20
-42
47
61
8
-53
33
53
71
-41
71
-46
-41
-55
-66
60
-16
-20
57
-51
33
-43
-39
67
-54
63
30
29
-35
-80
-54
-69
59
-39
-43
-51
-63
73
-42
-18
17
66
45
18
47
-6
12
-52
-10
-47
52
-8
16
-45
-14
-31
-46
36
-32
-11
66
51
-48
-26
-36
56
33
34
7
-41
8
31
12
-31
37
-22
8
35
23
23
-34
-32
52
70
3
85
52
-64
-101
64
-55
35
-70
13
-65
-41
-35
-37
-18
35
48
47
-41
-59
46
-64
-14
-42
-37
-61
-43
-34
-21
-13
-29
-15
22
-18
66
62
-18
53
-33
-14
-17
24
27
-29
0
-28
-22
-11
-18
-17
19
-71
32
-77
-10
-25
-8
31
24
47
-71
-15
-69
11
-23
-12
51
-71
44
-84
44
-60
20
-96
-47
-7
-4
-27
34
88
25
46
13
37
-45
-31
-31
-9
-34
2
-33
-78
26
-2
-73
-51
-45
18
-14
-24
-41
74
75
-91
1
-32
-50
57
-88
-38
-47
-64
43
38
24
65
-21
-19
102
38
-59
-90
6
-50
27
-6
-72
-33
46
11
-15
-8
66
-33
-63
50
51
25
-85
-67
-40
-29
6
-61
-54
40
-74
74
39
108
44
-22
93
-53
-38
87
40
-61
81
13
-79
87
-107
-90
-99
34
-100
-42
-21
75
109
-23
-4
40
73
-79
16
-77
6
-46
90
48
45
76
12
-15
-45
16
-93
46
19
35
-23
-41
-48
-72
-55
91
5
43
-77
-99
-90
5
46
82
56
33
-75
83
65
21
-60
-106
-81
87
58
50
22
-61
23
32
43
57
-73
-47
-50
18
-95
25
-41
-60
18
18
30
-87
62
-42
102
55
-62
11
15
62
86
4
86
24
-48
0
46
6
35
71
76
68
-96
39
-81
-15
-74
-114
66
-115
-102
60
74
18
29
54
-52
3
66
-17
59
-73
-73
-75
80
29
57
9
10
-78
-61
48
-43
-41
25
-7
-8
37
46
-52
-60
-82
-5
32
17
-47
30
-41
9
-61
-12
58
84
97
34
-16
-68
-72
-65
-48
-16
20
13
50
-30
-63
100
-78
-34
72
17
-63
-53
-20
19
-88
51
90
-2
96
-36
93
30
58
-62
-62
-20
31
60
34
54
9
-38
-11
-13
77
-56
19
25
68
-39
103
-2
-69
87
10
-68
-40
-88
-4
-25
87
49
17
-23
48
50
55
-90
-57
39
5
-41
-44
38
65
42
-99
-61
-82
34
-27
-65
-58
95
-45
-68
-70
-13
-37
3
-35
-14
25
58
35
4
-95
-102
57
-11
-96
62
75
-71
-5
53
11
49
-11
-86
-5
-55
-48
-27
108
17
-33
-57
-19
-37
-88
-24
-59
-12
4
25
-39
-49
88
62
45
-44
-26
43
18
93
-84
-74
-42
-60
22
-5
100
-47
-31
-75
50
-42
5
66
-16
53
-24
-15
-53
53
67
-33
-29
-91
11
-28
35
31
67
-60
8
-43
80
90
-33
58
46
-69
-43
-73
-50
28
28
32
22
17
-89
-59
-56
27
-84
93
-110
41
-33
-56
-14
20
78
13
-42
87
7
12
18
27
-2
42
-92
47
10
-33
21
-9
30
-12
75
-57
-73
37
31
40
29
22
-70
-117
-2
36
93
-69
68
6
-6
-46
41
-30
92
-13
-9
71
1
-79
-105
-95
101
-21
-52
-97
34
-80
-128
-22
-35
47
46
-11
-30
-72
-40
-6
33
2
21
-65
32
51
-12
-22
-39
-39
31
12
-17
67
63
-23
43
-63
54
-14
33
35
39
79
25
22
-23
28
-86
-51
-70
-73
51
6
24
-57
41
-97
63
-43
-23
-15
35
78
-53
17
3
41
35
-21
52
-10
-16
-35
-59
61
10
16
-17
-1
127
-18
-12
55
10
50
5
-3
51
40
-64
69
23
-30
50
45
75
52
59
-4
-41
28
-53
-18
-43
-66
-28
-11
-12
75
0
41
3
2
33
-57
-47
0
-38
-66
-13
30
-124
-80
-76
-42
-47
-49
-58
-54
-39
-19
18
0
24
-56
-22
-2
56
51
-38
-24
18
-7
-55
11
-13
75
-24
63
-78
-58
-53
-17
-70
29
-69
4
-56
38
1
49
60
43
13
-32
-75
54
-43
-32
-27
15
6
57
-26
32
-25
40
67
-19
24
70
-63
-10
-69
9
-28
80
85
-27
23
29
-3
-30
25
7
20
-10
-9
30
7
39
-103
2
-3
-10
-61
-81
-10
-52
23
100
76
54
-78
-87
-60
47
-51
-61
-8
-29
-7
41
-4
-57
-27
-24
-60
1
39
79
-47
98
17
37
68
88
65
-45
-22
20
13
-22
5
11
-29
9
-37
-33
46
-31
56
-26
-44
-24
-62
-13
-38
72
-31
12
42
-9
-78
5
-60
-51
-42
-57
16
39
0
-37
36
-6
3
-69
36
-72
-19
22
-46
73
37
-71
29
22
2
-10
-11
3
45
34
67
21
37
33
-26
-49
13
40
24
-14
-5
-64
38
88
-18
17
-30
61
28
59
58
60
33
61
38
-58
-49
7
-2
41
21
-40
29
-37
-68
68
37
9
93
55
44
-71
-33
3
21
57
-18
65
60
-21
66
-11
-41
69
21
-10
64
-51
-14
61
52
-30
76
19
-47
-45
12
73
2
-38
-70
-9
36
8
-62
15
-30
-63
28
-10
-58
-54
-10
-66
-27
3
-58
76
16
-51
20
-11
33
10
-58
56
31
78
54
-33
-35
22
32
-41
8
-24
69
-49
-53
69
60
-25
-46
20
-36
-41
58
-11
25
59
36
-42
-36
58
-44
-41
-18
64
-12
16
46
-4
33
67
15
36
-17
34
-29
50
-60
-70
26
-37
-23
-77
-108
-102
-47
-12
10
5
-45
26
20
47
56
-36
11
68
-34
-5
-13
50
63
69
44
30
60
-43
-43
-63
19
51
37
-23
9
6
-44
-69
-32
-67
-50
-87
-1
-40
62
48
-53
7
3
24
-24
-55
-64
-35
-62
14
46
0
-28
42
-23
30
-3
57
-67
-55
-38
-36
-15
-54
-12
35
52
14
52
-65
-6
-70
37
6
26
-21
-33
-78
35
21
2
50
31
41
81
28
-45
-37
-14
-66
-26
-19
-68
-75
65
-38
34
-10
34
-93
9
50
-53
59
66
-5
23
83
1
49
-61
-63
7
20
28
47
39
-32
8
-18
-51
42
-3
-50
41
-69
59
45
19
20
86
24
-61
27
-4
-63
-33
37
44
-36
-11
-33
17
-40
-8
-80
33
-64
-34
5
19
-20
109
-23
44
-46
-47
-54
-35
85
34
112
-23
60
-81
-83
42
10
-18
21
-60
-44
-4
44
33
-19
-65
-6
22
-76
-4
-3
79
91
-71
3
-62
-77
-54
86
-27
18
66
22
39
98
-34
-33
31
21
87
-19
63
40
62
-54
-47
-82
-39
-1
91
-25
65
-45
63
48
39
2
-74
20
20
25
17
38
82
67
75
7
25
4
59
57
-76
14
2
28
24
8
-13
43
-87
-22
-38
-52
-11
-46
-51
12
-76
51
88
-14
-23
-8
-43
63
37
8
-71
-95
70
6
-30
-22
44
14
-24
-22
54
9
32
73
-57
-75
-63
22
-38
26
-56
83
57
-7
60
-34
0
-61
-64
13
-28
62
41
-5
-30
-66
30
32
-27
-38
45
53
54
-8
42
-6
54
6
39
-60
60
-19
-91
-78
10
-42
35
-17
-75
-58
-52
-74
-24
76
41
55
63
24
83
57
127
84
-40
87
29
-43
-57
59
18
-70
-24
36
9
57
-80
-31
-5
1
99
5
21
38
23
36
-55
-2
34
12
-70
5
-8
48
47
76
43
-28
-41
-83
78
-52
22
8
48
54
-37
-58
-66
31
-68
-4
21
4
35
13
-28
19
2
47
-67
17
65
23
31
1
14
-19
-2
-12
73
-16
46
88
61
-5
71
-52
50
27
19
65
-79
-28
-24
75
-26
-82
-8
-22
35
64
33
-70
-26
39
31
-53
-33
69
83
26
19
-40
-75
-61
-65
67
61
-24
-46
-25
54
72
32
-66
-2
26
46
-63
32
-22
-30
-51
30
32
-24
15
86
55
-72
-5
-54
64
-13
23
17
-16
-13
77
45
33
44
-53
14
-50
-20
-13
-7
-63
19
-9
-38
-30
25
11
48
65
-41
63
8
-4
-2
-7
-2
-77
63
36
-52
0
59
-2
-47
-49
-32
-67
43
-26
-48
-10
-5
-19
75
-16
4
66
-30
-19
-51
72
67
54
15
19
-6
-33
36
57
42
59
-7
-53
70
55
-4
-7
-72
63
19
11
66
52
63
-65
-7
1
-77
-41
76
-57
24
-32
36
-51
15
23
-58
55
19
74
-73
-45
60
80
69
10
-11
127
46
-6
58
-43
-40
-1
5
-6
36
48
-61
12
84
-34
-28
-30
61
44
27
17
-4
50
102
-79
87
80
-64
-40
51
-18
-6
4
71
108
-50
-13
-90
13
-95
44
78
49
95
74
-66
-92
-27
-6
-41
-17
20
-51
-65
37
-12
47
-95
-95
22
10
-8
40
12
28
-28
47
58
-70
-31
-64
-86
-119
-46
14
-55
-29
-20
-45
30
-50
-66
66
24
-37
-64
-45
56
26
-35
-61
-12
-44
35
-36
-92
35
-84
-15
-33
14
11
17
17
75
-18
-19
-4
72
50
57
-58
40
-7
-82
66
31
15
-3
35
54
72
82
-67
3
-4
118
81
-5
-53
35
53
-42
-68
41
3
17
33
88
-21
10
-9
-37
81
-65
41
-29
64
31
-45
2
-39
92
-55
82
-77
104
-94
17
96
73
85
82
-33
44
35
25
57
-74
123
90
-9
84
40
4
16
83
60
-67
-39
33
-79
-57
-42
-32
-34
25
82
45
-85
20
23
11
20
-4
107
87
-40
40
66
31
-1
-87
45
-34
-35
-12
-86
72
35
55
76
28
-44
35
81
-7
-77
66
-73
87
-27
67
-55
-6
-54
-46
-82
-103
-3
-105
-96
-100
-32
65
-19
-8
-7
-48
-41
11
-42
14
41
-25
-22
-9
-59
-61
44
-19
32
-17
-81
9
-73
34
-63
23
1
15
-28
-61
17
77
-79
-57
-53
22
59
-36
-29
-62
-20
51
-16
-17
40
-3
80
9
56
-101
-71
27
14
-76
-49
52
-17
-32
-13
100
13
-71
28
-32
1
-52
-20
-16
-30
86
47
52
-24
13
-20
70
10
74
4
-84
-85
-93
-74
13
66
-47
-29
46
-2
54
44
-9
-19
69
18
58
-68
-96
39
-36
61
-11
59
69
49
-54
24
-73
11
-78
-38
49
109
46
54
39
-5
-23
3
28
-16
-1
-24
-37
-7
-70
-6
43
31
24
43
43
-55
-47
53
29
-36
-97
-7
-87
45
-19
95
81
-92
65
41
-33
1
30
-70
62
33
-12
100
44
-56
-19
13
-53
27
11
86
-34
88
73
57
-25
37
29
-24
46
86
-49
-35
91
-14
-32
96
34
-23
-80
53
76
67
-52
48
75
82
80
39
81
55
-40
-61
-22
-50
-36
79
30
19
63
71
-16
88
28
-59
11
-100
-23
-5
-15
40
-75
-30
-15
-67
18
-103
-92
-12
-39
-7
-74
-52
30
64
84
-38
34
-35
-82
-20
1
-44
-27
20
-56
-46
-12
36
70
-36
38
4
54
-104
-119
-57
103
18
100
-61
47
-58
55
-37
83
37
-50
52
44
80
96
103
-1
-44
-7
36
-72
-45
-59
-58
-55
-48
-30
-82
-86
-88
-50
37
-43
9
27
-69
58
95
36
102
-54
59
94
90
-65
116
15
-71
79
-81
4
14
40
21
-58
5
43
-14
28
-37
-26
-36
-23
-93
-93
-41
-47
-72
40
-54
63
96
98
-22
82
98
26
104
81
-16
-91
-2
29
-67
-91
-41
-13
-34
112
-23
114
-59
54
-77
-19
6
85
16
-84
-83
25
-97
40
-37
58
-31
20
94
16
-18
-87
87
-74
50
-38
41
35
127
-42
44
59
-32
56
19
16
46
78
77
50
-38
24
-68
42
68
55
-108
-121
58
48
51
-107
-58
-5
-66
-41
87
76
-48
-85
-18
-81
-104
-7
126
-35
35
-7
-93
93
-83
-83
-3
-21
-120
-93
34
84
10
82
94
26
89
75
-3
-38
49
-36
-37
59
-61
-20
11
-86
18
-88
17
-76
-72
-52
-74
78
77
-56
71
62
-69
32
-100
34
69
-10
39
122
-1
-49
110
-48
-62
-29
52
28
20
-52
118
109
-19
-78
-39
48
-85
-48
2
56
46
-59
-67
-80
-26
99
-17
26
-30
-15
-56
63
88
56
94
-78
-10
20
-16
72
11
21
21
54
-46
40
-82
-82
-38
-68
23
-92
35
77
98
88
80
44
3
105
-54
51
26
75
80
10
38
-85
-48
-68
84
-16
-69
65
-91
4
-43
61
112
-9
46
6
84
-6
-41
-9
-36
58
64
19
16
95
65
-2
50
-75
41
78
-3
100
-94
-5
99
-74
-12
-65
-110
-19
26
-81
73
27
61
-24
-25
31
-16
76
91
76
-88
2
7
-14
-83
-51
2
-32
-52
61
91
-14
-76
41
60
93
-49
4
-73
-31
16
34
11
-72
93
-17
67
89
-61
60
-80
-27
-65
-62
-93
47
9
78
81
45
103
-48
-23
65
59
-5
66
-77
-80
38
30
67
93
104
-92
-53
1
62
-61
38
-96
-43
-36
31
-47
73
27
-48
40
59
-47
-66
-16
70
29
11
76
56
-70
21
72
-11
66
24
-22
-52
-21
-61
55
-9
29
-26
-43
55
13
-2
21
-40
-26
-17
43
-89
-18
-21
23
27
-15
50
-39
45
75
91
75
40
91
2
-9
100
-7
48
124
35
-11
-41
97
109
-58
-12
28
70
-45
4
-19
-60
76
80
64
-67
-13
60
-83
50
5
6
45
54
29
-71
-66
59
-53
-69
25
22
-55
-28
-17
-40
21
-1
41
0
9
-14
-53
-9
-35
-35
-6
-14
4
-27
41
36
17
-20
-43
-69
24
-35
31
-31
27
7
-29
-23
-33
-13
-11
-91
9
10
-29
-18
0
-24
-23
-1
22
4
61
58
5
-57
60
52
-7
7
34
50
-37
44
19
31
10
67
-17
-6
-87
1
-63
33
23
30
-21
49
-13
63
38
7
33
1
24
-9
-74
72
-13
27
76
38
-28
-35
-100
27
33
-26
-6
-38
8
39
73
15
37
-48
-60
42
-34
20
-16
-60
-41
-33
57
-13
-27
-11
-60
16
-102
45
-49
-15
-15
-52
4
-33
-60
-15
53
-38
76
-68
61
40
-48
54
61
57
-38
-56
-44
-49
-58
-70
-44
-21
4
-40
-83
-12
-34
-38
-51
0
-6
13
-32
-68
83
-38
78
-77
24
-7
-44
-40
-72
8
37
-66
22
43
-39
39
-54
24
-29
-30
87
-27
50
45
21
22
-86
10
36
-35
-2
63
31
-13
23
55
-84
-19
13
-17
67
-111
-24
-37
-35
-81
27
-54
16
60
70
28
-26
23
49
-17
66
28
55
18
29
53
-20
55
-16
73
-36
-8
12
-42
69
4
-25
0
-87
-64
81
74
16
2
0
21
46
44
1
-13
-33
18
-5
-34
41
-27
-43
10
-20
-75
-14
-57
-6
10
38
-41
-12
-5
69
14
65
46
16
-102
-26
-87
2
29
-26
-51
-46
-38
58
75
56
16
-48
43
59
-3
7
36
12
-35
-59
-25
34
53
37
-67
78
52
39
68
-49
14
17
-19
-59
21
15
-11
27
-29
-22
-12
-6
53
-1
-64
-40
18
-57
-26
-18
-44
60
0
2
13
35
36
70
39
69
59
52
14
64
24
-55
50
24
57
18
42
17
13
-46
-56
-25
49
-55
-49
61
2
32
43
-61
-36
24
44
-28
42
33
54
-30
-85
49
-63
21
52
-40
-59
-66
15
-56
8
-47
-61
24
33
-21
35
33
15
-46
32
-39
55
-18
33
61
-41
-76
4
-47
20
30
-90
-18
25
31
-40
21
4
-93
28
-54
80
24
37
40
32
-26
-10
-25
51
58
63
93
35
25
11
-20
-13
-50
26
-48
-24
-5
29
23
20
38
8
-8
70
54
39
-53
48
28
-10
38
-36
46
-66
-54
63
-56
1
-17
-62
-55
-74
14
2
-127
-86
-84
-83
-1
3
95
67
-11
-27
15
-84
-70
2
9
-6
-44
110
-61
-55
62
47
-121
-62
106
-10
-35
77
-96
-12
121
9
54
-63
48
-12
-30
-106
42
-89
72
-47
17
-84
41
69
-61
-97
-66
-50
-24
104
62
-13
-28
-102
-97
-44
-127
28
-16
-93
-19
30
66
50
40
-91
-47
109
-102
-93
-76
-3
-71
33
48
-80
-53
115
-93
55
-55
114
-55
-24
-70
-28
12
63
-85
-14
-85
19
106
72
-13
89
46
0
107
41
-8
-82
-106
-103
-50
-23
-106
-92
37
-73
70
-79
-101
31
85
-23
-112
71
-110
-52
-94
-85
-63
78
22
-61
-24
-56
117
19
-84
-10
36
4
110
62
-9
25
70
-120
-87
89
38
-4
23
-95
-97
100
47
-80
-119
-42
-99
19
19
103
-103
-20
-28
-115
-110
44
70
-62
-75
-120
-6
-37
61
85
39
-50
-99
-72
-8
108
66
62
-51
-109
-69
87
117
-25
83
35
-41
15
-77
-72
40
81
29
83
40
-46
-87
23
-70
38
56
-31
-67
-44
98
-94
54
120
86
97
-121
89
-77
75
73
50
95
-92
-51
80
32
-67
-54
34
18
-36
76
-56
97
59
-87
50
-97
-75
77
92
-51
34
112
108
70
0
-7
-79
93
-49
61
117
-108
67
98
84
-20
103
-107
-38
32
-8
-79
45
-21
56
65
-80
-77
23
-100
-8
4
-31
60
1
-12
-109
-22
122
61
-86
97
30
82
-99
-76
77
-87
119
97
-75
5
-32
107
104
-66
64
-21
45
-90
20
-30
4
51
-68
-48
25
45
52
-30
-114
52
83
111
-62
-60
-86
67
34
-28
-22
65
-32
-31
84
-23
-27
91
30
-38
-56
-88
-110
80
-121
-17
51
5
27
-76
-19
64
17
75
108
85
-27
5
6
59
-89
-63
-78
-110
-85
25
-54
13
30
10
-10
-113
-47
-95
-57
95
12
-101
-65
-15
76
-10
-45
38
-33
-25
87
67
68
42
-40
-45
-24
34
27
2
-89
30
-48
-37
-32
-9
-61
-2
-23
-31
-37
106
-12
-98
109
113
-9
3
50
-113
108
-97
70
-45
79
-41
-26
-29
-1
-53
98
-83
-53
-38
40
-70
40
86
-44
-82
-60
110
-3
-46
114
-27
-82
-38
17
107
54
-76
-32
-67
34
-48
-78
54
43
-100
16
78
114
-110
-32
-128
-9
-53
-124
-62
121
-121
-105
93
-125
-79
79
-34
-90
-101
-70
50
-84
-59
-88
41
-107
1
-4
-119
-84
-32
80
-22
119
61
-97
-47
53
-114
46
3
-75
33
-98
110
-95
42
83
-30
56
-46
-6
-35
51
-55
25
-52
12
-63
-2
-14
-41
6
56
79
-18
39
65
-89
-7
-88
59
-33
26
22
-26
42
-71
-29
14
125
-11
9
44
-86
-34
-35
-10
-57
36
-1
-55
-72
9
-47
51
-52
-54
-91
-74
-35
36
13
63
65
41
-68
-29
-35
52
17
77
62
13
91
7
-28
-37
16
32
-81
-29
-18
-39
-27
39
28
3
65
3
35
19
-26
-9
2
58
-23
-55
-4
-90
-23
23
5
64
95
-44
79
84
46
-56
-46
8
38
-55
36
-75
76
-64
75
-31
-38
50
27
4
18
84
45
81
36
37
-42
28
16
-9
-45
31
84
3
-72
-7
36
13
31
-78
83
108
-1
14
-82
-59
-47
-28
76
-31
53
52
-4
18
59
-15
-49
70
-10
-11
50
-64
35
-8
18
-81
116
86
33
90
31
29
-11
-18
2
1
31
89
77
107
38
-75
-63
43
-9
48
-76
-14
-7
-2
8
3
-4
50
-55
47
-58
-80
0
-9
45
-65
89
-5
25
48
-28
-36
-9
51
51
-14
-44
15
40
64
-10
51
30
108
-14
20
-42
36
-17
-10
-5
12
33
-40
-64
67
59
-30
-23
34
8
-58
49
91
-58
-51
35
17
12
-65
44
-30
-60
57
-55
-54
-66
-48
-38
-21
-22
57
-7
44
13
50
-30
68
39
-50
16
-51
56
56
10
-51
9
-90
16
13
55
5
62
-10
-76
-8
5
53
127
101
20
99
-42
-50
-74
-24
-60
56
-85
-14
53
-75
-42
-34
-14
0
71
-60
83
3
4
-70
47
6
-27
-5
9
-2
-69
30
0
12
72
15
6
65
10
-65
24
11
-26
-7
-50
-62
-34
-21
-81
-50
33
-51
-57
-2
33
67
-55
47
34
67
-47
3
-59
62
-81
-22
-73
-53
29
-85
-10
-44
78
82
-21
39
10
-59
-18
-32
-51
-85
-14
12
35
16
-79
6
9
10
65
44
13
-13
66
21
-35
2
-50
54
2
70
50
36
-61
20
0
-30
42
82
12
-20
23
-6
-39
49
1
22
-35
-50
-24
-69
61
-49
-23
-26
42
-31
18
-23
11
-54
-68
-113
16
-92
31
62
37
40
4
-24
10
-11
-37
1
-49
32
74
41
89
44
-5
5
-66
-20
45
-40
-62
-16
26
69
-26
-41
-44
-3
6
72
78
-47
-61
20
-26
28
-48
-48
64
47
17
62
-34
43
19
29
81
-17
58
17
-40
-58
-24
71
-74
-30
52
4
32
-19
48
-71
15
-72
-5
-31
-25
45
9
36
-8
-51
27
33
37
-60
42
-48
10
32
127
-1
54
77
43
10
-2
-51
45
1
2
-22
-12
32
-46
39
52
-123
77
-68
2
61
46
59
22
-23
83
16
61
37
-25
12
-82
-35
-35
42
60
-10
25
-56
31
1
-43
50
71
-18
-22
90
-50
-22
6
-55
46
-62
-57
-76
-77
29
-16
-34
-62
-52
40
80
42
-15
16
27
86
77
1
27
-96
-38
3
8
67
-3
0
15
38
-77
-42
0
-1
87
-47
-22
29
-98
-57
-26
52
89
-38
-2
26
-60
43
54
22
117
77
8
14
73
-60
76
84
35
30
-4
-74
42
-72
-65
-80
-51
-50
47
20
-58
-36
61
11
95
47
-31
-42
0
-12
11
-1
-48
71
20
42
86
-16
73
66
11
-67
-51
22
24
-66
-15
55
7
-32
63
64
-15
20
43
-59
28
-20
-93
25
-44
-56
19
-38
-115
23
-4
68
83
-55
19
-68
16
44
-72
-84
19
87
24
-73
54
-70
-62
-62
-9
83
-39
10
-21
21
75
32
-56
-16
-17
-9
-56
6
12
3
88
-5
-18
-38
23
-8
29
-58
-35
-96
29
71
-29
44
-1
0
0
11
-1
-86
19
-23
-20
0
36
75
15
50
34
67
-12
-31
-70
29
53
58
-43
-24
60
-61
58
44
84
76
-44
-73
3
78
-61
-51
-41
-57
51
6
42
47
-73
5
65
-4
-43
-6
-12
80
-67
40
-20
46
6
-2
18
105
29
-4
48
-54
-98
11
-58
-39
-39
-74
34
-20
48
-35
9
119
-21
-56
74
85
10
-46
84
38
81
18
-16
-11
48
-44
-73
-75
-71
75
-20
63
-35
-74
-28
-59
-10
19
53
-61
23
-65
-31
-31
-42
61
27
-43
47
12
-45
0
45
12
-25
27
-34
-56
-65
24
19
-61
-4
-5
69
-62
56
-59
49
-40
-30
45
56
-22
78
-71
-20
86
65
92
54
-51
68
-23
71
61
44
15
-8
31
22
45
26
-83
19
22
14
58
87
-34
59
56
-57
-73
-19
-56
-31
30
22
80
35
-9
-76
78
-65
73
35
-110
11
-52
-41
45
-34
44
54
31
-11
-15
-3
-51
65
15
-11
-53
10
47
9
30
30
47
42
64
10
53
38
-14
51
-49
-1
35
51
-73
59
47
33
52
-63
83
44
49
6
-50
57
16
-33
65
51
-39
-62
74
-10
-35
-49
-77
67
-34
-59
-64
-54
67
-57
27
-36
18
-16
-15
-52
57
28
-46
47
41
3
-9
80
58
-91
7
0
11
89
-4
-86
-55
-105
-77
-36
-99
49
-49
-28
-5
-52
11
-8
-78
-103
51
80
7
-48
-55
83
69
7
62
-6
-7
18
72
-34
-69
-30
-53
84
-4
-55
45
-11
-2
-16
19
11
24
-1
29
80
44
25
50
66
83
-47
91
60
-55
7
-47
73
37
-26
-65
-80
-47
-66
-11
-21
127
86
-20
-35
-21
67
76
51
33
-48
-38
27
-48
-40
-4
-85
-55
-30
31
23
27
-68
50
-34
46
-103
78
54
-20
86
86
-57
4
-81
-98
14
70
74
-58
-5
-60
15
48
66
16
-34
16
3
-61
-41
-53
-46
-16
-88
14
29
89
70
-43
3
-114
-48
-16
79
-58
45
-52
74
-26
104
60
-73
51
65
52
-14
-43
-50
-22
50
-45
1
-52
64
38
-33
-50
53
27
44
102
25
7
17
94
0
-46
12
5
8
-63
-10
53
104
-47
99
-80
-47
-76
-14
-14
-109
-97
-82
-24
-1
-47
-13
-16
8
18
81
86
-27
-41
89
-18
98
-12
101
53
-4
25
-79
-11
26
-6
27
-49
26
53
2
-33
-74
-12
118
82
117
-9
-71
-49
86
43
83
-2
65
-74
-27
-6
15
-56
-15
-46
-20
10
-44
-61
55
3
-9
-34
-39
-49
-47
74
8
9
48
-27
-5
67
49
-8
-54
3
-50
-44
-37
0
-16
-16
-63
20
0
92
73
19
66
50
113
8
54
-88
-55
69
-57
-9
-61
-33
-3
-37
-35
74
-52
3
-72
3
-41
28
19
47
94
-69
-1
-24
-2
49
-30
11
-2
22
-47
69
19
25
10
57
45
18
-7
-31
94
95
-3
2
52
39
39
-54
-39
47
-27
13
14
64
6
-25
-47
-51
-26
67
-60
-61
-20
-24
-25
-30
69
-70
22
-2
-21
33
-20
-43
-5
23
-68
-48
-42
-9
-50
-67
25
13
98
61
47
22
-20
93
-41
55
87
-60
16
-24
-32
3
-72
-49
-54
-10
-72
-31
41
-52
30
97
-10
-68
56
17
73
85
-22
-35
78
-73
6
-20
94
94
77
-32
4
43
2
79
2
-58
-49
-15
-61
30
24
-14
-57
23
-43
-65
-69
-38
-68
48
-3
17
-95
38
49
-22
-61
-3
-37
13
-27
-78
2
-3
1
22
45
-65
34
-20
-34
44
43
-60
-19
7
-49
-54
-18
48
15
0
57
-2
53
44
-35
-10
-79
52
28
38
-20
39
34
-53
48
-19
-54
91
-77
-66
4
28
51
-54
48
85
36
55
-11
54
-7
-24
47
8
-61
46
1
17
-3
9
20
-2
20
25
-24
42
49
0
10
35
99
13
25
69
10
-35
9
9
63
-3
32
29
-55
59
67
22
-26
0
17
-50
-55
11
-21
-65
1
-7
-39
42
28
16
69
-50
46
18
-24
-40
-79
-28
18
-23
-3
-53
12
52
-24
-52
57
55
-3
9
34
-24
85
-69
-38
-3
-82
-67
9
-20
12
29
-34
-68
5
-46
15
-60
57
-68
51
-11
-46
26
-47
43
35
-52
41
-13
-13
38
-4
1
-45
-3
-41
49
43
59
-7
0
63
-27
-48
-18
15
16
-41
-43
-71
-55
-44
38
51
34
-21
8
5
65
-23
73
-37
-17
-78
-7
13
-15
2
12
-17
-2
-23
38
48
-41
40
-53
19
32
19
-41
34
15
19
-5
27
12
-21
-8
41
-15
-6
-43
-52
-8
50
24
-83
-14
-10
-69
-19
-128
-75
84
52
-64
-5
-10
23
1
5
27
29
-57
35
69
-33
46
7
-7
46
58
-18
-18
16
-43
-32
12
-34
27
-31
41
-31
61
32
66
83
53
37
-13
-1
-54
18
31
-39
16
38
40
-12
-8
-19
45
53
-24
95
-5
22
34
-42
4
13
33
-14
18
-34
-25
21
-61
-42
-65
43
-41
-19
-9
67
14
71
-39
-49
65
48
32
-41
-71
-31
68
2
39
-13
73
60
-47
39
-7
6
38
-84
-47
8
43
21
-39
2
41
42
8
-39
27
50
9
-22
-31
22
-1
22
9
-16
-1
3
35
-12
-12
-57
-17
-58
-1
-26
-15
-20
-5
0
-2
23
68
-1
-63
-10
-19
-16
-49
4
-47
-12
14
-33
-36
-26
-4
7
-30
45
61
-28
-5
18
5
-14
-53
21
-40
-25
-34
8
62
-11
-28
-60
-22
54
42
-28
31
-17
15
-31
-44
73
57
-17
-43
50
64
-14
-55
35
-24
-27
52
-37
-46
-13
40
37
86
115
54
-48
-12
-35
-36
21
-10
-31
-45
-14
-19
47
15
17
24
55
-17
24
7
-29
58
45
0
49
-58
33
6
18
39
27
19
-47
11
-3
2
73
35
-4
-20
-62
21
-24
-57
11
-22
52
-45
45
-56
13
8
-32
-59
-46
-44
-57
-16
4
48
-56
-18
55
5
30
28
-28
9
-57
-30
2
-48
-24
-45
-28
12
18
42
8
59
21
2
32
-36
24
-16
39
-85
48
32
31
43
-75
6
80
-6
-45
49
39
-52
16
-60
-44
-43
-64
20
47
92
-8
29
-59
35
14
-6
-51
54
-13
-44
48
9
51
-39
-61
-11
-58
34
-64
55
-52
91
-27
-4
-36
17
-27
45
-52
-57
-53
29
6
-7
50
46
-30
-4
64
-59
71
-23
-18
21
-37
-41
82
7
30
42
42
29
-27
-15
34
-36
-19
-30
-37
7
1
99
-34
57
-42
-73
-10
-63
14
-75
-37
-29
56
-26
-34
-5
3
-9
-96
38
-88
77
32
29
-100
-71
12
-86
-51
70
-79
-36
-101
-104
54
-33
59
-43
50
70
-2
52
-52
97
10
76
-32
-43
-26
-18
53
-72
20
97
50
-87
-77
47
11
76
79
-73
-2
-30
71
-69
-30
-52
-52
-6
-27
15
-83
-63
-71
-18
77
-12
30
-53
-28
-46
-27
-63
4
29
-16
-23
52
-42
6
40
-23
38
-49
-35
-15
-61
62
24
-2
16
31
-56
1
51
14
109
77
-102
-68
21
-50
69
77
107
-70
-20
-38
-67
59
-26
108
27
47
50
49
0
72
13
44
37
42
-68
50
-31
38
-27
20
-5
-7
96
13
82
67
78
-58
-6
54
-99
107
-125
24
22
12
30
75
-5
-27
-3
-24
-8
-53
-1
39
-72
-20
-28
38
-85
-60
3
-45
79
-66
59
68
-7
65
59
-83
-46
-64
-5
18
-82
43
96
66
-69
108
36
-21
-68
69
-65
-10
51
-55
1
29
-12
56
36
42
127
33
-25
21
65
-52
6
-51
-60
14
-120
-18
-27
16
-31
54
5
27
-56
-78
-77
-38
-3
-39
-7
1
68
-65
-81
9
66
-14
-86
48
-93
-14
-81
-49
-68
-32
45
46
74
20
-10
-75
17
-40
-45
-34
-2
-54
68
-34
68
14
64
-1
-1
-4
3
1
-55
77
-31
-27
-40
83
-83
-5
-6
-39
2
75
-11
-8
80
33
2
-63
32
5
52
-27
77
81
-27
-18
-39
-70
-18
82
-72
-18
-75
16
109
-71
-9
-12
-34
21
-44
18
38
24
106
-49
-84
44
91
44
17
-77
74
-63
-78
99
-46
19
-22
8
-18
63
46
73
-15
-69
-21
-3
-51
-46
42
87
-36
13
56
-48
35
30
-1
-47
-24
13
-10
-24
48
77
-90
2
1
-36
46
25
77
49
16
36
-13
-68
-48
57
9
-94
-28
-5
-70
59
80
18
88
66
-7
-27
60
21
54
-37
42
-15
82
55
-65
95
74
65
-6
-21
-31
23
7
-86
46
30
66
-44
-18
-14
83
29
20
75
32
-54
-24
-41
20
2
36
-59
52
-68
18
-41
48
-19
-71
-69
13
25
58
25
67
55
44
70
-58
6
7
114
-18
64
9
37
66
64
-45
-65
30
18
-13
26
-28
82
-3
-37
66
94
1
-45
-69
-36
67
59
51
-67
67
-43
31
68
-2
47
83
73
10
88
63
-20
-10
-3
46
57
56
-59
-69
46
-16
22
3
-21
-54
-16
67
-45
52
-75
13
-22
11
-70
27
6
-5
-16
117
-55
-17
-26
-34
-72
2
-34
75
64
-50
-68
-12
-79
-56
-82
-29
69
-47
-58
-5
-2
-4
-16
60
-49
-31
-84
-11
-72
-5
7
36
-52
69
33
-35
-53
-65
57
-29
75
-45
3
-2
-12
0
-12
46
-17
-47
19
89
-25
-97
-7
25
28
30
75
-90
-12
70
62
-41
-39
-14
-70
-43
-44
12
-25
78
-57
36
10
81
-1
67
-25
-24
-14
30
77
29
56
46
52
56
51
-13
-2
27
-45
-36
31
12
-45
44
25
26
103
-16
-48
-89
-85
33
-42
9
84
-6
-100
62
33
-67
-52
77
30
9
21
58
55
91
-37
33
37
-37
68
-24
82
10
91
80
-23
-42
-19
54
-46
15
14
-23
29
-43
-1
9
24
-3
-63
-46
-41
52
13
-79
28
58
51
-12
-20
-12
-9
-69
49
-8
34
58
78
42
16
-14
30
-3
10
-10
44
61
59
78
58
-52
-80
67
-54
23
-41
-46
-23
-31
50
40
111
-60
38
-11
-52
-34
17
29
60
-52
-24
-45
-47
70
56
12
-5
29
-33
-25
-10
42
37
31
-1
17
18
48
37
-42
3
-60
-78
56
-28
-16
0
-24
39
-31
27
-17
-17
-78
45
41
-29
-64
-21
-40
-24
25
-37
-47
49
-4
66
86
-33
102
44
35
71
-2
48
69
-49
44
62
-9
76
50
72
-79
-7
66
-34
21
0
31
-25
-58
16
-48
-16
35
6
-35
-37
69
68
-21
-73
47
-8
10
77
57
65
-14
46
-5
-68
29
-41
33
-66
-11
-3
61
-52
-61
-3
-10
-44
7
-1
38
-38
57
-30
-34
-30
35
39
16
-56
-27
110
-49
30
-61
-29
46
39
27
75
30
82
14
-42
-36
60
8
-17
15
-60
-4
-27
-17
1
-17
-45
-39
-14
63
40
-74
-15
-72
22
-66
48
38
84
32
-14
82
-52
44
67
-33
75
-52
18
-26
31
67
30
42
50
-53
-22
76
-26
-34
16
-74
1
-55
60
-61
-41
-7
-7
50
127
-65
-34
-48
1
-37
28
50
-17
-76
1
42
26
12
60
-28
57
33
-7
94
87
61
-25
-39
100
14
-69
-17
45
1
11
107
48
-61
117
7
17
51
88
-9
-94
35
-16
-11
-11
5
-29
57
-26
-37
-69
-64
69
95
52
52
-11
1
36
-17
44
24
-72
85
-20
48
-35
-74
79
46
-18
-7
-47
-51
-18
49
4
-88
-30
20
-7
-75
35
-26
-42
96
85
35
34
73
81
-25
88
-127
-52
-54
-64
-101
9
-27
-11
-42
45
-37
60
-1
-38
-17
64
-38
45
-26
32
-7
9
-62
-32
41
-42
84
15
34
-47
-27
71
37
20
-36
85
28
-79
19
7
47
11
60
-47
44
70
63
74
-9
10
35
61
85
77
86
92
36
-74
110
-14
40
-9
66
-110
12
34
-25
29
12
-49
38
-34
63
46
-31
43
-37
87
38
-82
-28
99
46
27
84
-31
-16
-66
8
-25
-105
1
4
4
118
56
-105
-2
-84
-18
-1
83
-8
4
-47
-80
-72
-72
82
-89
23
-20
-36
-9
-54
16
-29
-40
-44
-33
73
105
-11
105
-17
-6
-24
-99
-69
-46
-26
19
27
-40
-71
1
29
-21
-31
17
23
46
-54
57
91
12
8
-32
-19
-86
33
-33
-64
-53
62
33
33
13
25
92
-25
-15
80
-26
42
-58
20
83
-19
-75
-103
47
11
-71
-62
-44
51
-92
8
-25
20
-1
17
49
40
48
4
23
-42
82
4
-26
19
38
67
-28
19
59
0
59
3
-6
110
93
46
-31
-10
48
-51
58
-80
89
63
-51
-63
88
-18
6
-18
79
31
0
39
3
-23
-84
4
-16
-62
16
2
29
18
-26
-72
-12
-48
-37
-45
-75
-46
-62
44
-7
34
-40
10
-4
75
20
-44
49
-67
-9
7
-47
50
-15
-39
66
17
59
4
25
-66
40
81
-57
74
-19
51
18
-82
-73
-38
-26
-54
7
52
-48
-31
-76
69
13
67
-72
102
13
-8
-69
-77
-46
8
-13
-67
-16
-26
13
82
41
18
45
69
-48
57
8
-27
55
12
-39
-68
65
35
57
-26
15
25
32
-74
72
-51
-20
-65
-13
-13
-5
48
-46
67
-36
87
-49
31
78
-14
5
99
28
-66
27
-3
-57
79
47
60
-63
36
-11
44
-19
-13
-83
-45
-25
-47
12
-39
74
76
68
13
69
84
-29
-13
59
33
14
-39
5
-54
39
69
-41
21
2
29
-48
58
-47
66
-20
28
28
50
101
-51
-51
43
-43
84
-10
83
72
-44
-70
-44
32
82
20
11
3
27
-8
-13
5
-59
72
58
-29
-61
56
25
20
10
-9
80
-43
-26
42
10
-64
-62
27
47
51
12
-1
2
-94
17
11
43
-58
-67
37
-21
6
-70
52
56
33
-51
35
62
14
-9
52
11
-41
-62
39
-37
-38
37
78
14
36
-41
-13
-37
-60
42
3
-60
0
-43
-14
-65
-4
43
-14
-7
66
58
-11
48
-64
32
39
22
-85
-96
16
68
64
40
60
68
-62
-46
72
42
64
69
61
31
-70
71
88
-11
73
20
63
37
-18
6
39
0
-52
36
-10
65
-2
51
-53
-25
0
58
62
-31
1
-37
-17
56
-27
-13
-2
-63
82
-1
71
-37
-14
40
-36
3
-21
56
55
28
-22
9
39
30
10
-45
-14
68
-7
37
48
21
-10
-63
-55
8
47
-23
-31
58
37
45
-59
10
75
13
-52
14
-43
4
-43
-61
63
-3
-11
6
-2
23
32
-54
-92
1
52
-53
-22
-60
29
-7
-79
25
15
9
-38
-64
-27
30
0
-12
-27
-78
3
86
-5
43
52
55
-31
-43
-11
-63
38
-28
30
10
-6
3
-27
0
11
-37
57
-96
0
59
10
-18
-42
49
23
-91
2
-11
-39
47
5
1
-19
68
2
-5
-70
-56
54
29
60
-50
-60
16
34
14
35
27
-65
-61
-42
69
74
50
51
-33
-22
-32
-50
35
13
-60
-72
-31
-58
43
-73
7
36
14
-63
-36
19
18
49
3
27
56
-5
-29
-38
-27
23
-15
21
18
-67
44
42
-13
58
41
-73
38
27
95
53
70
51
-39
-58
22
-2
60
27
2
-46
-52
20
-9
-57
-44
62
62
55
-17
5
-20
33
56
-41
64
55
-35
-79
-76
-60
1
18
-35
-7
-75
-24
40
-40
-44
25
-28
40
27
73
-38
54
51
-5
-10
-17
-20
-43
60
-48
-42
-20
-51
-66
61
-13
-54
-55
31
-62
22
5
44
41
77
66
-44
-11
31
-28
-26
43
-36
41
9
-81
9
-67
-6
-48
-28
-3
-51
-6
71
-76
2
26
-30
-36
7
-80
-25
56
56
48
46
-53
64
-68
-45
-24
-54
-57
-10
46
-33
-34
29
-1
12
40
-10
-40
-36
-66
-2
26
59
-38
0
29
-39
16
-3
7
22
-18
55
-23
-61
51
-44
60
-39
13
-8
35
-54
56
-50
-46
42
38
72
-69
-9
-48
55
55
-37
-60
-9
-33
-9
40
56
58
-58
-96
-128
-48
21
-39
-5
49
-29
-37
-66
-26
-69
-40
-81
28
59
17
-18
36
31
-21
46
30
-26
4
-48
-36
-53
-66
57
-27
-42
-50
-52
-40
-40
-21
40
32
41
15
-8
30
-47
73
-24
-56
69
-23
83
-39
-43
52
-23
-39
40
41
-31
47
-12
19
11
66
49
26
2
-56
12
-34
-16
-22
3
-14
-43
64
45
41
-32
-37
-34
-22
-53
35
-38
44
-56
6
63
43
-58
33
64
5
15
-23
-19
-11
22
127
41
23
-66
-39
-19
-55
-19
-72
50
67
-64
-31
42
36
-68
-62
52
56
-20
66
-4
-38
26
-68
-20
45
56
-38
65
20
14
76
-15
46
-52
18
5
-33
-55
-61
82
67
70
16
35
-8
26
43
64
68
92
-44
-42
4
5
18
26
13
-27
16
-40
-17
64
29
-62
55
64
1
5
29
86
55
-32
13
16
-52
-5
-21
-24
-17
39
1
-65
-17
61
-54
-98
-70
69
-8
88
-57
-33
0
12
59
-52
-35
-40
-39
-8
-73
65
-36
69
6
34
48
24
26
-26
-52
-76
-20
-5
25
100
46
35
22
-17
7
-41
37
26
32
-59
-39
30
-26
18
5
-1
14
45
0
4
-23
-3
32
-21
-56
-32
83
-28
-51
-4
22
9
13
-45
-64
-23
4
8
73
64
26
-13
-65
71
-21
-22
17
-110
-57
83
-60
26
-10
49
41
-9
-8
67
-58
10
36
-32
-69
32
85
-74
43
43
8
-93
-42
-29
63
61
-44
29
-7
-11
-64
-4
-61
6
20
-44
-53
-29
-48
33
-34
44
-24
-71
51
-63
3
48
73
67
-8
-49
-21
-83
17
70
-52
-41
-93
-12
-40
49
68
-32
-32
44
-2
38
42
58
-18
7
32
8
29
5
35
53
-12
46
-3
50
45
-29
52
53
-3
-44
38
-56
-33
51
-36
5
-55
85
-47
-37
-49
-70
-17
-47
-18
1
-53
43
-76
-51
-6
42
75
53
57
-3
-4
-33
14
93
-34
-1
18
38
-19
-97
65
-40
-35
-5
19
-54
-62
77
-23
47
-71
-77
-10
-35
-48
22
-58
3
45
-57
44
1
5
54
39
-56
-14
-24
-17
-3
45
56
45
50
-47
-20
52
-2
29
19
-26
60
-34
63
-9
-23
15
0
48
36
16
-38
-42
76
48
75
30
-11
13
-70
-20
11
33
19
25
64
55
23
-67
-89
-74
12
-24
-10
43
-37
-9
-55
-49
6
-18
-12
-19
-24
-31
25
-31
32
-50
-12
-50
-10
59
-46
-32
27
-57
-96
-16
103
-7
41
20
-28
-44
71
19
-17
46
-31
-77
-1
83
15
22
7
-45
-47
53
31
25
15
-40
12
-91
123
99
6
34
-76
13
16
45
-45
18
-104
-26
16
40
31
16
17
57
46
26
-30
-13
-56
21
18
46
-18
49
-60
-50
-46
-68
-17
44
-5
48
13
35
70
-42
63
-53
-64
-46
-34
-62
64
-6
-34
-8
76
-72
27
-21
14
41
60
31
-96
-63
29
91
-74
25
19
-92
55
30
39
7
-42
-1
100
2
65
-14
12
8
-118
88
89
43
20
5
-54
38
-73
-74
-29
103
11
67
24
-71
6
56
-13
-57
-123
-33
31
43
-1
68
51
25
-85
60
-48
-1
-24
3
-42
8
-79
-9
-37
68
11
-101
20
44
-60
-70
-32
15
113
-20
-9
28
22
-7
-73
46
-47
-7
46
-81
82
-33
44
41
48
-55
-53
27
-29
-13
-40
22
77
43
79
-12
69
10
-3
112
68
126
-27
78
-43
9
21
79
101
36
-87
4
-9
-62
67
56
72
-42
7
-31
-99
22
-33
39
67
-18
-22
-38
-28
-82
-59
1
4
67
-34
56
43
106
63
13
-53
-49
16
14
25
-114
74
7
58
-62
69
-26
-71
-7
17
-29
-22
30
-72
106
-98
-98
-57
16
29
42
42
-41
-50
13
-40
-86
127
32
89
-12
-28
21
1
31
-20
11
34
17
71
-72
0
36
-50
-11
34
26
-56
46
-52
29
37
38
19
-16
-36
85
-20
-35
-9
18
104
45
-69
3
84
-38
-12
-24
67
40
-12
30
42
38
-79
-30
24
-53
-50
-52
-33
39
-21
70
-38
79
-45
-88
-78
-32
68
-1
91
56
-31
-34
-50
-82
-79
106
-18
30
-67
-58
27
-3
-57
-58
22
-50
-47
53
50
-4
79
-3
40
-27
-78
10
34
-47
-6
-84
61
6
8
-69
-84
-5
-62
-2
4
63
48
-2
-27
-61
-75
-17
40
14
66
54
-110
-27
43
-86
-2
4
-5
50
-54
-38
16
22
15
71
-87
100
-67
25
61
-11
-3
-54
5
40
-34
-49
-16
-46
-24
34
36
25
40
-45
42
45
19
-49
-61
0
-50
56
44
60
69
27
52
-32
-32
51
25
-20
23
35
-66
-27
34
10
2
-7
-66
-65
63
15
15
97
-70
-50
-46
37
-38
54
59
8
-5
-77
-51
2
68
-50
-74
58
-37
38
5
-7
-34
-45
-63
-62
66
-3
6
-97
60
18
-62
45
5
-17
-31
41
20
-75
35
-43
105
100
53
63
-34
64
28
-10
-68
48
-84
23
-52
-61
-28
-42
-42
-84
-59
-28
-33
15
0
-48
-22
-27
9
-12
68
-46
56
71
29
-34
28
19
-29
52
-52
-91
31
-70
-67
-34
-40
21
50
-34
22
38
57
61
-27
78
52
29
48
43
-45
41
-66
35
46
44
-42
-21
39
51
3
-56
46
5
60
57
72
17
-44
-56
-14
30
-6
-81
-73
-18
-27
-79
-13
33
6
57
41
-7
15
37
-32
9
-62
-47
2
6
59
23
27
-28
-45
-106
-47
-59
31
3
-20
-15
5
42
-2
-48
10
-67
57
39
71
23
20
69
33
-20
23
1
44
42
49
-5
41
45
-3
-4
-50
71
32
-16
-56
43
-83
29
53
76
17
66
-28
-11
-18
-3
14
-53
-20
-67
-31
-75
59
-76
72
43
62
-14
37
-1
43
127
42
76
52
26
60
25
-62
-4
87
30
21
50
84
-20
-82
31
-57
-6
-50
-6
53
35
-1
-46
-66
-13
-76
33
-16
-30
-114
-47
-84
20
-32
-43
-5
-27
19
29
-27
-18
62
-36
67
-38
37
31
2
12
-44
97
42
21
15
-30
49
61
-60
14
50
-32
-83
-70
45
26
91
-34
34
22
32
-12
9
25
-56
41
72
67
-6
51
31
42
-34
21
-32
-41
-6
-81
-75
10
-54
-70
-52
77
-9
5
20
-42
-22
44
48
-26
48
-20
75
115
-8
103
-88
-58
-13
-18
-46
16
-8
7
-4
53
-121
-17
4
3
66
58
27
-5
-37
-45
61
-21
75
65
-47
-45
20
-35
-43
13
-26
-56
-23
-18
25
-36
-3
-56
20
53
26
52
39
-7
4
22
23
-20
-33
27
40
27
16
-19
-67
-41
43
-20
19
-60
69
-42
-16
-7
1
26
28
16
9
66
-19
10
-78
-8
-55
-1
-29
-54
-26
74
63
-60
11
59
64
58
-45
14
-78
37
13
20
66
-10
58
35
58
-45
-19
50
29
33
-54
40
37
4
-24
70
33
38
11
-17
76
11
74
81
17
-41
-12
-73
58
37
-23
24
-9
-55
-49
19
15
-69
-51
58
-49
-67
-62
9
40
92
-79
33
54
-66
74
10
-7
-87
30
-101
-27
-14
-51
-56
-52
-48
8
-6
-66
16
73
23
-5
-10
0
13
73
-9
-39
-53
20
14
7
-71
-63
-17
-36
-2
-51
73
-20
-69
-21
-45
14
65
61
54
-25
51
-65
31
-11
6
-29
-14
-46
45
32
-27
45
-106
-52
33
-49
-80
-46
55
-32
26
38
33
43
28
-51
-12
4
-74
-44
-18
44
10
-19
-84
-74
-70
37
6
-11
51
-74
-25
81
-95
16
38
-65
-25
21
45
70
10
-71
22
5
31
-87
-8
-6
-10
70
78
83
84
61
-34
20
27
-24
30
-56
82
1
-42
-79
-31
-84
81
-21
-93
-21
84
-58
58
-44
3
-43
-27
56
-8
9
35
-21
16
2
-10
-64
64
40
62
74
-81
-85
-25
12
-25
-5
28
58
95
81
-12
58
3
-45
-31
70
-17
55
-8
14
33
-126
-113
-24
79
-23
13
56
-8
-40
-24
-69
28
31
11
-38
-19
39
-41
-36
-68
47
103
67
-47
-59
-75
51
-1
-19
-49
54
4
63
21
19
-7
-11
1
69
13
84
38
-30
35
-26
-28
-25
9
-14
-90
-36
-82
53
-42
-28
68
-41
97
89
39
53
70
-28
23
-98
-48
-55
-36
-18
-68
67
94
-89
-1
72
38
-110
-67
-27
-8
-70
-77
-85
63
-66
48
11
-11
-23
-12
-81
26
-127
-18
5
-52
2
-78
-8
-68
2
45
-7
16
65
77
-5
26
-45
32
-17
34
-21
10
36
-14
17
-46
-71
-44
-68
10
-24
-95
-13
-85
-21
-48
-53
92
25
-46
55
-1
28
60
40
72
-26
61
-71
-63
-67
-24
-40
29
123
27
-44
31
-70
-59
-75
-106
-3
71
-9
-15
68
3
-39
-69
-68
19
28
56
54
49
-70
43
-4
-12
-3
-37
-24
-3
41
-58
-31
-20
23
-124
-18
36
25
19
57
25
-76
43
53
-33
36
-12
76
69
-63
-82
16
40
-32
42
40
-60
-25
61
14
-99
82
-69
22
60
-54
5
-27
68
44
0
60
70
22
-42
-70
69
-59
44
69
53
-62
11
39
-4
47
82
-2
-29
-47
-4
-52
78
10
71
36
-2
-35
47
17
35
40
-45
-60
-53
-56
46
-11
-76
-47
9
55
53
34
25
-30
-61
7
38
26
-10
-64
-14
-49
-31
41
62
-77
12
19
-34
-66
-33
-38
8
-53
-9
48
13
-41
-71
-23
25
-25
-38
-19
-28
62
24
12
-32
39
29
3
-52
51
20
-5
15
31
-31
56
51
6
-21
-41
-39
-6
-74
-31
-95
-61
-43
-79
-17
39
36
7
2
63
65
31
76
-72
-42
39
48
-55
16
21
-53
-80
-18
-74
13
-2
4
-27
52
-68
-41
10
-10
1
22
35
-5
45
27
-44
-21
-29
-71
-2
-33
-70
80
58
-16
27
-42
-47
-109
-95
41
-91
3
32
24
60
57
-7
-12
20
6
28
-5
24
-18
58
15
16
11
-38
48
77
9
-59
-9
55
-9
-17
35
-2
22
21
-48
38
-79
-58
-73
19
45
-33
36
-53
30
46
79
-9
76
-20
-1
-5
-38
-52
-23
47
19
-77
-85
21
31
10
35
63
31
78
37
-39
-37
-12
-40
84
-33
53
35
-28
-36
65
-76
-62
-70
-67
-67
22
52
-23
-15
-29
60
-56
26
-16
20
-52
-55
-33
-20
29
61
-2
-10
42
48
-28
-34
54
-62
-19
57
-14
15
24
-3
-61
67
-61
43
14
49
-13
17
-2
1
35
55
-33
-35
69
1
-42
-29
-23
-12
-43
-21
34
-70
-47
-5
-45
28
-21
11
62
-33
62
-85
-42
68
18
-35
-19
-11
-11
-18
-39
-5
-1
-4
67
9
-26
-27
-27
13
-29
23
-14
-23
-51
10
-3
-59
-21
40
22
34
43
-22
-74
40
34
-3
80
36
-54
-87
51
48
24
25
42
40
68
-30
65
-17
-52
10
63
11
6
-36
-32
-34
6
5
61
5
-54
-25
60
74
46
-19
7
-21
33
-15
-23
11
-3
41
26
-45
46
21
-38
76
-40
-28
16
-55
11
-95
11
0
-40
48
77
82
-62
12
-59
8
-52
1
-1
61
23
59
-50
-37
-6
-36
62
-15
63
-58
32
39
27
-12
-45
45
0
-36
-24
-74
43
24
43
13
43
62
39
74
-36
-60
1
58
31
-53
10
-68
-51
-33
19
51
6
-128
59
-39
-53
6
48
-67
-37
57
-59
-7
58
-25
-37
44
-27
57
-34
21
-39
6
-13
-49
34
19
26
-37
-53
-27
-71
-54
39
58
16
43
56
2
8
-46
-10
50
-28
19
1
-25
22
15
43
-52
-43
34
18
51
-65
31
79
21
78
31
-34
-23
2
57
9
-23
6
-72
-50
-22
1
14
5
-23
8
-38
-64
4
-22
52
10
8
-15
20
15
-32
18
64
-29
11
-10
51
18
-1
-16
-45
49
34
47
-16
-39
-8
-50
-42
39
15
1
-39
46
-33
-51
6
-42
-32
-51
35
-23
-26
-17
30
-67
18
-14
52
-47
-28
-44
-35
10
48
-37
-28
-55
19
12
-5
-4
18
-1
59
22
-49
-66
-65
37
56
-56
-15
-43
25
28
-25
-14
16
-45
31
12
19
17
17
67
-43
-45
-6
55
-4
-6
32
32
9
-16
-50
-76
-32
-48
24
-61
59
47
73
-23
-13
-62
20
-8
-12
16
-15
49
-21
-5
18
-56
-51
-10
43
73
29
-1
59
-3
-15
-39
-40
1
46
-21
70
-84
-65
44
80
85
75
100
-48
-64
-57
-35
-66
27
7
-128
-84
-33
58
-22
-18
62
-40
-61
-14
-13
-62
69
69
-77
-3
59
-39
-20
66
42
-59
51
23
6
14
-73
-16
-19
12
50
27
57
36
-27
-6
29
-58
27
-59
17
24
-28
-17
26
31
-18
12
89
-24
37
2
-13
28
85
-28
46
68
55
36
70
2
-38
17
60
-4
30
44
50
37
8
-37
-38
22
-4
10
0
-7
0
44
-29
4
43
49
61
-16
-24
-11
18
39
-41
18
-38
-22
68
-14
-45
53
-11
24
-47
-94
-26
25
-78
41
-13
24
56
-4
-19
32
-62
-52
-57
-69
44
-61
62
-26
-9
-2
12
19
-13
-37
-26
75
-25
7
33
-31
32
-21
31
65
16
50
-37
-32
-94
-3
19
34
31
27
47
-32
51
-47
-21
0
68
2
-46
-84
26
-80
-49
49
4
54
-5
-67
-66
-3
93
-46
81
-25
-4
14
9
29
65
-55
91
-32
11
-5
-34
-25
65
-2
65
34
61
-82
7
-8
-68
-30
46
1
-7
-45
-7
57
32
-21
-40
-67
15
35
-24
64
14
-57
2
19
64
-54
74
-41
4
0
-35
60
-63
48
27
-5
70
-33
-32
-31
-99
-73
-1
32
-57
61
54
-24
-22
-79
-41
-18
62
-18
-39
81
12
-16
-29
-38
27
-69
-21
-36
47
-94
71
17
-58
-62
38
-31
96
66
23
3
-47
-29
-61
39
53
8
-36
-34
-59
-11
-74
-65
-24
24
-63
21
-5
20
-64
-47
-14
5
26
31
-24
-54
54
-69
-44
-17
5
19
52
-1
-14
-61
36
-22
0
-21
-9
29
-57
48
18
-55
-20
-46
52
30
30
41
-49
3
4
3
-33
50
-2
-24
57
27
46
22
-22
-52
-11
-35
-34
-47
2
-71
33
-19
47
38
-43
-36
-37
76
-42
-5
24
-14
41
74
-33
-20
12
-77
-2
52
18
-88
26
38
-29
40
24
26
33
39
7
-17
-20
52
-68
4
50
17
-17
-45
-78
28
26
14
-21
61
-39
-25
13
-45
62
41
-11
28
-47
-21
-6
-71
56
5
-7
-11
-42
53
12
53
33
51
36
72
5
27
-50
-30
51
-18
0
-91
45
-20
33
-79
-23
-14
6
5
25
-53
65
37
67
70
-40
65
-45
-42
16
12
60
27
-38
-17
62
-48
-3
-29
57
53
22
-62
7
-48
22
-1
-32
41
23
49
20
56
-22
75
40
40
-38
-53
-18
-66
-29
45
9
46
-62
-52
-65
40
43
-21
-45
-11
-37
-11
-44
-63
16
-75
-47
-112
-39
23
-54
56
-56
29
2
8
104
-57
-81
68
-80
-46
-94
54
-38
60
18
-19
-27
10
-80
-67
-18
82
58
-33
101
74
-12
-61
-91
-11
-74
-50
45
-13
49
90
-23
51
-49
-11
-15
80
-91
-16
-57
-9
42
-4
67
0
74
61
45
-90
-11
107
-21
-53
37
-66
28
-35
53
10
-36
79
42
-29
37
41
-37
46
-121
-36
-71
-101
-57
-8
-43
-65
-91
-93
-16
-34
13
-78
5
63
56
76
-20
95
27
-67
-9
4
-25
11
-80
22
0
-8
-30
50
32
-110
-28
44
61
-28
9
17
-10
-42
-68
-28
63
33
-15
77
26
3
-7
-7
-10
5
24
-6
-1
47
30
41
127
65
-82
-33
-42
50
-21
-22
-83
-44
-72
-7
-48
-49
24
-53
-27
-43
4
-71
-53
-18
26
-38
14
-25
-68
-74
18
-105
-55
-7
71
-5
-48
-98
18
32
19
34
-49
76
-47
-41
26
76
31
17
28
-28
11
-78
-76
-74
58
-27
73
38
-48
-108
0
4
47
31
-63
-37
-63
-16
10
90
19
-92
64
-28
65
-85
12
25
-81
-2
56
49
25
31
-13
-2
56
-60
-7
9
8
4
-8
-34
-30
-80
-31
73
-61
-67
-14
-52
-39
59
46
-24
-46
66
56
-88
-29
14
-55
-66
-45
-31
38
-63
18
39
-70
-32
-31
-26
-69
-23
-77
-15
42
-57
-58
-37
78
60
64
-34
-4
-35
77
13
-85
-15
32
-82
-66
-71
-41
66
14
-25
-26
-51
102
21
57
20
53
42
31
53
93
-41
-1
38
-14
-44
26
-7
77
-40
-32
84
33
-33
26
74
4
-35
104
-19
5
76
49
-43
-7
66
-38
5
63
65
70
30
-29
19
90
85
-21
50
-73
57
-13
-51
-47
79
-49
14
70
-36
50
-66
-19
-33
-49
-25
-39
-16
-86
-29
-56
23
-16
80
-25
-26
-3
37
-3
1
2
58
10
64
-32
88
30
28
-35
-75
-4
-15
-30
-2
-61
-63
37
-73
50
-32
9
-56
-37
9
5
57
71
-59
70
-15
79
-50
-28
29
-33
-3
46
-44
43
3
23
31
82
32
16
-6
26
-24
39
36
-61
57
-86
-45
-27
-13
-82
-53
-41
-102
83
-4
-30
29
70
26
-68
17
40
-47
-57
-10
-20
39
31
36
-42
3
-2
-36
-61
-33
-4
-100
-20
-50
-65
-51
14
-63
67
18
-42
33
-42
52
51
-66
7
28
76
48
37
102
30
-5
21
23
17
-35
33
12
-92
51
5
17
-40
80
-62
7
56
-50
56
-61
38
74
10
-14
44
121
-59
27
-103
37
5
19
14
-2
46
72
-26
5
51
26
-62
-36
-7
-18
30
-32
55
14
63
-93
-29
76
43
56
-9
6
-30
-14
72
-2
-56
-64
63
-44
13
-10
28
57
-54
-8
83
-4
2
-16
-115
-58
-72
72
-62
-58
91
-31
29
-63
-52
64
-35
22
45
101
-2
106
33
-21
-33
37
35
65
-47
-24
-40
-5
-15
-15
-43
57
-26
7
-6
-38
-11
1
84
-50
62
-13
-48
-26
57
23
-77
-74
0
55
13
95
24
5
-84
-18
-56
29
35
46
-61
-88
46
37
40
10
-33
85
7
9
-67
44
8
2
-16
-60
-5
27
26
24
-43
4
73
43
-71
-12
58
48
62
-47
-34
60
88
34
-17
35
-14
22
12
96
-20
103
-4
-1
-15
-88
-31
64
43
67
-38
51
-4
19
46
-7
26
18
15
-61
-45
-28
8
-20
-23
-73
-3
44
12
10
42
-57
-28
20
69
30
12
-20
-21
30
63
-40
-29
-90
-2
-69
-12
39
26
64
-44
-62
-5
2
18
32
29
62
-15
-18
-47
-18
-10
19
38
50
-28
10
-7
5
-20
43
53
0
-69
-23
-13
75
-13
2
-42
10
70
0
30
-24
64
-54
19
-30
11
31
34
-76
-59
-69
38
43
55
-58
-53
-38
33
-27
31
1
-74
-54
56
58
33
-4
-17
41
-40
-23
33
70
-33
58
51
-9
12
79
-26
-22
64
66
20
-60
-6
48
7
73
-71
-1
8
-31
-24
72
-10
1
-16
-44
36
48
43
-48
4
20
-93
37
60
-22
82
34
-46
-48
7
15
-57
6
-11
-16
-33
44
1
12
54
-43
69
-12
27
45
-11
-14
-52
58
5
-37
76
-33
-8
-32
58
59
14
-71
50
24
13
-42
32
-21
-58
53
52
-54
-64
-17
-1
-35
72
-3
-66
-27
63
-35
-62
0
-49
3
-34
-3
10
-29
59
-33
13
36
-10
81
-43
-14
-7
-44
73
35
63
78
57
127
36
113
-40
6
-11
-14
-87
40
1
-60
-15
-18
-68
23
37
4
14
-45
-18
-26
15
-32
38
39
46
55
48
49
28
49
-28
-74
5
-56
41
88
-23
-11
37
72
-31
-71
-41
76
20
-11
-5
-31
68
47
-69
25
-33
-23
-28
-40
16
-64
10
35
16
6
-32
13
-46
-38
-55
-16
-31
-14
-46
10
-38
-26
40
-39
-20
-27
65
-66
-44
42
-29
-84
-56
-52
-15
11
8
-27
39
-24
8
39
58
-49
-39
-17
0
36
-22
-51
67
-15
13
73
29
27
15
33
-45
27
32
38
-48
43
7
5
-101
15
-22
-92
-65
11
54
3
43
53
42
67
-40
-6
-58
61
76
-50
72
6
-71
59
33
-59
-39
0
88
73
4
97
-49
-69
36
70
30
-13
-57
-28
2
-22
-25
37
58
10
38
30
9
24
2
-55
36
-11
-70
-42
-29
25
-9
60
-16
32
42
-57
-8
-34
-76
-13
-61
-59
-22
-31
60
40
11
-71
49
45
0
23
0
-76
-58
-30
33
-14
-27
-2
-18
-111
71
-16
74
5
13
46
40
63
-11
0
13
85
38
-69
-66
10
-24
-31
-65
-58
10
43
37
39
63
59
-50
38
26
14
30
5
-18
36
9
29
47
80
-64
15
26
30
22
19
13
60
-53
23
14
32
-17
27
30
127
61
88
69
44
-18
17
-66
-18
-80
23
-23
27
-23
-51
-28
-61
-57
-42
66
-76
-64
-49
-34
49
3
54
-27
23
58
-2
-74
-13
-39
37
-16
9
-52
18
-7
37
21
40
20
37
-12
-64
-35
-3
28
-30
-32
-35
-18
-52
60
44
65
49
-43
-47
64
36
-57
-18
-9
18
66
49
-18
-26
59
26
31
-12
-34
-58
-41
-88
-36
-14
63
-13
60
67
34
63
-25
51
-5
-50
-17
5
-39
-41
63
60
14
1
-18
-3
-55
5
34
-66
51
46
31
57
-15
-7
-23
-54
2
57
54
25
53
-19
52
-57
-4
-43
-46
-35
-25
-10
24
-40
-59
-65
45
-45
42
-56
48
3
-79
-54
2
-60
-10
-80
27
-35
47
0
47
-16
37
-27
-13
45
-62
-9
45
64
-36
26
14
16
22
-35
-27
28
82
39
67
31
-6
-43
-37
-32
-82
23
60
-38
76
-12
-24
49
-16
7
69
52
27
54
27
-50
28
12
18
3
-39
-7
11
-3
0
-3
23
-60
-58
28
97
72
11
-10
28
5
53
-6
22
-46
-62
-40
5
56
8
19
47
-38
-17
-12
76
-8
82
-36
-12
-5
16
22
36
72
-3
-36
64
35
94
-6
21
-41
16
-66
17
-34
-63
19
54
53
-12
-54
66
-38
38
7
88
-11
21
-67
16
-9
-18
56
-22
-6
0
-17
26
3
52
-27
24
59
11
-17
36
-2
-59
61
-29
43
72
-40
9
53
51
25
14
-21
57
-77
35
44
-23
22
-43
-52
-91
-48
33
77
19
-45
-4
-10
-17
93
-28
77
21
11
-29
57
0
-43
27
-60
13
-27
39
-75
-26
-49
47
-19
69
39
-45
-57
-27
-7
21
-4
-59
62
2
-44
-7
-42
20
-2
-34
-33
18
-25
-10
76
-66
-61
-38
58
-22
-31
-3
81
7
-4
-31
-51
-37
7
61
-72
-30
47
-36
24
40
76
54
76
64
-40
-13
32
-8
15
57
62
64
64
-59
-17
32
29
-57
37
26
27
13
4
53
-55
25
5
-54
-74
-59
8
-38
25
16
5
-11
34
-55
41
-15
65
50
-74
9
12
5
40
-14
46
78
54
30
28
9
-45
62
2
102
-56
46
45
37
62
-15
21
82
34
-11
-55
3
-15
73
2
49
62
75
80
12
39
10
-34
17
-65
-21
12
33
-36
37
79
-66
-20
34
86
-22
62
-56
16
-21
-90
27
-6
75
12
-40
-88
-21
10
12
-39
25
-45
60
-36
-11
-94
-26
40
50
3
-46
64
-20
57
-10
-1
-26
63
-7
96
37
-53
-1
75
42
-19
-42
64
-46
83
-64
29
35
-14
-15
-15
28
-44
-45
81
60
32
-11
-52
17
24
28
-61
56
15
-59
-57
3
46
13
-28
38
20
-90
16
27
-60
44
83
43
65
-6
-31
10
55
41
42
64
54
-32
52
56
-19
-37
25
-76
19
66
-62
-3
38
-91
37
-128
-34
4
-41
70
-40
17
-56
57
-21
79
-20
34
-45
-47
35
-53
-6
-16
58
19
48
-61
-25
-81
-28
-37
-24
27
-6
59
-13
-2
-39
27
-38
48
68
65
0
69
45
-21
-29
64
8
7
-46
50
33
-7
41
-1
-58
65
44
10
10
43
0
4
16
26
-10
57
-26
22
-41
19
-54
-34
38
41
28
63
64
8
-18
-51
-31
-36
-62
-22
1
-68
35
-54
38
30
20
3
-50
12
39
11
12
-63
66
68
-64
-5
-54
23
64
17
-10
-64
-64
-62
-29
59
45
-12
52
-17
3
20
-59
19
18
3
-33
16
31
43
-49
-56
19
-10
-36
73
-23
23
-24
16
30
-14
62
15
-82
-28
15
-51
-27
-16
-28
-31
79
27
4
-37
44
-72
39
13
45
32
-2
-57
-28
3
-16
6
-24
21
-48
11
-58
19
60
34
60
63
-37
6
-26
61
46
17
4
-2
-48
-34
40
68
67
35
-32
-75
-62
4
54
0
19
-52
-30
8
-52
50
-6
-75
29
-87
-10
36
-11
-46
78
34
88
-40
-52
-60
47
34
39
88
3
69
-59
-78
16
-79
-67
49
-68
61
21
86
-47
-99
-71
48
-17
90
95
-11
54
60
63
-35
50
-50
64
-33
17
-28
71
-60
-36
30
57
-35
7
60
-49
4
6
49
39
14
-6
42
8
-12
70
-14
13
-32
42
-38
-72
54
5
18
-44
-48
20
-3
56
-51
-5
48
57
4
54
-39
91
100
37
-4
-47
-8
-43
-49
-50
94
9
19
22
28
-21
-47
-64
16
68
67
-34
17
-30
51
8
61
49
-19
-53
52
-67
-54
27
32
-58
14
39
-61
2
35
-65
-14
48
-41
-5
24
-66
7
-37
54
75
54
79
68
-28
8
85
74
13
15
17
72
0
12
-16
31
-11
-92
-87
-58
-60
30
57
-15
-37
-51
32
-25
51
47
-63
75
43
76
96
12
-61
-28
-24
122
40
-64
26
57
-9
-54
81
57
-51
-33
-14
-62
-58
2
48
93
44
-114
-56
-24
18
-9
-24
-23
-29
-34
49
48
54
-59
-52
21
-19
21
65
34
-66
-45
24
83
-67
80
-23
-12
-77
42
-85
65
-40
-29
-69
-36
42
81
-22
68
127
-52
-11
84
-24
-75
-95
68
-80
64
-36
65
65
46
14
65
46
-25
17
-55
-80
-51
-74
65
-57
-87
-15
-33
-95
47
71
-53
53
-8
38
-93
12
-48
53
8
65
-34
-66
-17
-34
0
-35
6
-27
3
-37
43
52
5
-64
-5
4
69
-59
23
54
48
-69
59
57
84
35
-9
-63
42
-49
23
-58
76
59
-25
99
-23
33
0
-49
-55
-3
19
18
-80
-57
80
-24
72
-66
68
-52
78
-82
57
-37
50
40
61
42
95
23
-73
-72
-40
60
77
19
-20
1
-10
59
-99
-20
-78
31
3
-19
13
26
-57
54
21
28
-73
-23
-66
-4
-51
-59
-34
-30
73
17
-56
-2
41
-18
2
-47
-120
22
48
-60
79
-68
-47
15
26
73
-36
46
17
32
-37
-44
45
-2
1
48
71
-32
-14
57
39
-77
-26
-61
43
76
-24
28
-93
38
-4
2
51
27
-59
-64
5
34
-8
4
-19
-41
64
-77
-17
41
51
-42
-12
-57
-14
52
75
71
97
81
59
24
-47
-55
25
32
-24
-11
26
-89
9
3
74
11
39
3
-65
45
29
4
20
-28
-14
-71
-38
-12
14
27
-20
-89
-50
14
-15
-34
57
-30
-57
51
15
104
51
-71
-57
62
-6
81
36
1
-18
48
-10
-5
7
-27
-9
-4
30
1
-25
71
7
51
40
47
5
-54
21
71
38
-12
26
-35
-47
36
-28
26
13
26
-23
89
-16
-28
-12
-47
-34
3
41
-33
-20
-11
-3
-7
-44
-1
-45
4
21
-44
-27
30
-70
-17
-37
-10
-26
-51
-36
-29
47
13
13
26
48
-46
28
9
-20
40
68
17
17
-37
-33
28
-23
28
0
15
-58
-11
-85
-45
-22
43
-38
-11
13
-5
-15
-53
-19
11
11
-22
31
127
98
68
7
-47
-20
-5
48
-17
54
5
-27
56
39
-22
46
16
-17
-3
17
-37
44
-24
-5
-22
45
28
23
-30
12
16
42
24
-37
42
32
49
53
-16
30
34
37
32
-11
49
69
36
10
-6
-5
28
67
-43
23
-16
25
10
41
28
-106
-92
-4
-36
-52
-55
-49
-52
-24
-1
-8
-19
-62
20
2
-7
-25
-18
-1
-1
-40
4
69
32
47
3
-23
-29
-13
-16
-26
-35
56
-36
-8
-33
-17
20
-60
37
-34
-47
-38
-17
-43
-38
-18
-47
19
-53
-24
39
-30
31
38
-41
-1
25
28
-19
24
-39
-40
33
-15
-56
-22
72
-40
55
63
-36
-28
-36
-32
19
-31
40
-18
-2
55
47
-4
-2
-42
-37
41
37
32
4
-51
-46
-35
-7
41
-17
-17
-17
-9
-43
-32
22
-43
27
-9
46
-34
7
-23
18
68
38
13
12
-9
-1
24
-46
-28
13
14
42
83
48
35
45
-10
73
56
-53
-36
46
-38
36
19
23
30
24
25
-45
-1
-18
-35
54
-34
14
53
-15
-47
8
77
2
-29
14
44
68
-43
10
56
-33
14
43
-2
-34
26
-28
-17
-25
49
-30
-38
-31
-48
-41
1
-51
9
-34
-34
-6
-24
7
54
57
4
15
-43
-45
-54
-43
-51
-2
-5
23
-24
-11
-12
-39
-50
52
-26
60
58
77
-29
-9
49
-29
-30
-16
-6
-37
56
-10
16
7
9
8
-4
-17
24
0
19
-10
-43
-21
67
45
16
38
18
47
40
48
-25
-8
9
-40
-1
33
50
63
-77
17
-50
2
-39
3
-1
26
13
-34
12
-11
-11
17
60
-26
1
-28
20
2
-4
88
-5
-44
-10
48
22
18
-37
11
36
7
32
-1
56
-39
-50
18
64
-19
43
-37
-19
26
58
-48
-33
-4
-38
23
25
-9
36
38
-28
24
-13
33
-29
2
19
3
63
37
-45
40
-27
-25
8
58
-40
-32
38
84
10
-1
24
-36
46
-6
-10
24
43
70
78
-28
50
-34
-7
26
83
-3
-12
39
47
43
77
-58
-52
-6
-16
6
68
-25
56
40
54
76
-17
-12
86
61
22
17
-20
26
43
18
18
-9
-76
46
21
-69
56
-50
-40
72
-19
-72
-17
-34
-68
-46
-46
31
-76
-72
58
-99
-103
-97
91
26
6
-7
64
-30
26
33
-1
-74
94
49
-77
-54
-48
-69
58
99
-18
-21
-4
-59
18
-44
-57
-18
-37
32
-59
8
-76
-70
22
-83
36
74
-26
63
11
72
9
-43
-57
-13
45
17
87
27
56
-18
100
35
30
-28
-21
-40
4
22
-39
-107
-73
-52
-38
-26
5
10
63
-11
27
-87
15
-118
6
82
76
88
-53
-35
-79
-79
-61
82
-65
5
-25
7
-61
9
72
-39
-21
11
-44
0
-78
-29
-50
-71
-6
-41
-45
43
26
40
18
-51
19
7
24
40
82
-20
19
-49
45
21
-18
2
-3
63
42
37
-77
-11
2
-60
20
-42
103
99
88
-8
-21
32
108
41
-70
-90
-47
58
-8
-67
-90
-46
-4
-38
51
-22
60
-112
12
45
11
20
-43
-38
-10
-38
85
40
100
49
47
62
-34
-23
-85
-69
65
-53
21
-42
-51
45
61
-25
23
-9
-26
-30
-45
-14
-51
55
-13
3
-84
44
-16
27
-50
-73
-15
26
84
-1
29
15
-37
-20
67
42
-44
-34
-123
-128
-4
-47
88
-15
-67
10
50
42
-69
-54
42
33
123
76
92
30
112
15
4
61
-18
-27
65
57
-16
29
8
-11
-12
-60
-23
-15
61
49
-39
-10
-66
9
27
37
63
50
-74
74
32
-41
64
29
26
-3
23
-5
-80
-35
71
36
-31
-20
-75
-79
56
-73
-105
16
-40
12
-33
16
-53
-50
1
-24
-11
72
-64
-19
16
-17
-53
-97
-54
-47
-55
-71
-92
49
-12
49
63
44
73
30
52
-40
2
-76
58
-59
53
-11
39
10
-46
-14
-18
-69
-17
-64
11
-52
62
-13
-48
-16
-41
64
-36
2
-7
-9
40
47
-10
-34
68
-70
10
7
106
-59
78
82
-83
-6
-14
0
72
78
-16
62
-38
-58
57
-66
16
45
17
15
7
-24
36
78
12
-27
10
14
18
11
59
10
68
73
58
36
99
35
76
13
33
60
-17
61
-52
-24
-33
-59
62
26
25
19
-9
-51
5
10
17
-94
-7
69
13
69
-40
-42
-48
73
-59
-92
49
-95
3
-7
-16
18
-75
61
-11
87
-11
66
-56
29
44
24
85
63
87
27
71
35
79
71
-78
45
-47
106
-33
76
-47
-9
-55
-17
65
24
-102
-103
22
-17
50
-22
-50
70
-42
57
-54
13
-70
-66
81
18
-10
94
46
-46
72
-72
25
47
25
47
-16
40
-57
-28
54
-4
-39
54
-33
-101
29
-47
-26
17
-55
-48
-9
-10
56
-2
-55
64
-96
-26
72
36
35
-17
-65
5
44
87
27
-39
22
-22
-92
-54
50
-88
-29
-8
7
-32
-48
40
-62
51
-49
-28
-1
-7
-4
16
-16
-2
-68
-5
76
38
95
81
-44
-12
73
-67
-18
-69
13
29
-67
64
0
-74
4
8
62
73
66
44
54
70
-31
81
-37
-71
64
-30
10
-3
-35
-39
-31
-2
-66
-48
-28
77
4
76
-14
106
-27
36
-56
57
74
32
-12
-36
-4
60
87
78
75
32
-65
62
85
1
-50
-54
9
-14
30
21
-36
-9
-79
-60
58
127
-73
73
83
-18
-39
-9
1
86
-44
-25
-75
-29
3
39
68
99
-13
94
120
51
25
-23
-26
-43
-29
-46
30
-46
23
-84
67
-55
18
-15
40
14
33
56
-8
-43
-7
92
63
11
72
99
-19
70
53
-18
44
-1
97
-14
-57
-25
-10
50
-42
12
17
-69
84
-21
63
-31
-69
59
15
-39
-86
39
1
-23
-70
-15
-15
58
-54
65
60
-55
-76
0
35
79
-20
30
23
-69
59
-17
-40
-9
66
-22
39
-39
32
-25
-121
-9
13
-90
-40
-37
54
-14
77
-5
12
-47
-57
58
95
47
-32
56
4
-1
81
-9
59
64
-76
-11
-85
-54
24
82
14
-39
-58
26
-54
90
66
28
39
60
-78
32
74
48
-8
-21
-58
69
-63
4
17
19
36
-78
69
-99
-92
26
4
-59
82
77
-13
79
34
13
69
-51
-58
-14
56
-40
58
15
-8
-55
61
-50
-47
-52
47
1
13
-14
-64
-76
-43
-46
31
5
-80
-22
-58
-71
14
42
-56
18
-33
-81
36
-52
-30
-42
5
32
26
-7
43
62
89
-4
45
-26
-4
52
-35
49
25
24
-63
-79
53
70
-25
84
-5
8
-76
-4
-8
-35
0
82
-39
0
81
121
72
53
105
83
-32
-59
-31
-47
-10
-44
-58
-6
-33
-6
-50
-44
-26
24
-6
-29
-59
9
-74
13
44
40
-32
-39
17
-7
-38
14
-50
13
-43
57
12
75
-10
-54
83
-25
-9
-67
-16
-27
37
1
20
17
-25
51
1
37
-96
-69
-49
33
-51
70
45
-24
26
-61
20
-6
56
69
60
-55
-20
43
12
-42
-18
-47
-55
54
-67
51
-73
1
-29
-18
42
-2
45
86
30
53
2
-28
-75
-61
-97
-89
-58
72
-55
-117
31
-78
51
35
-37
1
58
69
-51
85
35
38
-20
39
-18
-28
-112
-79
-6
23
-24
61
11
34
-77
66
4
33
14
22
-32
-60
-9
23
63
25
2
32
-63
55
25
10
-32
-18
-40
65
-20
112
107
123
-74
-79
49
-75
-55
-47
-92
46
6
-70
95
74
127
-39
69
95
-29
-102
7
86
-74
16
-73
-84
-18
2
-34
12
-64
64
-21
-84
54
-14
109
16
13
-45
-93
-82
-90
-33
42
-41
44
58
-59
-10
-63
-22
-16
0
45
125
40
5
-29
-60
-12
11
39
20
-75
-12
-68
-57
87
-7
65
-29
-83
22
-89
-22
-14
54
55
64
37
102
44
69
18
53
-20
-7
-5
13
90
16
32
76
-59
70
-90
-16
41
50
-43
30
-32
44
87
-58
-63
-10
-93
-17
-49
-121
-52
-47
12
-3
11
37
-23
81
1
72
-13
-78
107
78
-30
-11
-17
33
109
85
-1
-38
32
7
82
-40
113
45
93
70
-12
-14
58
30
46
47
30
-26
-88
27
79
72
-16
-21
-75
33
-20
76
-58
-33
59
18
-62
-80
-17
67
-32
-65
-12
-52
35
-33
42
-51
-24
-80
-72
19
33
19
21
49
-36
60
-59
-92
11
-5
-28
-15
45
-31
-22
43
87
96
121
79
71
80
-56
38
-56
46
24
-87
31
8
62
-59
-72
-72
36
-79
-44
-12
76
78
-40
-64
-27
21
41
-27
22
62
-38
13
32
35
44
-17
13
-21
79
-78
54
43
-85
43
14
9
26
39
-54
-76
-59
-75
-19
-4
-89
-57
-42
60
40
25
-3
-26
54
-37
-67
37
-56
-63
45
-65
27
-116
-20
31
56
68
0
29
-64
-44
84
13
50
-70
-93
-15
-19
-77
-28
58
31
90
-8
52
-31
-76
72
21
-40
71
-60
93
52
4
-16
-16
-48
34
51
-11
17
36
-60
-66
-32
-41
27
42
74
33
-52
-4
57
4
-61
-74
-70
-77
-70
37
76
7
8
92
-74
-77
71
13
97
-33
-46
43
11
-79
31
-18
-19
-84
20
-40
42
-24
-70
30
-21
-45
65
44
18
-63
-4
73
-26
33
-29
-11
46
-3
-8
-95
-71
19
67
20
-89
-57
24
69
43
49
65
-30
26
-57
113
6
13
2
-84
32
29
6
-28
19
14
8
-36
-26
55
-76
-3
-56
99
72
25
39
50
-47
46
91
7
55
-55
83
91
25
-62
80
88
13
-36
-65
20
54
27
51
-3
-26
10
56
-79
42
-39
24
25
-86
-53
46
-49
31
45
20
83
-29
-9
100
-34
-74
-71
-90
48
-60
50
-16
37
54
-38
2
15
-78
10
-25
-59
-7
66
-70
67
-18
41
-27
43
31
-45
-75
2
-71
15
40
70
53
-40
-92
12
-34
-44
60
-89
-58
-44
8
73
-17
13
30
-71
-53
-73
17
43
20
36
19
17
-33
37
57
-27
30
70
-8
85
-47
65
-18
30
10
-20
-91
19
-99
31
-103
7
52
62
41
-71
66
-63
65
70
-60
32
89
-35
25
-42
33
13
-93
-21
67
4
45
51
127
61
-29
-69
-28
97
-35
54
36
83
-29
-37
42
-53
-5
102
-32
-34
55
6
56
-53
-41
-57
50
-52
-17
66
-30
-3
-82
59
-39
-37
-5
17
-46
31
4
34
6
-78
-1
-64
10
-32
-56
26
-85
37
-7
7
-67
-14
-97
-26
20
-12
72
27
3
-8
-75
-47
-29
-51
54
-25
-42
98
-55
47
23
-30
50
102
1
-38
-108
-75
-82
71
-28
51
42
-36
63
-61
24
8
-59
21
-3
-15
-90
66
69
89
66
0
-7
84
68
-53
81
-4
-95
55
-8
-33
-46
-94
-39
69
41
-21
-72
-53
7
29
-52
-20
-96
1
-53
52
-50
68
-54
44
41
28
11
-87
74
-54
6
-74
-54
-13
44
49
5
60
-41
35
23
46
74
94
-73
-72
23
21
18
11
-54
11
-13
70
-37
-41
38
-56
84
-6
-44
-92
-64
55
-63
-29
77
35
8
39
-29
-41
-46
32
-61
-15
-16
75
77
82
-64
-33
-78
-59
-18
-17
32
-26
-31
84
-45
-74
47
63
-65
31
-65
29
34
33
-40
-16
-25
47
81
17
70
27
66
-69
34
94
-58
86
58
49
-10
78
57
31
-35
37
32
68
-102
86
21
55
25
59
60
-79
26
59
-10
6
-15
-17
-32
-91
-45
69
88
5
90
-86
68
-68
-66
90
63
-39
30
56
41
-2
53
-6
80
-10
-29
39
60
82
-37
22
74
-46
-23
-13
6
-46
-87
-39
59
33
61
7
20
60
-18
3
59
16
78
90
77
78
41
55
85
68
-61
3
29
-90
30
5
-6
18
-96
36
-64
-4
-27
80
26
3
14
-9
29
-13
-32
-32
7
-40
-51
-96
-17
43
-58
87
-79
48
-61
34
94
-4
-64
16
-75
-9
22
14
3
56
87
-18
