-51
-47
66
-65
-29
-57
-70
7
-37
-64
-4
0
-22
42
-71
-107
-15
-85
-119
-86
13
50
-1
-32
-7
-73
13
-85
-21
-27
-27
26
61
52
1
68
48
-45
-26
-67
-79
30
-66
-72
54
-3
-33
38
-22
67
-70
-45
36
41
-1
33
-55
-3
-64
5
5
86
8
89
58
-7
-2
-36
-50
-25
-58
-26
-104
-51
-72
-90
-60
42
-78
-25
-18
96
48
35
84
52
-97
-24
-19
-10
-45
19
44
58
19
42
58
-46
-32
71
-55
67
-2
66
-17
33
-39
33
33
-25
48
-32
48
3
-77
26
15
-20
-57
-40
38
57
-41
61
-73
-48
-68
-38
8
84
-65
20
-27
40
17
-2
-15
72
-45
-35
40
54
-21
84
-2
-59
3
-45
17
-18
39
36
-14
-60
62
-36
78
-39
-17
-34
47
-34
30
-61
-61
54
65
82
-31
-103
-69
9
-128
37
-97
28
113
83
-24
-18
-2
3
45
-29
-61
32
-9
101
-32
73
-18
98
46
42
-30
4
-73
-69
-73
-64
-82
-9
-65
53
-71
-104
27
-111
-58
-56
-31
48
-19
39
-13
45
-20
-21
21
54
82
59
50
85
-34
58
11
-28
-27
42
-5
-46
-73
30
-29
-9
-7
-37
25
-18
50
-3
77
-4
-64
41
49
14
-60
51
-35
63
40
-19
-46
41
51
52
20
111
87
18
-62
60
72
-48
-32
-64
83
93
35
44
-6
-17
103
103
61
-36
15
74
-40
-12
0
-45
31
-5
-7
-10
-6
-71
-17
-92
-61
-3
-22
-40
49
61
-50
4
89
20
69
48
-53
-59
-10
-14
9
68
-9
-1
-36
-9
16
52
44
-40
1
40
22
47
115
3
34
-33
-26
119
-22
42
86
92
1
-70
29
79
3
-41
21
-41
101
1
-14
-70
-2
-4
-66
30
-34
-38
1
-27
-56
91
7
28
-14
61
73
-45
30
26
-58
37
-38
56
18
-46
39
21
-64
-33
-90
0
-73
22
-11
-73
-34
-3
73
-15
4
100
92
67
-36
-16
-68
38
-52
80
-57
-53
-59
-73
-20
59
-62
17
-73
20
-94
-19
54
-69
-1
-16
53
-9
-62
16
-29
-66
24
26
-48
-63
-25
127
37
-93
34
35
-19
37
73
41
-37
-43
12
78
-36
43
-46
37
-33
54
-41
30
-47
-70
87
77
16
65
16
16
4
-1
44
-3
-45
-79
34
41
19
19
58
-17
-15
-3
-19
78
-3
57
-31
18
21
31
1
-74
-48
-32
39
63
18
69
-19
44
-86
-39
-20
71
-82
76
47
30
-87
-11
-56
16
51
-53
-64
40
63
40
30
-9
74
26
4
-19
-39
-20
3
83
-22
24
-36
-11
-116
-92
-89
-66
-17
27
34
22
40
60
55
42
36
-26
43
-73
29
-22
4
4
64
-1
-22
-32
-11
72
43
-34
41
-19
-59
-94
36
-25
-83
9
-4
42
-48
72
88
-80
-16
68
-31
58
-46
92
-39
70
-66
50
44
-3
24
-68
78
30
-17
54
-3
45
73
-28
-52
-87
-73
-108
-105
4
-47
-41
-83
37
44
39
48
-55
1
-22
-127
-127
-115
-111
7
6
14
-36
37
-7
59
70
2
-42
21
24
70
-68
-14
-69
51
-7
64
21
-2
-27
-77
55
1
58
-69
45
-103
-22
-6
-43
-80
-60
58
-35
-44
65
-20
12
2
49
11
80
-64
66
-16
40
-22
-77
31
-6
57
21
-64
-12
-2
-42
67
-75
-43
39
-24
-39
-32
40
87
-41
37
-9
-39
12
-19
-4
54
87
24
39
66
102
-18
10
40
-4
-38
-95
56
27
60
-41
62
93
-20
13
-27
-60
43
-7
-65
-4
-19
-62
-23
7
-8
31
-61
57
-76
34
-16
-17
-71
28
-51
-24
42
49
-54
23
17
80
13
-21
-24
-29
71
40
-72
9
54
9
47
19
-66
-18
-14
-76
8
3
59
-65
-62
11
-10
-15
-58
69
58
27
-49
-14
-5
89
63
-58
-21
-56
-5
7
-87
-62
49
51
31
19
46
-58
26
11
-14
-16
67
-48
10
-14
90
-61
22
-81
-27
-18
52
-37
29
-36
0
-81
-11
16
112
-42
-5
52
-20
-65
-37
-10
93
22
25
40
-45
18
49
-65
-51
62
2
70
59
28
57
40
-79
79
47
62
35
18
12
69
11
-46
49
44
79
-11
44
-85
-32
2
1
52
-62
22
8
46
49
59
-45
27
-49
50
53
-68
57
-31
-60
-10
43
37
-54
-10
111
-27
87
-34
46
-37
36
11
-60
-11
-33
-74
-55
12
22
-21
-13
67
43
69
-82
-46
5
58
7
48
-66
26
-63
30
26
68
57
-51
83
3
23
-10
-56
-24
8
-56
66
22
-68
24
29
29
33
-76
42
-82
-5
49
-5
8
-11
78
60
68
27
-81
32
-14
20
-72
12
45
-40
4
-70
17
56
-67
-63
18
33
56
37
26
38
-74
-25
31
-67
-11
-56
-14
1
51
-55
-49
105
-30
40
-77
27
6
-33
78
12
20
37
122
111
127
31
71
110
7
33
18
72
50
-87
-18
-34
39
-23
-71
-31
-38
-82
-69
-95
26
65
-3
-60
21
28
82
-8
26
-39
-75
-2
14
22
28
13
51
-68
-52
-28
38
-59
-50
-56
-40
21
-63
-89
7
50
5
-57
18
5
-43
-27
49
67
-9
65
-23
25
-8
-46
-58
62
45
-4
68
59
-69
69
-89
-7
-120
-66
-74
21
66
83
27
21
-11
30
-43
50
-71
127
54
-35
26
49
12
-62
41
50
31
30
86
-34
-22
-4
4
41
-26
-22
6
68
38
-16
9
23
4
62
8
87
-21
-60
-112
84
-46
-49
12
-26
-41
-22
-35
70
-49
4
48
23
47
-22
47
107
8
59
-99
-93
-33
-61
-16
36
24
-32
-40
89
43
-12
-47
-97
-43
26
-55
-105
-25
-99
-7
78
85
47
86
74
49
-87
-53
-100
-14
41
66
-36
-54
66
13
65
-83
48
85
-34
90
-47
41
-116
-28
-8
28
88
38
43
71
-3
40
3
-11
-82
-20
-1
-26
86
-93
-75
-76
-63
-70
6
83
6
57
-5
99
-46
16
-20
-87
-111
91
96
52
10
-61
5
-19
-46
55
-38
4
-5
26
21
-11
29
-120
-127
-82
56
22
64
24
-23
-101
33
92
101
27
18
-22
-28
57
-119
-30
69
-15
-33
-44
86
88
-46
22
-47
30
54
6
-39
-12
-89
73
36
-14
104
2
-16
121
20
-37
98
-15
41
16
-92
103
71
45
41
-19
1
-8
-4
59
-55
-35
68
-37
3
-43
34
-21
37
-58
69
-44
52
-1
-51
-37
79
29
55
18
-33
-60
-17
-16
48
90
-34
-95
-29
-46
-6
-95
23
-67
-29
59
70
23
-104
15
-25
-68
18
-78
-52
-32
-80
48
3
35
0
-61
78
25
-41
83
-26
-7
-35
61
-70
-49
-95
-84
-64
-113
6
-84
-60
38
10
-71
23
38
-43
-20
55
-4
47
-46
65
-6
-73
-52
-63
57
-4
40
-44
-56
61
-48
63
-56
77
7
-70
66
-20
-57
-10
-74
-86
-15
51
-20
-82
42
17
7
44
-19
-5
50
-57
28
106
1
-63
-24
114
-54
4
-21
-26
-61
-28
-87
-24
41
35
53
-4
-69
28
-9
45
66
43
12
-32
58
-71
42
5
-8
28
66
86
59
20
-41
-8
-42
-45
-86
65
38
-78
-51
68
-42
61
41
56
-16
-23
30
16
-6
12
81
-53
83
-56
-53
-45
-19
45
42
28
-72
-20
58
-97
-56
-60
60
-77
57
30
29
5
55
27
-73
-89
13
34
-35
-36
-22
4
-2
-45
-11
17
22
-61
55
-33
-5
-39
43
-8
7
39
73
-75
58
30
-59
5
41
-128
-12
60
3
91
-57
73
22
43
-48
-17
16
-71
-61
2
46
-3
-85
-32
7
40
-73
-3
-66
-74
78
9
10
-63
-25
12
59
49
69
-2
-53
-23
-68
69
26
51
62
26
-3
28
16
23
45
66
60
24
36
-22
-31
-91
30
-35
-18
-26
-38
56
-8
-70
-78
73
105
42
-6
-59
27
16
-20
-60
-72
44
85
31
-49
-47
-19
13
61
-30
57
-60
-80
0
-10
-49
-124
-7
-80
51
89
34
34
5
60
40
104
-8
41
83
-49
45
14
63
-41
40
45
31
27
48
-58
-77
60
1
-2
-49
45
12
15
47
-67
-73
35
-68
-14
37
-52
-74
-49
-63
-19
-94
52
-127
-64
14
-89
-74
13
-77
-69
-43
-26
19
0
-48
-72
-34
32
-16
11
-59
-5
-82
-5
-40
-47
-71
-1
16
-38
9
8
68
5
68
9
-67
43
66
51
-19
39
-20
24
38
1
2
65
-67
3
33
-62
27
8
3
-96
67
-37
-69
-6
-61
-72
42
54
53
-9
2
-37
-8
77
15
-2
73
17
76
-8
-13
57
11
-23
12
51
-91
-4
65
26
-73
-14
57
-15
42
-82
-74
9
62
68
27
47
-34
16
75
-34
-76
76
-48
-19
44
60
-5
-56
-18
-70
-96
-98
-46
-15
-92
32
5
-79
-74
-23
-53
-56
-80
-106
-43
-73
37
-37
19
-42
18
-56
81
-38
58
24
-58
-74
44
6
25
-66
-67
-27
-69
40
9
-60
32
56
42
29
13
2
21
-4
-38
80
77
1
-15
66
-35
-29
32
-54
-26
39
-81
-19
51
70
-23
77
-49
-80
-13
38
-81
-72
-37
8
33
-38
-43
-5
-30
72
107
43
97
28
-110
-24
-76
58
-17
-50
-94
72
31
-78
-9
-23
69
3
123
31
23
87
34
-10
64
-66
-79
-22
39
-103
-99
-113
12
-87
69
-68
-70
-72
-65
-8
1
-63
-105
-96
-8
23
-30
-67
-23
-35
-5
-51
-3
-4
78
-61
66
-29
-35
79
-40
62
1
-15
-7
116
109
45
-15
-38
-18
43
-5
48
10
-35
-71
-65
57
44
2
7
-64
90
-23
23
89
84
-33
11
2
-79
16
-15
-29
-89
-51
-79
91
1
-14
-72
-17
6
33
32
-41
-12
91
-45
31
-52
-77
39
1
53
-5
-100
-84
-19
-32
-5
-90
-14
-25
-66
90
103
-52
86
61
-65
-17
-42
59
-73
91
9
-39
75
66
-19
-19
3
91
-8
101
-9
-80
-58
-70
33
-34
59
-13
-50
102
98
87
13
-18
62
73
87
-22
-8
92
55
-52
-29
56
50
109
-43
82
-66
13
-31
15
-11
63
127
24
-102
-23
-31
51
36
-52
-96
5
27
102
10
108
48
-72
-51
19
2
-108
-104
-11
45
26
52
-4
-90
-26
-47
-69
-72
-92
-43
-10
-40
17
78
-14
7
24
84
77
-29
66
97
69
-7
71
82
96
58
-11
78
-16
-52
7
-76
87
-67
73
1
-30
-100
-75
77
54
-43
-77
91
101
60
-64
-62
77
-5
54
-128
-2
-75
-48
114
-22
-126
-13
6
5
40
20
-63
32
0
14
12
-11
-36
-20
47
-16
-14
5
-68
-14
-75
36
-29
59
-3
6
22
46
-100
28
94
-82
-32
66
-23
68
-36
-42
95
40
-56
47
1
-83
-20
79
-23
-29
-78
32
71
6
66
-55
-32
-49
-50
-38
96
28
74
-46
-19
36
-100
27
-79
27
-73
37
40
17
-103
45
-14
49
-74
-1
-59
36
45
-45
50
23
-37
53
-22
-77
15
109
-15
-57
73
48
36
80
44
60
37
-53
-20
-44
-90
50
-29
26
-59
-24
21
-14
-14
-81
62
70
54
-38
60
-11
-17
23
-36
43
-68
14
-62
-68
27
74
-26
56
-3
41
18
-50
-2
47
-72
-21
-63
15
-19
59
-82
-78
46
-37
-26
-8
-63
63
91
36
45
32
-17
-70
56
30
73
22
-3
-55
14
-21
26
-56
53
-54
-18
43
68
-11
86
19
64
29
120
-68
-74
-40
-71
-80
62
120
3
87
-16
-17
-85
-27
-3
55
14
-52
-30
97
45
-30
-21
60
23
-16
-54
-10
-27
111
71
-69
24
19
-22
-5
-89
18
81
68
-8
-61
-96
48
-64
56
56
14
29
7
3
-79
57
-40
-26
48
-38
32
-30
-13
-20
-48
-51
52
-115
12
103
53
-49
-27
-32
22
-110
53
-32
-86
-113
27
-17
-103
17
73
-53
104
-17
66
-56
32
-81
108
51
-84
14
75
69
6
86
-42
-47
21
-21
28
34
97
117
-25
27
37
-26
41
61
-87
-25
57
-59
36
45
-69
-82
-7
50
-72
-47
-40
19
-83
34
-59
4
-10
35
91
-47
9
-34
73
67
7
-54
-110
56
-16
-14
56
26
44
-6
80
78
48
17
48
11
9
0
-42
5
-13
-21
-71
35
3
-36
44
-47
18
-1
-49
78
-75
20
-38
53
-29
63
-49
68
63
-36
11
100
23
77
-56
-52
14
-68
1
-55
-36
-25
-33
-11
22
-66
-19
-62
13
70
-1
-64
-83
-71
41
-2
19
35
-51
-5
28
55
14
-18
63
50
-74
-4
30
67
75
109
18
-54
-24
11
24
-65
-92
45
-59
-40
-9
-84
82
72
81
-2
-13
39
110
-13
-56
63
-49
-56
-96
19
-5
-72
63
-14
27
23
63
-31
22
-35
-6
79
65
-25
13
53
49
-128
-88
31
-63
1
-24
-46
-42
-7
42
-45
35
51
52
60
-38
-12
11
76
-61
58
-5
12
-47
79
58
83
-10
-51
27
-34
-58
95
48
68
61
-52
-47
-70
-69
-59
-34
6
-17
-36
-64
34
77
-40
-27
-15
17
40
75
6
-8
25
64
93
8
-11
64
-30
20
-21
1
71
-9
-48
-30
-14
-36
34
61
30
-11
-26
-31
-55
27
-10
46
15
10
65
-76
-78
81
42
115
61
8
25
77
94
2
-48
15
-36
44
71
-10
25
57
-60
78
-19
-46
-39
-6
-45
-8
-48
9
23
-38
-24
34
3
16
44
55
-33
69
53
46
37
2
-31
-59
1
-12
53
-24
-28
34
-74
-21
-25
41
75
-44
-35
-32
-18
-70
18
49
53
-40
-23
66
26
68
18
41
0
-33
-20
-64
-30
-77
32
-11
-19
73
-38
-31
39
-46
-82
-4
-21
-89
-81
-36
37
-36
58
-33
18
-31
72
13
-48
19
-62
-66
-63
56
-8
68
35
50
-4
-18
50
52
-28
-50
24
50
75
-25
-21
-51
-48
52
-8
1
-78
-68
-22
-47
60
-48
86
-56
30
-79
7
-24
-69
-74
-78
0
-41
-77
-11
-8
24
15
-89
44
-96
30
-85
62
-7
-75
41
65
-21
-23
62
-128
-75
-36
-37
-18
-26
59
-15
64
-19
-16
30
-5
32
-81
35
40
69
-52
-8
38
20
80
10
68
81
-7
25
25
37
-86
-18
18
42
-54
63
-21
-5
-66
-56
-52
-24
60
-72
-64
-34
93
1
62
41
50
72
39
8
-57
87
-83
-1
-92
74
-91
34
39
-3
-26
-73
40
20
-75
-3
-13
45
32
27
72
48
75
26
65
103
12
-29
68
-10
-33
-1
-17
-8
4
-92
17
87
-34
6
45
-24
32
1
46
4
-33
29
-50
105
23
-35
3
112
37
-82
65
85
-23
58
-1
30
-68
85
65
-47
-5
-45
-31
-57
-34
49
37
-68
-74
90
46
-14
-34
24
31
88
41
49
63
32
-21
9
-8
10
67
48
-64
-101
79
25
47
41
57
-43
35
31
99
-45
-95
-76
9
-3
-73
-65
35
-75
80
-103
-15
-82
21
-88
64
-50
51
25
-52
-50
8
-33
-64
-31
-73
11
-25
-76
-19
-29
-10
-30
78
-50
-55
-74
-48
71
54
42
-81
55
0
-93
28
34
10
-12
19
27
-19
18
24
56
27
6
82
-29
-47
91
75
52
-76
45
-86
67
-66
4
-97
40
51
-42
-57
60
55
24
-30
-29
29
-27
-79
71
21
-49
66
90
-20
31
52
5
43
72
-30
98
61
39
15
-4
-36
8
-54
16
-47
3
41
104
4
-57
-35
-1
73
-46
4
127
86
79
-21
53
-64
-58
68
-27
-28
-8
-95
10
87
-57
-64
-33
-68
-16
-71
9
-64
-25
13
21
80
-18
-83
-97
-61
-65
-65
73
75
50
-76
-69
34
-57
-63
82
20
-25
-5
-52
78
91
-10
-68
60
-68
-1
-44
42
-107
2
-73
8
55
36
-85
7
107
-49
-9
72
-39
-25
11
-92
63
-31
-27
18
-100
52
-74
-16
-5
0
19
6
-7
-54
-31
-19
-29
-28
-4
106
-2
-55
75
-2
58
-7
-19
23
6
-59
-62
22
21
84
-26
-37
-77
-44
-50
20
-36
57
41
22
-43
12
31
76
55
-13
53
-36
34
24
-45
121
-55
-4
127
29
54
-47
89
-20
76
-64
-57
80
126
53
32
88
-31
-30
-14
52
35
-66
-95
97
-83
-9
43
114
-51
-10
12
-52
93
-18
46
-38
-34
-40
-63
-77
51
-74
81
-69
2
-62
73
-19
92
-31
33
-20
13
16
61
-4
26
-90
6
-16
-87
-32
73
-90
38
-62
66
-71
-37
-45
33
-26
8
5
93
42
-48
3
68
44
-62
-41
85
17
45
-38
-51
21
-50
-20
36
-49
27
-113
-50
-60
-45
-30
69
48
-11
-67
21
98
-49
-58
75
52
13
34
-47
49
34
87
-12
-100
79
-74
-12
44
-55
43
10
-68
-42
20
-16
4
56
-40
-45
-70
1
45
71
-30
1
-66
48
-92
29
-45
47
-73
34
70
26
-67
12
-41
-50
-24
-15
5
49
-16
-35
19
-7
22
-32
31
40
70
-1
-63
-58
1
69
36
50
-88
-84
-82
-16
43
29
15
-28
74
-31
86
34
-48
47
28
82
27
-54
78
65
7
-63
-9
-19
56
-69
-46
16
39
-120
19
-21
-67
35
30
3
-65
39
-35
-23
-36
14
80
-29
-3
-49
-48
73
92
105
-66
4
46
37
-54
-34
4
-108
30
-84
-16
16
53
-45
25
-19
-54
-52
-51
-87
-59
-7
42
-74
45
-71
13
71
9
-69
-21
-48
52
-37
73
46
35
40
-24
-19
31
81
-9
-26
-40
14
86
-11
79
14
-101
66
-30
64
14
-61
67
-3
-89
-7
-67
-62
-19
-23
-56
46
-6
-57
44
-34
25
67
20
11
17
-6
14
41
44
-29
88
-22
-34
16
-5
73
-16
87
57
1
29
37
-51
-4
-66
-13
79
-40
75
-78
21
-8
-51
-63
-11
36
-52
49
63
17
58
8
58
34
36
-18
-3
-63
-6
-22
40
-5
-27
19
-29
13
57
-34
-14
-16
84
66
-39
-89
-4
-38
-125
19
-32
-112
-104
-127
-67
22
-78
-88
2
-59
57
3
-48
-98
75
-20
9
46
33
5
-49
-58
-51
4
2
67
-52
-13
84
13
-54
-44
-10
65
-10
-30
96
94
56
-31
-4
61
-29
15
-46
11
17
87
6
78
-35
58
-65
33
70
-61
-51
-60
-13
-61
-78
-45
-41
34
-51
-3
75
-5
-76
47
67
21
-27
-56
41
4
51
62
5
71
-16
68
19
-65
-65
2
-2
9
71
-30
75
75
60
4
3
-59
3
24
-69
-67
-4
47
56
63
-41
9
14
32
-49
38
-31
43
127
-28
48
32
-58
18
80
-28
51
-59
52
-15
-26
-14
69
83
5
-23
45
46
89
22
30
52
-50
34
3
-12
44
4
-13
7
53
-71
-60
-7
-63
0
-20
37
-8
-2
49
49
56
34
-17
42
29
-9
59
2
72
40
13
47
-9
7
10
-56
-35
-43
-53
-55
-77
5
66
67
7
70
13
73
29
6
-37
-26
-55
-9
-82
82
47
18
39
73
-79
85
39
-21
-39
-6
23
15
77
72
-56
36
23
-21
-9
14
10
37
-68
29
45
12
-28
33
9
-30
-79
-47
20
-57
-32
28
63
-59
-13
68
-74
-83
21
81
42
16
40
32
65
55
41
11
12
-72
-22
7
-2
-8
-7
-50
33
55
-24
9
15
-42
42
-40
66
72
-59
73
6
98
27
-82
-48
3
51
-30
63
38
-37
-69
-90
-42
47
-12
-56
5
-40
51
-51
-64
-47
-18
-12
1
4
-6
58
94
20
88
-5
32
56
34
-7
77
40
56
24
66
65
-25
-18
-45
4
-95
-59
-95
6
-4
-62
-71
-97
-9
-33
40
-59
-14
-6
-23
77
27
2
52
-38
56
-17
82
31
8
-54
-40
6
-90
-9
-37
-11
36
72
55
-11
-84
85
-49
75
32
-91
37
31
57
-44
-38
-15
22
-107
-119
-56
-78
-14
-4
63
-36
-33
2
-85
5
-96
-99
-85
72
19
-67
14
30
-66
57
14
49
-36
-69
-31
-83
-51
-8
-47
-109
101
66
16
31
50
53
9
-87
51
66
-18
63
80
-29
-44
-85
-98
52
-106
-16
-49
52
-20
18
-68
55
36
-88
-71
19
-46
3
-101
45
-64
-88
79
59
80
12
-47
-57
78
74
-127
-1
-46
-21
66
48
36
50
-29
-81
9
13
-4
6
103
-6
96
109
72
-42
-114
-8
-4
-50
44
22
60
20
-19
-50
-38
79
-58
75
9
-61
13
-46
33
-23
-25
-56
-81
-15
64
-73
-37
-56
80
87
75
44
-58
17
-7
-94
-29
5
-38
-68
-109
-6
39
-96
-49
5
-30
-90
-16
-50
-97
-90
-104
14
25
19
18
-55
65
67
-5
-113
-97
43
-61
48
71
-77
-41
38
-17
76
-11
-21
90
77
117
66
-7
40
-75
-6
-74
-77
-91
-41
3
9
103
-11
-51
91
-15
66
1
-60
38
89
-52
-47
53
-29
0
87
91
-51
32
85
-8
90
-78
-13
94
-102
28
5
80
-35
-62
102
-93
-101
3
-39
33
3
80
110
-88
58
80
-50
51
-31
-79
8
-110
-41
-14
-64
14
-24
40
54
57
3
13
3
-46
79
-23
-34
41
-24
-51
80
-27
-17
20
40
64
51
64
-80
-62
-50
35
63
-50
20
-73
7
83
89
-52
26
53
-39
-22
80
-25
-21
-6
-38
58
-58
-67
-60
3
4
-47
53
-8
45
48
-4
66
46
55
18
-44
-16
28
63
-49
24
5
-56
-36
-36
-61
-63
6
-63
65
23
-38
9
-46
31
57
9
59
-40
-68
23
-4
46
5
63
-26
-7
18
-84
-54
-65
-128
-33
6
-35
70
21
-45
-47
66
39
14
-65
-26
48
-42
-20
45
63
-22
27
-18
-20
101
59
15
-1
-5
-7
-19
27
22
25
21
-9
19
46
-55
41
0
2
-28
-8
-67
-51
-48
-11
-29
58
-14
30
51
58
45
-28
81
62
-74
-2
-25
-27
-13
-1
-32
-67
-50
-9
26
29
-21
20
24
16
1
70
-25
22
31
73
26
72
-9
-18
-76
-29
-74
55
23
52
91
12
27
88
56
12
-41
29
21
32
65
-19
44
0
-16
21
19
32
30
-30
32
-58
-30
16
14
-71
20
41
-74
-47
41
-19
-10
-18
60
-18
13
-22
-59
-48
-43
-1
26
-41
-4
62
-22
-35
72
-1
-38
24
-18
-21
49
61
-52
-26
32
-1
-72
15
42
31
-40
-41
22
89
-53
-54
-51
53
-42
-63
51
-75
45
64
52
-24
6
71
-37
-6
-21
64
-37
67
-75
-23
-12
39
-78
12
-17
-106
60
-10
-41
19
43
7
49
-48
40
-26
10
59
64
42
-35
72
-7
-54
60
47
61
12
10
-54
19
-45
37
33
14
-55
-27
43
70
19
-42
5
18
-5
-35
-23
-37
37
21
55
6
-36
-14
-37
-47
-50
-75
11
-24
35
1
-4
-83
-48
44
-6
1
33
65
-18
41
-1
84
-5
-36
47
23
50
-72
-32
-12
26
32
4
-47
-31
9
-42
-57
-8
12
56
-46
-9
29
-5
40
-3
-54
-41
-38
18
-50
48
-48
-42
-61
12
-33
16
-89
19
-60
-71
49
43
15
-64
35
69
-26
66
-43
69
-60
-59
61
15
-63
-59
43
21
-19
-6
-34
11
42
-22
21
21
13
1
55
12
-12
-34
28
41
37
-77
-28
-1
31
45
-9
-20
66
20
39
2
38
24
70
-14
-30
1
-3
127
27
102
-7
23
53
-31
-10
-32
51
72
7
-35
-41
-7
62
44
23
-55
45
27
40
-56
-68
-46
-80
58
75
75
55
-47
47
-3
65
2
64
-70
32
-4
63
-43
-22
30
16
34
-18
47
-21
14
-24
37
-35
-72
-36
57
-71
-29
16
99
35
-43
-45
53
8
2
67
-43
-45
47
-32
49
-69
-4
86
50
-3
-84
60
70
-83
-53
8
-79
-35
-37
83
64
-31
-23
-11
-1
27
59
100
-26
-38
70
-2
78
-36
43
1
94
-19
-69
37
-73
-24
37
29
33
-47
7
21
-45
16
27
68
22
-44
-38
50
94
46
4
-15
5
39
-47
64
29
53
77
-53
75
-24
34
23
60
-44
-16
10
-7
-6
83
77
5
77
42
106
-18
-11
15
10
110
-38
-27
-90
56
61
-66
-16
-44
-21
-40
33
78
8
9
94
-37
-27
62
62
36
-41
-12
76
-41
26
-23
58
-11
-66
-20
-79
61
-24
-86
-69
-27
-27
-43
76
-24
50
1
-15
81
-31
-8
-51
80
-81
-31
35
-28
-36
44
70
20
42
-7
-58
-52
-83
-70
-53
-63
-37
-78
60
2
31
-30
37
-15
127
-43
93
116
109
34
1
106
-16
85
11
89
15
-7
43
19
53
21
-31
-50
8
-43
55
-6
-42
-66
66
-90
-30
-40
-36
-58
-51
21
-82
-31
-22
38
-45
44
15
-52
-43
-71
60
-65
-26
26
-70
19
-13
-1
-71
97
37
72
-12
30
-41
-67
-82
75
5
-46
25
-23
-42
50
67
11
0
-5
-45
14
-17
-2
-28
60
-13
88
89
-41
-44
90
-49
68
23
-18
-75
-90
56
32
86
77
79
32
-13
11
-67
93
-85
-59
56
-23
11
-58
35
61
33
-34
0
-48
-37
-27
-39
-59
56
37
58
56
28
-38
-41
26
15
21
22
40
46
-105
-37
6
64
-35
-6
-25
13
31
-63
17
66
-84
5
33
52
-15
8
-35
16
70
31
55
4
-49
-4
-5
35
2
9
39
61
-48
67
-16
21
21
59
37
-12
68
-17
66
77
83
-6
10
95
68
-21
14
75
16
2
5
5
48
-46
-47
-5
-4
71
101
14
11
-34
107
35
1
-37
-27
-93
-7
-40
-59
-46
36
20
27
-39
-61
-8
-70
-88
-67
-84
40
-17
3
45
-79
-9
-34
29
26
26
87
19
-54
-61
24
-49
73
-4
-64
71
1
55
-66
-69
63
-20
-78
-48
6
60
-74
34
73
12
-47
-56
7
-49
78
-68
-29
42
71
76
-45
-31
40
10
-20
-42
41
34
-12
-59
41
-89
-62
2
-66
-28
-17
8
65
12
-18
127
59
-2
21
-7
-56
-73
72
9
32
-20
-63
21
-25
-48
-4
-20
-25
-56
19
-61
-8
58
-38
-82
-3
59
-5
-53
-37
-26
-75
44
25
-9
-5
76
75
-70
-33
40
-70
34
60
22
-3
-40
80
-15
74
9
-29
15
-37
18
82
-12
-60
-8
-55
-47
-63
55
75
20
0
3
55
55
65
59
65
21
56
54
-41
-19
77
-11
86
-82
-31
50
-56
-68
0
41
-80
-34
-41
38
24
56
11
77
-39
-52
69
82
-89
35
93
-15
41
50
-65
-9
54
-67
0
-2
-21
40
12
0
31
-10
54
21
-54
4
33
20
2
46
63
39
-24
-5
2
-29
30
8
13
44
21
-46
-54
54
-77
33
-29
58
30
56
-44
24
-98
69
-61
-72
-92
-4
25
36
17
-26
89
23
-41
33
20
-2
-16
-74
72
-45
31
20
83
73
75
38
7
31
-34
-40
-40
33
-34
46
7
-52
28
24
17
-36
-34
-7
11
31
-37
-6
61
-68
-56
-65
-12
-27
33
-56
20
-7
-9
70
10
63
50
-76
21
-70
38
-4
81
5
-16
31
31
-70
-28
-30
-58
43
-60
60
61
-64
71
-20
3
12
-24
-66
-44
-41
-50
47
-48
-11
-25
-45
-47
-73
60
-35
15
21
90
43
-73
-23
5
-76
-43
-48
31
-1
68
18
33
45
33
79
28
-37
44
-68
65
-19
9
-3
-36
-48
-3
-60
-75
72
-29
77
40
93
51
-46
19
-49
57
-53
-62
9
49
-56
54
-32
-15
-41
-21
-29
7
22
-54
-29
57
-61
29
86
83
70
-62
27
-7
45
-22
41
-20
-1
70
-66
8
43
-4
60
41
-20
-97
17
38
-25
-27
-79
57
10
33
-128
-81
-4
-21
65
45
96
34
65
-62
-66
10
-20
-80
69
-63
-12
-55
-34
-20
-27
88
6
-67
-14
37
-39
-52
103
-44
1
-17
107
-26
95
-6
127
104
38
12
12
-8
-74
-57
11
7
85
-59
-32
-32
92
-68
91
50
-77
-21
-70
-34
82
-73
15
26
-30
18
-71
-80
-87
36
55
28
-82
-55
13
45
63
57
49
80
40
28
-10
-10
-15
31
-81
-7
107
55
60
7
-17
0
46
-41
-7
49
-77
1
1
9
-31
-59
18
-65
35
58
80
-36
3
9
0
-47
49
60
58
-40
48
49
0
18
-71
-50
42
-72
29
-80
40
0
95
-65
19
58
-13
83
70
61
-78
0
-50
-19
59
35
74
49
79
-40
45
7
-92
-41
80
59
-39
41
-99
27
-25
-56
72
-2
-22
4
11
-60
67
38
-38
-111
41
1
-16
-3
-64
90
-26
43
87
-11
-41
-45
0
51
124
122
-29
29
59
65
49
-25
63
13
-64
27
-22
51
-43
44
55
35
-9
9
-14
1
-73
-37
-27
76
-37
38
74
-79
-6
16
-7
-65
-72
-29
-19
-51
-24
-89
-105
1
-85
44
-19
-79
-53
-3
86
-42
-79
33
-3
25
10
-67
68
49
-34
-28
28
57
-102
63
94
50
-40
82
16
-51
-63
-83
90
10
76
15
-59
-68
44
-44
33
67
-38
9
-52
69
3
-10
28
24
-54
-47
83
5
86
71
27
-22
-10
49
0
55
-47
55
-16
27
-30
91
5
42
-49
9
-16
3
-8
73
57
-8
0
49
89
36
68
-15
30
69
-55
-64
35
-45
21
59
-13
3
34
3
61
-87
23
5
-5
-51
-26
-10
-55
5
-47
17
-82
-45
-49
-22
95
-2
74
15
-51
80
24
11
-83
-27
-85
-108
-7
-56
-1
-24
13
79
42
12
-20
-22
54
29
-26
-49
-4
-43
57
-60
-31
65
37
-79
-85
-41
24
21
27
30
-23
-31
51
-40
-14
43
36
95
67
32
-28
86
-28
23
69
-3
9
31
-59
-40
35
65
-35
33
7
44
-74
55
-91
-46
25
21
18
-53
31
-27
80
53
28
55
67
-25
45
-23
-36
-47
43
61
-23
-24
55
-83
40
-25
58
85
59
-36
111
12
38
54
-76
-46
-60
28
-99
-128
-64
-88
45
-60
-54
-71
-81
44
41
-89
0
-31
-55
-27
59
55
-48
66
18
79
8
30
40
11
-49
-70
22
61
-22
-59
-25
-14
13
-2
-23
8
-17
-62
42
-72
-30
-38
-46
-78
-36
8
2
-47
-76
78
-9
78
85
31
3
36
-43
55
78
-30
0
36
26
-45
-17
2
-3
-36
-25
-38
-43
-41
35
-35
-32
41
-58
105
-59
16
98
23
-54
67
-40
81
28
-8
20
-86
-13
-58
-9
-34
34
-13
-50
-25
-46
74
38
-2
71
-70
32
2
-23
47
-39
-24
52
14
44
-98
24
84
43
-76
-67
-22
-15
-97
43
-60
74
0
63
31
17
14
58
-80
-105
50
-47
-109
-49
21
51
-44
-71
39
-23
-54
-52
-48
51
83
113
-5
12
38
19
41
127
-28
42
23
67
5
-93
-9
-16
-36
-90
-21
72
-128
96
-34
73
-87
-11
12
73
7
51
24
30
-56
82
-43
70
20
46
40
45
-10
1
46
40
-53
-23
-47
3
28
-4
9
-40
3
-52
17
63
-3
-40
-23
-64
-102
21
72
-69
-22
33
-30
61
28
91
-11
-41
106
116
3
94
118
-65
93
28
34
-76
-93
19
-82
-42
-88
59
-92
-21
87
-86
48
58
14
-12
28
-32
80
2
53
40
-86
84
-32
-82
-40
-85
3
15
79
-20
80
17
56
-3
11
53
-16
49
-10
-20
100
7
23
-17
54
33
100
-17
27
54
98
-8
-7
-14
-4
79
18
20
-1
-22
-12
-91
-80
38
-80
26
-99
-102
38
-11
29
-25
103
-2
24
57
-23
50
10
16
58
-46
-32
19
114
-63
47
29
45
94
32
-62
-83
-7
65
-77
36
23
58
-42
-68
39
12
-97
4
-85
103
53
-11
55
12
82
58
-26
-74
9
81
-57
-36
17
30
-95
-10
-41
-83
33
1
-53
-72
41
-60
-51
-12
23
7
-3
-17
-74
-20
47
86
-53
25
6
2
13
-56
-27
-58
-15
-65
26
59
91
11
-26
-6
66
31
34
-22
-60
78
78
54
-47
-77
-78
-74
64
-49
79
60
12
63
79
59
10
-42
53
12
-4
-25
-67
74
-64
1
-22
76
47
0
32
-30
0
24
-27
-34
16
-2
-34
-49
-73
-73
-27
-31
33
-30
-81
22
-88
8
-6
-14
-60
-12
-25
92
7
7
19
-56
-39
93
-22
-127
-34
63
69
-97
-53
73
12
-17
-70
-66
60
16
41
-98
36
6
30
-26
34
-72
54
57
2
-65
104
-65
-71
20
93
24
-44
-75
69
1
60
43
37
5
60
31
-9
-25
23
-71
84
5
19
14
-60
-49
-10
43
95
-21
-71
15
14
-82
33
35
-12
-53
-50
89
96
19
109
106
-54
33
70
76
24
28
-71
8
-6
8
5
-50
20
51
84
92
77
11
64
-71
-18
0
-80
71
81
-86
-80
94
43
-91
-44
-46
10
-50
-91
-55
62
-13
-39
-54
51
22
60
-19
50
-40
-43
89
-44
-47
-109
-94
7
-3
-72
36
96
1
-54
-70
-112
73
-18
87
-8
59
-55
108
74
49
-80
-33
-119
51
-32
19
-47
16
-29
24
65
19
48
-10
100
-35
-74
54
40
19
6
114
103
59
-32
28
-44
24
-32
49
-9
-83
27
-47
56
-98
-52
13
92
74
-76
72
-17
66
68
-21
-91
-53
69
-3
-95
-9
20
10
58
7
49
-30
21
100
56
-61
-32
93
36
-24
127
1
68
37
7
51
59
72
52
28
25
63
-37
35
50
91
-29
-13
2
-42
13
1
-61
-3
-63
32
93
32
-48
5
10
68
-4
8
-41
-49
71
-45
47
2
34
-27
43
62
27
116
-66
63
-38
37
-15
-8
-95
-46
-61
58
44
17
20
55
-63
67
-84
-33
76
-25
-46
-68
67
-6
56
59
-64
-1
-64
5
12
79
49
-7
50
57
43
11
18
43
-5
-38
46
-38
77
-82
-88
-35
-86
-52
-8
48
-40
62
39
-108
-68
-18
98
14
-18
-40
9
-30
35
-119
-63
46
-37
92
19
-26
28
-79
-50
-20
-101
-60
-55
-38
-51
79
-21
-4
33
-8
-47
40
-73
91
66
-30
-42
103
-60
81
34
1
-11
23
-5
-43
93
33
-74
117
94
82
-14
-69
3
94
-63
78
66
-2
-81
-31
-35
-35
92
-38
79
51
8
-19
-68
-68
-53
70
-36
-85
3
32
-75
-2
53
2
-68
-37
-52
-64
-61
61
-75
-62
30
-34
42
-20
-60
27
-71
-90
-47
-36
-13
-21
-18
2
15
40
9
54
99
-5
72
80
72
34
-56
62
-26
83
75
81
5
47
46
-49
31
-71
8
-2
35
-13
57
-44
-22
-63
58
48
35
-20
-82
38
-75
-80
-6
94
39
4
-59
-8
-21
71
45
-9
78
-11
15
-47
58
53
-60
47
39
74
-18
2
1
27
18
17
86
57
97
-33
-22
38
72
-48
51
-62
-36
77
-23
-73
77
26
84
-70
-86
20
50
17
-7
-23
30
71
-12
-56
-52
-13
7
-2
-19
105
-6
65
18
39
37
-54
-7
-59
-83
-68
-19
-65
38
35
50
-58
70
45
57
93
-93
-80
-62
27
-13
-38
-51
72
-96
-91
-50
-18
-68
9
-1
-67
26
-73
-51
-6
-45
21
62
65
10
-51
-76
73
-19
-22
41
19
0
87
-14
-8
-13
-40
23
21
8
-68
10
-123
29
21
96
-118
4
-12
-54
75
35
49
16
-37
-25
19
-2
-65
82
21
-36
-66
29
-26
24
-51
-36
76
56
45
57
33
80
59
-89
-8
79
72
-46
42
-29
13
-9
78
-10
29
18
-63
-51
4
68
-23
-79
-77
-70
58
16
-128
-28
46
9
-4
-64
-53
41
35
-47
32
-60
19
57
-40
92
-85
-12
41
-73
-9
32
-73
-7
28
-33
41
46
99
83
78
-6
-10
-81
-15
27
-53
31
-47
9
-34
-90
-41
81
87
64
18
59
42
-87
-41
48
-97
-22
-36
-4
-71
-19
-17
33
-86
3
-64
38
-91
69
24
1
65
-62
-71
92
55
-64
-16
9
-3
-34
-23
18
-56
-82
42
-92
92
-27
9
90
29
16
-69
-23
-37
-97
-61
17
-69
71
58
-1
-50
58
31
-81
21
59
6
86
-2
-128
-91
76
-82
-1
78
39
31
35
31
0
-39
13
-32
-78
24
27
82
4
-8
-16
-47
-13
69
26
69
-113
-8
33
-87
62
-36
16
-79
80
-39
-75
-85
66
1
82
83
66
44
-19
33
27
61
94
-3
39
40
19
-3
-58
-30
50
92
-26
-54
-90
-54
27
-24
27
73
-44
-87
68
-55
13
113
77
-61
20
10
90
-66
-1
-68
-3
41
-24
21
72
-46
-11
-67
11
19
-30
-62
-18
28
17
17
-23
-15
-47
-28
50
-84
-107
-20
104
-65
-62
-34
83
-61
-22
56
-52
21
-100
5
5
-66
30
-69
17
92
-60
-71
62
-56
75
-72
-15
-52
-13
-8
-45
-45
-99
-18
18
-15
44
-14
69
-26
-64
26
-4
111
-32
57
7
49
38
-8
36
-82
84
26
86
-27
80
61
-84
-32
-54
-119
-32
-35
52
-45
-60
-23
20
15
-15
-52
25
39
38
-39
-12
5
41
24
45
-22
-28
81
-38
16
-23
99
60
10
-67
-42
-26
-28
34
20
-62
-7
36
54
80
77
71
5
-19
-57
-31
-35
55
52
10
-49
-36
11
-23
46
21
22
67
55
71
67
22
-51
-49
-47
20
5
64
-68
-42
36
25
-72
44
68
62
127
15
111
97
123
-54
20
-33
53
-99
-47
6
67
-61
3
-75
-4
89
84
-7
58
-57
5
-35
-26
-51
79
-1
80
-5
21
5
-6
-88
36
-82
2
-22
-62
-62
33
32
-42
79
67
-23
7
48
35
-37
-43
-16
15
-79
-83
70
-35
33
60
-52
-33
-25
-12
80
79
31
25
-76
-90
80
-45
-11
22
107
76
47
87
72
-59
-25
34
32
22
71
-57
38
-64
-58
39
-25
-40
-19
67
-53
-80
-37
59
12
12
-17
-8
-7
-33
-7
-72
-83
-46
10
-20
-65
-45
-75
-3
-46
-21
12
-71
-72
-21
34
96
54
-17
-37
-6
17
24
7
-13
55
65
68
-52
44
-54
-25
-9
28
36
-75
-35
-1
3
38
26
-23
-53
-54
83
45
72
44
-23
28
-16
23
-48
-51
57
-8
26
12
-42
31
8
25
19
-41
4
31
-12
33
39
55
43
-2
55
5
58
37
32
79
-38
-55
-27
2
80
-51
-50
58
85
-13
10
-86
-44
-84
-12
48
-92
-81
56
-40
58
-99
29
-103
59
61
102
93
35
-54
21
56
58
9
11
19
13
25
82
-67
-106
-5
-3
-70
9
-71
-68
-34
26
82
62
-35
-48
1
-74
-27
-6
-36
40
-42
-66
-82
85
-16
-127
13
88
-66
-36
-3
-42
81
-2
39
103
105
-72
-73
-64
-24
-6
-94
48
18
-74
-71
-98
49
27
-65
-28
-19
-19
-54
59
-101
19
-93
85
-11
11
8
-20
76
-74
-9
7
-37
70
-46
45
99
-76
38
-49
-68
-37
1
97
18
64
-25
-31
24
47
-63
-40
74
64
33
8
40
-59
-55
31
55
-95
50
17
50
85
93
25
-48
83
20
-26
-46
34
10
87
42
47
-48
-82
-28
63
68
27
-90
5
-91
-49
13
4
-26
-1
-8
126
-37
15
-50
-47
69
57
-38
-1
-44
80
49
-55
-36
-31
-95
-68
26
82
-10
-34
-41
-111
-41
41
-22
100
69
-57
-82
56
-8
-33
-96
-21
-96
-5
30
-41
-78
-2
10
52
-100
-33
27
-82
43
6
-55
-72
1
66
62
-21
59
-109
-95
-110
91
7
31
-46
79
72
16
-39
-49
48
67
-50
-56
7
28
-21
-58
40
-20
-30
-43
-21
-56
-33
53
28
-64
-66
31
93
-28
24
90
50
-79
-32
65
-73
-71
-74
-67
-41
85
22
13
-54
-12
61
-24
100
-58
37
-3
-27
7
-125
5
29
86
-25
-71
33
-58
-27
-104
-32
26
1
76
-37
-83
-37
-84
-55
-27
-22
57
-91
70
-28
-37
-67
-78
76
-53
62
8
-35
-18
107
41
-41
-84
-20
-16
37
-116
85
11
-45
-118
-99
10
37
74
88
11
43
-29
55
74
37
118
78
18
-22
-42
48
37
-108
59
-58
59
63
-73
-70
112
-24
-82
-47
-3
17
15
-64
69
7
13
-19
3
29
5
100
-70
-17
18
-36
-2
41
27
-1
49
17
30
125
116
56
22
29
-77
-55
15
-36
11
43
95
13
70
-32
-87
20
4
25
72
-18
-88
-15
-11
-57
91
2
66
-7
-86
75
109
6
100
70
-51
-24
89
32
-34
10
68
-69
-43
0
68
-75
41
31
15
-41
-84
-35
-62
-7
-89
-29
-52
86
52
94
87
92
31
-86
-38
89
-58
63
-13
70
79
82
9
90
43
74
70
59
-4
-53
-30
22
-44
-2
60
-57
-75
-80
93
22
33
80
-26
-38
-104
-11
-20
43
27
-63
11
28
-76
51
-34
-37
-34
-31
-52
-52
112
100
-13
-100
76
111
-28
-37
-44
-19
-5
26
-18
29
88
-128
-86
-72
119
91
-58
-11
30
44
-64
-51
-55
-9
48
-12
4
48
-53
74
94
-32
73
46
-17
73
-38
-65
30
-45
99
25
-16
-128
-37
97
-68
-78
11
-103
26
9
43
35
-17
-41
-8
-54
52
-76
14
30
43
2
-43
71
-77
-49
-78
43
88
-19
-4
27
-68
40
60
27
-23
49
-5
-64
-72
44
-62
31
33
-13
31
-79
-23
-55
-83
-35
66
35
-5
-50
-78
69
-70
28
63
30
96
-50
52
74
98
42
79
-99
76
-62
34
-58
73
-11
7
-4
-48
-1
95
-35
-10
76
-42
96
40
57
21
-93
-29
-33
-77
-42
-99
32
3
-108
-73
-91
-76
-1
-68
91
33
-14
41
83
53
-1
85
15
59
-52
-81
94
102
84
-95
16
47
-38
84
8
41
22
20
-20
-55
-39
97
-14
1
-49
-108
14
-51
17
-8
-38
11
28
-24
-22
-43
-16
-118
-92
-40
-89
-62
-68
-77
-50
-51
-121
48
-120
-88
-81
-12
10
-110
-48
-57
97
-48
-107
88
103
-76
79
-30
71
-83
36
-32
63
6
-30
4
30
-37
-43
-101
-99
-62
2
48
-12
-78
-43
-70
77
-67
-12
42
-42
15
99
57
-35
39
-58
38
76
32
62
-30
79
-59
-21
43
-82
31
-63
-82
48
57
-92
-33
-68
-79
-19
-68
-33
-74
91
20
87
-15
-37
32
5
21
18
64
64
9
25
-5
40
72
44
-53
18
-39
-34
-39
76
-85
-35
22
-55
-42
34
25
33
78
-53
-8
39
74
-45
14
0
-27
59
24
41
10
-48
-49
35
-29
-46
42
76
72
74
56
17
13
70
-59
22
-63
19
-3
17
70
-46
73
32
-51
45
7
73
90
47
-13
-1
72
60
-11
28
59
24
15
-14
45
47
-31
90
-25
23
78
-22
16
68
58
16
55
-17
-38
49
76
-40
-66
-69
21
30
-14
-13
-83
-28
-50
38
-20
-35
24
-20
87
53
-25
-15
-18
10
-16
27
-12
-12
22
-91
49
35
-26
31
0
63
-71
52
41
-43
-7
-18
-26
40
-20
-23
-86
26
46
-18
46
31
-73
34
-26
11
-55
-76
-97
22
1
-17
-56
-69
-73
-128
9
43
-2
63
53
-46
-56
6
38
-71
-93
44
63
-27
11
45
-89
6
-68
65
80
12
81
31
-27
-68
51
-43
-51
-68
37
-17
-17
55
-46
50
-23
-63
-20
45
13
-58
-42
-37
60
-68
69
-38
-44
-46
-60
-7
32
47
-10
-18
-34
6
-73
21
18
-34
-32
50
14
-2
-20
-14
-49
-47
-37
7
-13
-65
-37
34
-39
22
-24
-99
46
59
50
52
25
-7
-2
-36
12
15
-42
51
-4
-11
3
-23
-95
91
-59
-69
91
104
50
84
51
1
20
-4
-127
-70
-90
55
-64
33
-61
-13
-74
3
53
-67
-122
20
24
45
18
43
-104
-4
-25
-79
18
93
108
-51
-1
34
-107
76
42
-48
17
-104
37
38
61
-6
50
37
-6
78
53
9
-97
-7
16
-89
-59
-56
-29
45
-66
74
-28
88
-40
33
-1
28
92
66
-75
38
-55
-11
-9
-58
-53
-51
45
-2
39
73
-16
58
-64
79
22
79
11
33
-32
16
36
61
103
80
-66
-37
-92
58
-99
47
-86
-18
-65
37
-44
-13
-69
-115
-62
-88
44
68
27
46
11
-6
-32
73
-68
-100
-14
-47
58
-66
-77
96
-10
11
54
2
-7
-67
59
69
-33
-66
74
-2
-20
58
-72
-110
-37
-34
119
-52
-84
-78
-41
87
-100
1
55
70
-73
43
-108
5
16
-41
-94
29
21
-70
4
-83
58
106
4
-74
-41
84
39
-85
31
12
-48
-86
-110
-95
-31
-45
36
-6
34
-57
104
59
-55
69
-60
-57
38
-50
18
-77
96
73
-92
79
-71
5
69
-5
-73
-76
4
26
-27
107
46
-10
-89
36
13
-19
93
-9
-103
57
55
70
-60
19
93
110
-12
-62
9
55
-65
49
-70
97
-36
13
-25
-35
26
8
-18
42
-12
-78
104
42
-14
99
114
-36
-1
12
46
18
-47
60
87
41
-53
3
-69
-19
6
-11
28
-10
24
-16
44
24
40
16
43
-18
-39
76
-26
86
-74
21
-24
-113
0
-67
-30
-80
18
4
-61
-29
53
-41
8
-88
92
-7
20
59
-77
80
32
-56
-8
27
74
9
79
-61
77
39
-1
4
-49
-32
59
-15
-53
-15
-15
98
125
124
-6
47
90
80
-4
62
-22
-12
47
40
12
-41
-33
-38
83
48
-4
-24
20
-47
-65
-42
25
-44
67
-34
52
-8
-1
-36
56
-74
9
70
22
7
-88
-54
58
-20
10
23
-97
-30
-2
56
-78
-63
0
-35
-48
-29
-87
-82
-34
-110
-54
59
-46
-52
-17
-4
-47
-45
29
90
20
-49
66
-61
43
-19
-78
-101
-31
3
90
32
-56
-42
-13
19
-50
53
-10
-113
-79
33
-13
10
90
19
83
3
10
-46
-27
76
32
23
71
-38
-25
34
71
6
-59
-59
-2
-1
81
59
38
-48
11
-34
-42
-24
-7
-64
74
-22
-10
-16
-42
-62
-10
-61
46
61
57
-11
67
60
-29
126
-16
-70
-69
-22
69
79
79
44
51
20
4
3
-60
-47
43
-44
-3
-36
12
-69
31
57
-40
-32
56
-72
18
-2
44
2
-85
21
52
47
-36
-61
-25
-48
74
81
65
98
64
127
-40
-67
23
35
78
76
-25
-22
-47
22
-7
30
-10
53
10
-5
75
-35
9
26
-44
-15
-12
-26
83
28
29
28
63
106
1
26
-29
71
73
74
-49
75
-30
-87
-49
9
40
-112
-89
33
18
-97
-49
-26
65
67
-69
-12
-30
17
18
52
-33
44
26
10
-4
88
-67
74
-21
2
-14
43
70
-10
-77
-66
-32
28
44
-27
-1
-24
-15
-7
-13
-57
66
-14
49
-14
-18
-28
62
13
-68
-39
38
61
-54
-26
39
33
-84
22
61
33
-81
48
21
91
56
72
-13
-8
-75
-33
75
-35
-16
-7
-44
15
-89
46
-54
30
42
-35
-12
19
-29
5
-81
-5
-96
20
-39
-41
-80
5
24
68
-30
-20
-59
7
10
-38
69
81
55
89
-10
6
-30
22
54
-1
-74
29
20
-34
-24
35
47
-12
27
-71
56
-4
-24
83
-31
45
11
-2
-30
-44
27
63
43
49
-40
-47
65
10
-69
52
-47
15
68
34
47
76
8
-13
-11
114
52
-42
15
-85
-128
14
5
61
-96
-44
-44
39
-41
-51
58
61
-27
-97
21
-83
-96
-31
43
-85
-119
-17
-3
-32
-81
-48
-10
-51
62
-60
22
39
-70
-38
-50
92
-100
46
3
98
65
-56
-50
93
-85
-91
20
78
16
-79
-7
-15
-51
-42
4
-27
-10
97
-10
-3
14
58
-33
-22
40
0
-91
-34
-26
0
-26
-5
68
10
-36
35
13
-91
-109
-7
-45
-59
38
-55
-68
-66
-70
9
-81
-61
37
2
19
64
-26
73
43
79
71
41
40
46
52
28
40
-54
46
-59
-49
10
25
-67
-52
82
-39
-72
-70
-44
-53
-8
-32
33
-43
46
33
38
80
-65
-14
-52
0
-98
-41
1
-20
-89
-2
5
-9
48
-28
5
-1
2
-60
68
-19
46
-73
60
52
-44
40
20
-53
57
-32
51
36
-49
11
67
19
-15
19
-8
-70
-24
79
26
36
14
-53
89
58
1
-33
73
71
-46
4
59
51
29
-83
-62
18
20
7
22
-11
49
18
62
19
-18
-27
56
-28
-75
-40
-35
72
-68
58
-17
-53
-70
-95
22
-15
-86
-87
11
-35
-17
-37
22
-2
88
-24
127
-11
43
-19
0
-32
-60
83
91
-58
-46
5
45
63
-13
-32
49
-77
31
75
-54
-20
50
36
48
-36
8
65
-20
7
-28
-34
54
-94
-61
-16
59
-68
-65
-58
49
-41
55
-18
-33
58
73
-53
-48
18
57
-18
-6
92
17
4
-48
-43
74
-80
12
65
80
18
22
-25
-81
-20
78
29
37
-60
-72
20
-39
62
-64
52
-13
5
79
19
77
58
-62
-58
-63
4
46
-9
6
65
-4
8
50
25
-51
52
79
36
-45
-82
-26
71
11
24
-56
-60
-58
75
55
-17
-18
-20
-28
-34
-107
37
-92
41
-116
25
57
-1
-84
36
-20
-54
-106
47
-98
18
13
36
-41
-22
24
-39
22
-36
49
45
-111
83
22
-77
-61
-44
-16
-57
86
28
-82
-86
9
76
57
26
72
9
14
65
-28
-52
56
21
-8
34
75
64
-36
-36
10
59
-48
44
82
80
74
40
42
-42
89
-77
-40
-50
23
-127
-69
-11
-91
88
-76
43
73
-81
45
70
-52
-30
84
74
-83
-37
-17
77
-1
51
-68
4
-71
-30
-21
65
64
60
-86
21
-60
26
-69
45
-104
-3
1
29
-47
58
-4
51
64
28
-55
-34
22
-85
23
-1
57
-18
-23
40
-9
104
62
55
9
-17
78
-100
-93
-10
-67
-44
-77
112
-6
-23
-4
-66
-12
-52
-43
20
-60
6
65
-105
-22
-49
-93
18
80
-17
-65
-35
55
-51
-24
3
54
5
-12
66
9
5
18
0
61
-81
45
47
45
59
35
40
75
-22
-66
-74
-52
-30
95
34
-23
-23
47
55
12
12
-36
-74
14
-15
-43
-40
-39
-14
-79
46
-57
76
28
-64
18
58
-3
47
93
-51
116
51
73
94
1
-49
26
18
20
39
-65
30
8
-85
52
28
80
-24
-46
-27
-10
35
-85
-33
35
-4
-27
-48
-29
47
-74
51
94
-63
44
26
112
10
40
127
96
74
73
95
26
76
109
13
-52
71
25
44
-16
54
33
22
45
-13
20
-62
-7
-42
28
-62
-26
-7
-30
83
44
-39
-12
-58
55
-53
64
-26
53
13
47
15
-46
30
1
-57
-57
106
53
-22
-26
84
-34
39
-28
20
37
32
4
116
18
66
24
-82
-89
29
67
-29
-25
-22
-47
48
21
17
84
-18
22
4
3
-5
-42
33
-36
-46
67
77
8
59
22
68
31
42
-27
-64
63
-54
-55
-27
49
-11
-52
-58
18
72
36
68
-32
101
-48
-25
15
38
16
-67
64
61
39
3
-25
-12
12
-74
42
-61
-27
30
40
57
12
-53
-16
-28
49
14
78
38
-34
-56
40
-26
-62
60
98
-50
-19
-38
32
35
10
-5
37
6
-20
9
-57
-23
61
-5
60
35
42
-22
-37
53
0
2
30
-56
25
46
-12
-33
-3
-37
-38
-52
31
-35
-27
56
15
-22
26
14
19
-83
-60
-56
7
75
56
12
56
45
54
62
-21
18
-77
-29
-69
2
-67
-85
-25
46
60
-50
64
-56
72
49
32
-50
-68
-59
17
-16
13
74
-17
79
18
10
34
-32
-40
68
48
-100
-48
-39
-23
-58
11
84
69
-25
30
93
-15
85
88
-98
54
-28
54
-6
-19
14
42
-42
2
-27
98
98
-37
22
82
-52
108
41
95
-17
-20
37
14
-15
-50
1
-21
-8
-13
125
44
66
49
56
53
16
-10
127
99
14
73
-18
5
66
78
69
-11
3
-57
28
-18
-33
79
-41
66
-43
65
38
-12
12
83
10
-66
1
-26
2
-27
-78
6
-52
-31
-111
-43
-60
-28
63
-34
-73
34
72
-91
-74
76
-19
11
-62
2
92
-34
-26
-13
-81
8
-85
-4
52
-98
-62
50
34
-25
-54
-64
-35
-76
19
-86
-36
-71
-39
-9
-70
48
-3
-64
57
-24
82
-59
-24
-35
49
-34
-28
-5
-68
50
-49
39
14
-3
-25
-24
31
-32
16
16
51
41
-41
51
-104
-54
50
-86
-9
-85
-35
-99
36
37
-22
-2
31
65
10
27
-58
78
26
-52
-79
-30
26
-47
-24
-90
50
99
77
24
8
-68
14
11
100
61
35
28
93
66
87
-6
117
-60
-58
81
76
-26
-78
-9
69
2
-70
-85
-47
-63
-50
-81
52
48
-54
-22
6
4
-29
-60
77
2
86
34
55
16
-19
-79
-57
69
-74
-93
50
-1
33
-17
-18
80
-23
-3
72
61
-115
-16
-29
18
-53
-79
-63
61
-13
-78
-75
31
-14
40
-42
-59
16
24
-25
11
-56
-59
44
-18
-32
34
-2
-16
-73
-77
30
-24
45
61
-32
38
53
-128
-50
-8
6
8
-99
-49
-41
59
-7
103
-29
2
-20
81
-6
-53
-63
42
13
42
20
-46
-95
4
91
19
-34
-85
69
52
65
-5
-81
7
-85
44
0
54
32
-84
-21
96
64
21
-15
-93
29
33
-48
-92
-46
-2
87
25
93
2
-1
-112
80
94
-4
37
-58
-73
-38
-56
55
-88
48
-56
42
114
71
-28
8
15
29
15
-63
-117
-49
44
-55
-110
-59
0
9
85
-66
28
-90
27
-108
-33
-65
45
24
-49
-26
89
-103
-39
74
-45
-15
-66
11
29
-45
-20
101
1
-19
70
36
-23
-97
88
101
16
59
-86
51
-43
33
94
-100
-14
64
18
43
-45
80
-51
-82
-7
-34
89
-64
75
6
38
-28
72
5
-57
54
-61
-4
56
-52
0
13
27
-67
109
-68
27
-38
114
104
43
95
31
64
11
27
53
109
23
-10
78
23
-49
-18
112
40
40
-22
-9
104
-32
-53
45
33
58
78
76
47
-70
-119
-24
-68
22
69
80
-97
101
-63
61
60
69
-91
-73
-61
111
-39
96
82
25
59
51
34
14
-87
-67
101
-74
-95
51
-51
-17
84
-30
-84
-21
44
-76
-84
49
-93
7
75
-50
32
32
-72
-84
-2
-22
61
23
8
-38
62
48
-21
-2
-6
-14
-9
-41
-31
-81
-43
29
20
69
12
-19
-25
12
-17
-19
40
37
15
-20
-51
42
15
-83
-10
-1
-12
23
30
-18
31
-32
25
38
-62
-57
-14
12
8
-47
42
24
59
-25
-52
-23
33
-42
29
59
-40
-9
38
56
48
53
6
33
-1
0
-78
-65
-96
23
-31
-7
-20
-35
-43
-47
-13
-76
-85
40
38
-65
-82
-9
-65
20
-18
53
34
-71
21
-86
43
21
57
40
-15
-5
-17
59
-54
-57
23
56
-39
-17
37
27
-6
18
12
-63
0
34
-45
25
-40
54
-79
-44
-29
-70
20
3
18
-4
-73
10
2
-18
21
23
-25
1
13
23
-59
-32
-10
-46
-23
49
22
0
55
-18
-38
29
-28
2
32
-15
-31
4
-31
19
-11
20
-55
58
37
3
42
-24
5
-55
67
-49
-27
-30
54
-11
-43
-19
101
127
93
101
-20
72
54
18
32
22
82
23
107
4
8
55
-16
11
-70
-52
-13
14
66
-73
-28
-43
-49
-71
4
-32
71
69
56
64
-23
-2
11
38
32
71
30
-60
26
-45
54
-47
46
72
-62
-2
65
35
2
63
33
-9
49
-31
1
-42
3
8
60
-52
40
-18
30
66
-68
-45
45
-62
-23
2
-28
-59
14
-74
49
-61
79
-5
-34
-30
73
-52
90
-28
-16
19
39
63
-70
2
-36
-15
-10
-13
13
-69
-4
-20
20
-29
20
-6
42
80
35
11
3
20
86
-43
0
80
-40
-52
-30
-37
69
42
-6
76
-44
39
-60
-27
-8
25
-54
-17
27
19
42
47
43
57
77
-67
47
10
-7
-8
36
-25
27
29
43
-23
49
22
-21
39
-39
-45
16
23
77
-27
-60
74
-17
32
48
66
77
-12
-55
-24
-41
19
32
11
-22
1
-12
1
-53
11
-26
11
-9
45
-56
64
-54
-47
52
18
-49
-33
24
5
-70
48
30
-26
-38
67
6
53
34
-73
-29
-29
-50
-55
-9
-4
68
76
-50
20
10
-64
73
-49
-2
26
56
-31
27
-51
-93
-76
46
56
-75
37
-28
-64
-66
-44
9
-93
8
-29
55
-35
-48
-33
63
56
-70
-72
47
44
-71
-50
-40
-3
55
14
-45
105
27
10
51
-5
127
-29
6
28
2
-10
22
81
89
31
-50
36
-65
-2
22
-11
-79
0
36
-12
24
39
-55
50
-85
-43
-39
59
18
68
-43
65
-50
-28
-55
-28
14
-55
-10
25
-16
-33
66
-48
45
-68
-38
35
44
-27
42
-21
-68
1
-17
-49
11
-9
-28
-27
49
-11
57
12
35
20
-20
26
48
-48
-12
23
-54
-7
5
-41
-15
94
26
-74
93
-9
-33
39
28
85
-59
27
84
15
48
26
-70
83
28
46
19
-43
-46
-120
51
-41
-110
66
14
-99
-59
85
59
43
-104
-69
-35
99
87
4
61
-12
103
43
106
-2
-15
99
73
-26
11
-38
34
-7
-54
-79
35
-67
-95
-16
-5
-44
-3
-36
-33
85
-18
51
55
-67
15
54
99
-50
14
38
74
65
-39
84
63
-24
18
119
100
-76
13
-72
19
13
-28
85
69
-61
-73
-81
30
-93
-32
5
-89
29
-55
-45
59
35
-75
12
-29
64
-46
-17
-128
-33
-69
-2
-71
47
-50
8
91
31
29
47
-40
-45
-20
32
76
17
37
-45
34
-16
20
90
-60
75
-34
83
-28
-83
-11
-14
-46
-37
1
54
53
46
-100
-80
66
-32
-90
-1
-52
60
-37
-59
72
-44
12
50
19
-107
24
-28
-67
-91
-61
-39
81
-105
69
20
62
-31
54
51
43
-21
14
9
-64
47
87
-5
81
-24
12
-10
42
35
-23
-7
70
3
31
64
-100
41
87
105
-74
-40
-56
-38
22
-14
-36
25
54
-25
41
-8
39
85
12
-57
-76
23
-59
-70
-9
-95
-125
-68
-107
-123
-24
-111
12
-87
20
-86
74
76
91
-102
-24
50
117
-51
-77
-93
-30
-59
48
79
81
-87
-23
-6
-27
37
14
12
-53
64
18
-14
24
45
66
-45
-15
-14
-18
-38
-28
-8
-107
51
34
-65
56
-4
-1
74
78
-17
-96
53
66
-52
-44
-70
-46
-49
32
56
83
23
-2
-33
-29
-4
41
-46
-29
26
3
-64
-38
17
-60
9
4
-40
69
38
24
82
59
-4
-20
18
-16
-28
-2
86
14
-24
-36
-5
-22
44
27
21
42
-23
49
2
79
-11
15
74
57
127
-11
18
57
19
64
-22
14
44
60
72
9
-8
-14
3
-53
18
-49
31
34
-58
-44
-53
-37
46
84
-13
-1
0
40
-65
41
4
13
60
47
-7
-6
35
-86
-102
5
58
4
-78
-15
24
42
-31
-65
-61
-48
61
4
-26
25
-54
-16
6
-29
-32
17
-19
-46
-52
-65
18
48
5
14
-1
36
47
51
26
-38
37
40
-24
65
70
-71
-64
-35
0
-45
-85
-92
-48
15
-37
-11
5
52
92
55
89
-15
47
58
83
-17
-22
-14
-68
115
41
3
71
-97
-31
-65
14
65
-14
50
52
-33
-77
31
11
77
5
-6
43
74
-32
12
-70
11
52
-14
-52
80
4
-26
-56
55
5
26
30
64
-48
-53
34
-19
65
-55
-39
93
22
52
-27
58
-9
16
94
-30
-5
-49
52
-61
-33
-73
98
-21
-8
-76
-26
-68
-24
68
-17
-82
28
58
21
27
-81
-84
50
19
73
-26
-82
-51
25
77
-30
-67
-65
18
108
52
123
22
-59
3
-67
95
67
-127
-7
-15
45
6
-10
-7
-49
13
-71
105
7
8
6
7
71
-93
-87
9
23
-20
80
-41
27
-87
-41
-44
-20
97
-91
27
89
45
53
-15
77
-43
0
-16
-22
-88
-79
26
52
-47
-10
106
-34
-15
48
98
41
84
6
-47
114
-16
-100
-38
-24
42
-92
19
-92
120
37
-122
28
22
-19
-67
33
-78
70
-26
68
-25
22
-93
74
-96
-73
-5
-56
-25
-12
-86
71
-5
49
76
53
51
-85
22
89
-41
75
99
87
-96
74
47
122
-75
-89
9
57
-71
9
75
88
-74
-13
87
-69
71
50
91
-58
37
-29
-18
-92
-61
105
-20
89
64
14
99
-44
-122
-71
-28
-20
65
-81
111
-60
22
15
-92
40
105
-76
-62
20
3
-57
-56
-45
-35
29
56
-21
-104
-4
-40
79
-74
-35
18
24
58
-39
64
32
-60
51
13
-3
-62
23
1
-67
112
63
69
45
-60
-74
99
-62
-47
47
-36
14
-36
-116
-15
-30
52
-49
-54
53
-90
-37
-113
13
73
-101
80
61
-46
103
87
-85
43
-43
-71
-57
51
6
77
25
-82
97
80
-79
-12
-17
42
25
23
48
-18
39
5
45
31
59
64
44
70
-6
29
-38
2
13
19
-15
35
49
66
-87
-102
-30
33
66
95
26
-58
86
81
36
2
-78
23
94
-33
-13
40
-35
-37
-3
24
44
-8
16
44
5
39
69
60
34
-41
-6
-11
-2
27
-77
64
6
44
-24
2
-64
-47
69
19
-1
-77
-11
54
-29
21
-59
94
-51
16
86
-11
-50
54
65
45
-75
-43
67
16
34
34
74
84
-38
47
6
81
-12
20
-44
-27
33
1
-39
-49
-53
-19
79
28
53
-50
-54
0
-24
-42
77
-35
-63
22
-47
-13
-9
68
8
12
-5
4
57
49
24
40
-24
-44
10
-3
-44
-64
-34
47
-69
34
20
43
-28
5
-25
80
73
-14
61
20
-93
-34
16
-8
-2
1
42
-86
39
-47
-28
-64
-19
-31
79
-51
-1
6
-11
30
10
39
40
52
-35
-50
-32
-7
16
-3
14
2
25
-35
61
76
127
-58
-1
-33
-23
-82
44
-14
79
34
-31
-9
48
47
-39
85
17
42
10
-23
10
43
15
-71
-93
-90
-86
-37
-58
-31
68
72
26
54
-25
-14
-73
-21
-68
73
5
-3
-30
6
-61
-10
-83
-5
-57
32
-24
-12
-23
0
77
66
-10
-60
-46
-66
-27
41
69
8
-17
-46
-26
-14
-17
58
7
12
-13
-69
56
-48
-14
37
-53
-42
53
55
41
82
62
83
72
45
109
122
-61
-24
-86
-25
-64
-86
61
4
24
10
-61
-20
-4
-65
-110
16
-76
-26
-63
-61
-58
-24
-54
-35
-6
-54
-10
91
-28
-1
69
-47
60
5
-9
7
6
64
40
-72
-67
98
-22
-30
-52
-14
-32
67
-20
-96
-10
-53
25
-70
-3
36
-72
-128
6
80
-105
-125
-66
-65
10
55
36
-80
-87
55
-16
8
-102
77
13
-43
-33
39
54
99
62
82
4
80
-27
-70
-67
-40
56
-50
-59
95
45
-27
-60
-70
-12
-32
40
-9
-12
83
-67
11
24
72
-48
-20
-50
-68
-36
-23
-2
-59
-1
62
14
-20
80
79
35
-33
-56
-34
-14
27
-79
38
81
20
-16
42
4
-104
-74
-61
73
-2
-71
59
-99
-43
-58
-14
-74
-3
-29
12
41
34
27
-58
-34
-76
-41
-57
16
-68
-58
-27
11
2
12
-19
59
-12
-87
38
10
64
-86
10
-25
100
80
9
14
65
-75
3
23
65
26
82
-18
69
50
58
-26
64
-43
-17
2
-44
-5
-54
-35
46
-53
20
11
75
-9
-70
68
-2
-14
65
18
-50
58
-80
15
33
37
-12
-46
66
-65
84
55
-47
54
80
9
41
-53
58
43
61
-55
81
22
46
-8
-3
43
28
-28
50
27
-76
-106
-5
-25
44
49
-101
65
111
110
80
-74
36
109
40
-37
84
81
-15
-23
17
8
-20
46
10
33
41
-82
-24
-20
7
63
5
-115
-77
1
50
-93
38
47
-39
-35
-12
-42
-68
74
122
39
-56
74
-84
18
-56
-15
-5
-12
-48
-79
62
-46
45
-62
-53
-89
21
-68
-72
34
-64
-81
51
-3
-4
-79
-8
-93
-12
21
-80
-59
-84
43
-50
-69
62
-99
-42
18
-34
1
-18
-52
32
-16
-3
-80
10
26
-37
68
95
97
-11
-92
-79
87
-62
79
89
0
-74
15
-20
-54
104
41
31
45
6
68
56
54
-65
105
-36
-49
53
43
-21
25
-75
-68
58
89
63
-84
15
80
-67
-35
-69
70
-3
-25
-3
86
75
2
-23
64
3
51
91
111
-42
74
-38
122
-47
-83
20
45
11
21
63
81
127
18
40
44
-16
-64
-65
-65
63
-59
-10
-26
30
-10
-52
24
-99
33
-17
35
33
-33
-2
60
-42
98
43
39
-68
-108
71
48
-41
20
52
58
31
45
46
-34
-32
34
34
-79
-20
-36
-36
-55
98
5
-83
55
65
77
16
54
4
-38
-77
-58
-12
-50
5
19
47
69
70
-22
19
-32
-10
-56
28
-3
-10
61
52
28
86
54
6
69
-88
96
16
44
13
-113
-3
-27
8
57
85
-28
30
-77
-25
40
-53
107
87
-94
58
88
-23
-52
-45
54
65
32
-102
-54
-31
-25
107
34
85
-42
-42
116
7
71
62
-65
-55
50
38
29
2
37
5
43
81
9
-83
-16
109
-58
-2
84
60
79
73
-18
-66
-25
62
50
72
-13
-9
72
-84
-60
75
36
-67
38
-59
48
99
36
-3
-35
97
-48
-87
51
45
-54
36
38
-16
58
6
-14
-103
-90
37
-87
-58
88
-62
-21
-122
-66
-57
27
-14
82
-85
43
-68
-64
88
-69
-55
-66
45
73
-5
14
-5
84
100
39
-92
45
81
0
25
-70
-72
-8
-38
-60
-5
27
4
75
-73
-72
-36
52
-22
76
-9
-57
-28
38
-6
2
60
6
62
67
-60
73
21
-5
-39
1
28
-86
-67
45
-87
11
-119
85
29
101
-113
24
69
-11
5
-122
-37
-77
74
106
127
52
-11
99
77
49
87
-36
92
-52
99
16
32
-70
-89
-3
-16
-24
-84
-31
61
-40
42
44
-84
24
-39
37
-10
-9
46
51
98
116
-35
79
18
-37
-88
62
-109
81
-69
-101
72
-77
-51
67
85
-57
75
-109
55
-73
-20
18
36
63
27
26
-11
-14
45
-43
81
-30
-70
-87
57
104
89
-8
84
27
4
-33
-77
-7
-21
27
-32
-44
-6
71
-51
-74
-56
14
-66
17
29
-85
-9
59
-63
21
3
-20
8
26
78
62
17
113
102
71
90
79
78
69
-47
-30
52
45
36
-45
-2
48
-58
-22
-3
83
-61
-79
57
71
18
28
-1
4
69
59
23
53
33
15
-86
-52
12
15
-50
-73
48
46
-24
15
26
0
-30
83
92
72
-9
13
7
79
113
100
-8
127
46
54
40
76
32
72
-15
-67
38
5
33
7
89
37
81
-15
4
-31
76
-50
-46
4
-15
13
55
-10
67
-66
-7
-43
-3
-91
-63
32
74
-80
-5
27
-14
-72
-17
-6
25
-88
-17
-62
-88
-49
19
-67
-42
67
-74
42
44
51
47
36
2
75
-46
-80
55
7
-62
47
45
-82
37
35
-83
30
-12
41
30
89
-10
42
27
81
81
99
60
-52
52
26
-62
64
88
44
-2
-7
94
-23
-44
13
22
-49
-50
-57
-31
-76
-37
-67
-58
51
-37
-103
-31
-43
17
-54
60
-11
-108
6
-53
-49
80
-28
-2
40
36
-39
-27
-66
-38
-54
-49
-14
74
-23
-5
-36
11
11
59
3
75
17
44
29
-3
73
15
-18
-30
45
86
2
47
70
9
-2
67
67
6
-76
-63
81
82
33
52
-86
-23
-90
-11
-87
-67
-91
-12
-86
48
-5
-102
-15
-73
-79
36
-76
71
38
41
76
-41
88
-74
27
55
27
51
-2
48
-68
-96
41
26
-15
73
1
-39
61
-72
72
-41
114
127
-39
29
32
105
124
-4
22
-54
6
-17
29
72
33
53
68
22
60
-45
-52
32
14
18
-13
-89
36
-47
-79
87
74
47
82
-11
84
68
53
4
15
93
-72
55
15
-14
30
48
-70
78
84
110
30
-3
19
3
52
-35
-4
1
14
-70
-81
-20
42
-53
-89
-89
-73
-121
-45
15
4
-22
-80
-14
-36
31
70
27
46
-36
-36
-6
77
73
46
-26
31
-76
-19
103
104
37
50
57
-12
44
28
3
67
23
-38
65
91
50
-60
-82
15
4
-57
39
-82
-45
-23
48
-68
13
-59
72
-67
37
-82
0
114
35
-15
-78
-29
-70
-48
-44
-64
-8
-50
-12
65
66
5
-29
-18
48
33
-36
55
-111
-76
60
116
60
29
-73
9
3
-46
-37
74
34
110
11
23
-2
85
24
83
-26
34
-68
17
-77
83
41
-99
-13
60
-13
-14
49
0
-96
-5
-85
-37
-41
44
-20
83
-15
34
-48
-12
56
19
17
-64
-69
-49
68
24
-13
-40
-5
-4
54
-45
-107
-3
80
-19
17
67
71
-38
-15
87
-13
0
63
41
-13
-5
-1
-68
-38
4
-32
-87
-43
73
55
-54
-72
-105
94
15
-50
84
-85
59
28
-62
-59
51
-103
-40
-4
36
-17
-102
-86
-33
76
27
70
56
104
44
28
18
-37
-80
36
-70
-31
67
-51
-22
71
-17
52
69
58
71
70
74
38
107
-24
-56
35
-49
42
68
-42
29
-63
-82
-78
-69
-45
7
23
44
2
13
-2
76
94
20
90
64
114
8
-53
72
42
-57
-54
-65
68
-72
64
-44
-11
101
57
30
-100
-17
38
-29
39
-53
-4
-128
-43
39
-26
-6
37
-81
53
-67
-37
61
-52
9
29
-73
-45
-33
48
-23
-23
30
-2
0
66
51
39
-39
-33
-60
51
-25
62
52
7
52
56
66
-20
84
7
31
73
51
0
-41
69
5
-83
10
-73
40
30
-23
-105
-85
-67
75
-28
81
86
-36
23
-48
-57
49
-79
21
18
-26
42
-62
56
-55
-36
1
53
-58
-10
62
40
86
78
94
78
-36
-11
40
97
12
58
-47
86
20
-15
16
4
-18
66
-33
56
-33
-38
14
15
-53
27
-50
-90
-100
28
-33
27
-79
-31
-62
-3
29
15
-74
-38
15
88
1
59
-39
10
41
45
-43
-52
5
49
-86
-52
-2
70
44
24
-45
-22
-92
-93
24
-82
46
-26
51
-37
32
60
-76
112
19
4
-13
79
-27
-70
70
37
-93
-10
-33
-14
-46
-11
0
-59
9
0
-42
-13
-35
-30
-5
43
2
-12
14
-43
40
-111
-30
0
-55
87
64
-84
43
127
49
7
26
-26
-63
-7
59
15
42
48
-42
33
83
77
76
8
-30
35
-65
46
75
54
79
2
-58
37
49
-25
31
35
69
-46
54
-72
-3
44
-44
-53
-23
-15
50
-72
-5
22
50
-67
-26
-36
-22
-25
60
-29
0
18
37
-1
33
-10
14
48
65
8
-17
13
-27
-12
44
-35
-29
-30
78
56
40
-23
-39
-19
-72
4
-67
-5
16
-81
66
47
31
-77
35
39
42
2
-29
-40
8
-26
-42
-39
64
6
14
-37
-16
-8
-26
47
35
-11
23
-29
7
-38
54
67
-38
-71
-52
-40
7
23
57
86
51
-53
-64
-31
-25
51
-78
-60
3
-78
3
31
42
-4
35
27
-27
28
78
19
84
-61
80
-77
-41
85
-8
46
37
-5
-49
-56
99
-40
-27
6
-62
-48
35
98
-38
-80
-34
-39
67
76
-25
-26
-62
11
-48
-8
-35
-16
29
48
-46
45
66
77
-31
-60
32
79
7
-44
-48
-54
6
-24
73
-8
71
-42
-12
-88
-58
48
-48
-16
37
76
24
-71
56
27
47
-61
28
-46
-91
61
34
-46
-82
35
54
69
63
-51
39
9
-48
-40
48
-31
15
28
-11
-2
20
49
-64
-52
32
-1
76
80
-67
-10
63
4
101
-128
19
20
81
-125
-30
-81
23
18
77
-7
-66
32
81
9
-46
-47
-86
-119
-27
-69
-45
49
-48
51
-21
51
93
-38
46
71
27
-80
59
-85
93
-67
78
-77
-50
13
81
37
-50
-40
-42
5
68
49
87
-53
-9
-43
-12
-47
-44
24
28
57
-103
14
10
40
-40
-49
-71
31
-14
-119
-47
-10
-73
-32
-59
-28
-48
-95
-115
-66
-18
-15
-20
-1
-55
35
23
-54
51
-13
60
-89
-29
66
77
75
57
-29
54
-6
-49
-81
96
95
65
-102
-30
24
-68
-34
-34
14
63
-77
-55
-97
-70
41
83
73
-65
-20
-8
71
-49
60
74
39
78
79
-56
-96
91
-83
-72
-12
-37
-126
32
54
-38
-71
-104
-26
32
-87
-46
-38
16
-7
72
18
56
66
-13
-62
-61
-41
82
28
39
-113
-59
0
-108
13
-99
-41
-45
24
104
71
-62
45
-68
-84
43
-58
79
41
-27
31
-50
99
-2
93
30
53
-52
61
-82
65
-47
54
-92
39
-108
4
-43
-15
5
-2
14
-74
74
-15
49
5
-33
-1
5
58
-53
-1
70
53
-49
-73
84
-57
-104
-68
41
-26
-59
-49
-40
-52
-4
-48
-55
42
77
57
16
-83
-60
-83
86
-89
-86
-59
46
-77
-52
-39
1
-72
-50
-3
1
24
44
-7
-53
16
51
-45
-46
-4
10
-25
-7
-121
-51
-94
-38
50
-86
-42
65
-39
6
-60
-14
-71
0
-6
33
27
63
-62
31
-69
93
26
-24
86
-15
-13
18
52
68
8
17
-59
-13
9
-61
14
-64
5
86
-43
-39
48
-40
-31
70
-75
-3
18
12
-114
33
-6
-112
-66
-55
2
-28
2
-41
49
-69
-121
-67
-33
-126
-34
-77
-73
-41
82
74
-26
44
24
24
3
-74
-56
-25
-62
-9
-71
-60
-62
-7
-18
23
44
-43
-59
-14
47
-3
75
-43
-40
19
55
-42
-42
51
43
32
-10
30
-67
70
-36
-31
57
-33
16
-70
7
80
14
-57
71
10
8
1
28
-31
-39
-14
-16
-27
64
3
-36
15
80
-59
-62
-42
119
96
-70
55
31
11
-7
7
88
8
22
55
10
127
42
57
63
28
49
-53
-108
-102
-7
-23
-51
-42
17
-13
-35
-17
27
-59
-54
-6
5
58
-15
-35
-77
-31
37
-72
9
43
33
26
-23
14
74
-31
-84
12
47
-88
3
-40
0
47
9
41
-6
62
-3
-67
35
22
34
12
76
-17
-10
19
-20
48
-41
-24
-4
52
3
-31
-46
34
51
49
-6
46
59
81
65
8
53
-40
12
82
60
70
69
20
12
112
-16
33
32
32
-22
19
-27
78
46
-25
47
-1
3
4
55
66
85
-25
108
127
42
87
94
59
-75
61
-1
22
-7
-67
59
-11
72
-1
5
25
63
-19
30
77
-43
75
-35
84
19
22
-36
68
33
77
-37
17
-9
51
-21
42
-54
29
20
47
-53
-28
-77
32
20
58
41
-52
-27
98
31
-15
-61
73
-13
31
18
-25
121
-5
-22
36
39
35
-62
16
61
-44
96
35
25
-50
23
-5
-29
-20
-66
-63
12
-29
37
14
-5
40
-84
-65
-44
75
32
-73
14
2
-5
57
-69
-49
35
27
-67
-11
-12
-30
65
94
59
98
-75
-53
44
21
-75
17
27
36
-35
-12
-68
-70
-32
18
-65
-42
25
-48
41
-60
12
-37
4
-5
-42
49
19
-8
30
-40
102
26
39
-5
30
61
-14
64
-61
6
13
15
-25
-80
14
-35
-39
-45
66
-14
-41
-74
9
-15
-22
-18
-30
65
-57
-5
12
13
-61
-3
-3
-7
24
41
-58
10
24
-25
-88
-18
-51
-68
28
42
-6
-3
-7
-5
-33
31
48
7
-4
48
43
77
78
56
-9
3
-19
-22
40
-54
-2
-39
-6
16
-56
61
16
-65
-24
37
80
-44
62
-54
80
20
64
47
15
46
-35
-51
-57
-10
16
-27
18
-68
13
30
-27
20
73
-21
103
-106
2
-78
-66
-84
-82
-41
-55
70
-65
8
-58
-61
35
-32
-88
-24
44
15
-18
-37
-12
43
-86
33
24
-64
-29
-86
106
-75
-6
39
-35
47
-30
42
85
-69
49
105
100
-25
34
36
-1
94
61
-73
-5
-79
62
-15
-25
-88
26
64
17
-97
33
68
-11
84
-118
61
27
-66
-62
-99
-25
66
71
33
-4
-86
-42
24
-60
12
111
8
80
127
-16
76
-6
0
12
-7
-116
-79
84
30
-74
-66
13
66
-87
-98
-31
27
28
-14
-5
96
-68
11
98
49
83
-89
-55
-9
-46
97
43
-78
92
-77
67
-90
22
-29
-44
-48
32
-44
63
81
-47
-62
49
60
-63
-10
-34
-73
-52
97
-25
-51
-66
85
-8
56
-47
55
-28
-40
31
20
63
-43
60
-103
-14
-50
89
44
31
28
72
71
-2
29
-72
-94
-73
-2
28
-43
82
-52
-85
68
-75
30
-23
9
33
-58
112
78
0
18
-45
74
-35
32
21
108
41
-58
9
103
8
45
-84
68
49
-3
-85
11
-57
3
52
68
45
58
-22
-96
-61
108
-58
-18
105
15
-61
-84
23
96
-25
25
-61
58
32
71
75
23
2
-90
100
-102
23
-113
-66
105
-11
-62
4
91
-40
100
-51
-46
-3
23
38
-27
-5
71
72
4
18
36
60
59
35
31
-34
45
74
23
88
55
-63
-40
-27
14
28
11
23
-79
-88
-68
-5
65
-16
-1
-128
33
-1
5
27
63
-14
111
64
-54
53
7
64
-29
60
95
-18
-37
86
33
5
-37
-56
-90
62
28
-16
-75
-24
7
-17
-60
-67
17
-39
93
-38
-40
-15
-58
6
-50
-55
47
51
-21
-33
77
4
-66
-37
-92
-43
0
84
-90
89
38
-66
-51
72
51
14
48
45
-90
-11
-60
1
-57
-86
-56
30
9
-17
23
79
-14
57
-4
71
-56
78
29
-50
54
93
18
3
27
-39
45
-51
69
-11
29
-91
-25
-79
17
-4
-42
-33
-85
64
-70
-13
36
-36
-35
65
27
-23
22
-44
35
6
85
94
16
-10
95
-9
37
51
-26
-5
40
-45
-97
71
-67
-54
-12
-77
97
-55
25
27
25
68
-35
-56
-33
-30
-44
-43
-53
-56
55
1
-42
55
5
103
-3
99
-21
5
39
-112
62
59
39
87
62
88
14
51
-63
56
60
70
-18
58
-65
-11
22
-71
-93
-19
3
-43
24
8
79
23
17
73
63
32
-33
49
-66
-20
53
-19
-93
-41
-4
-5
-38
-44
-100
34
44
-93
-12
-15
-42
-34
71
-11
11
-35
95
-17
-5
115
83
13
-25
-66
43
19
-31
-21
-77
-11
-20
-16
-64
-22
17
-54
16
-70
2
8
76
-44
-63
-64
45
26
66
75
42
-49
-45
11
-34
-79
-57
57
-34
-44
54
21
-91
38
4
47
-34
-50
5
88
34
55
-78
2
-82
1
-83
-9
-29
-17
90
-12
80
53
0
-19
13
-4
87
29
-39
55
33
-60
-6
-13
-78
61
93
19
80
18
-9
77
111
103
89
-38
3
83
127
63
10
51
101
-14
-16
50
73
63
72
-60
13
53
-62
55
-4
-31
-25
16
68
-68
-71
-86
-48
-23
-29
75
14
-30
-54
-35
8
12
67
-30
33
41
45
-85
-80
-35
-39
49
16
-32
35
-39
-61
-6
-14
-52
51
31
68
20
-68
-63
-37
72
4
-2
-34
-31
-71
22
-24
18
65
-64
-6
48
-17
-38
-8
8
96
44
23
57
-67
-14
23
15
-40
-37
6
-83
42
-89
-25
-58
-50
11
17
-63
8
78
49
12
-74
-57
-33
-45
-66
2
-17
-58
9
-74
-67
24
65
-64
-45
5
-67
-10
-19
-28
-2
-2
-36
73
-6
-15
85
-20
8
2
-41
-39
-4
53
38
89
89
-56
-15
51
-39
62
87
59
57
69
19
65
-39
-43
79
56
-40
65
-6
-25
4
-45
8
-13
-75
-28
40
-73
-65
-13
5
81
-11
55
-10
-37
84
26
-45
26
-15
-85
2
20
-33
-25
51
-71
82
107
-53
45
77
-70
27
-112
-104
-86
8
-36
-68
40
-125
-14
-50
-82
92
-44
-79
73
-44
-37
-82
43
18
27
45
33
-42
-4
-41
-68
-69
34
98
-28
-32
-117
94
2
-12
60
-102
-126
-45
-124
-95
-128
-99
-71
-74
26
-107
100
91
-94
-80
-60
52
-18
-105
20
71
55
-13
98
22
26
34
112
-85
-109
118
101
59
4
-114
3
-14
56
35
10
-27
109
-42
-53
67
-33
-108
-32
101
25
-57
48
-32
76
28
40
18
-93
55
74
-78
-15
-106
-105
77
5
-15
107
-8
-7
13
69
-81
-22
-47
-112
-77
-55
30
-3
24
24
7
-84
-60
47
9
-89
-25
-88
70
-51
-48
57
89
-86
-76
-70
-66
-31
30
-100
-31
-31
54
105
55
-116
-105
-111
5
-53
19
-75
73
55
-120
101
42
-113
-41
-47
94
-41
11
59
105
68
91
28
-25
80
-95
19
-112
71
-122
-3
-73
65
79
70
89
13
83
52
-47
-27
-78
-121
-114
43
-73
-1
79
-108
-105
77
41
-102
-93
-73
-50
-45
117
-41
26
-33
96
-124
10
75
-104
82
38
86
-15
-93
33
7
71
4
67
-69
-17
-39
74
-110
-16
97
-115
-52
-78
-66
38
-119
-60
113
26
-8
61
38
-72
69
104
9
12
0
113
10
-60
-23
43
-32
39
45
-5
-57
58
43
72
13
-9
25
-21
66
-16
67
-10
47
25
82
83
-4
-22
-24
15
2
7
-89
-22
14
-34
-5
7
40
-24
-18
42
-22
65
-43
71
36
35
80
60
35
-64
16
51
4
-69
-15
27
44
-10
17
-45
0
24
-40
55
-39
-3
13
-24
-5
-33
78
36
44
57
-30
-11
-8
-23
-10
67
-41
-46
-24
-9
60
26
-33
61
39
76
-32
-7
26
5
60
-36
27
65
-10
32
-4
-49
14
-13
-38
15
-53
30
-72
43
-64
5
4
57
-50
65
-5
-38
25
27
-14
-19
1
-29
66
34
-8
-55
-23
60
-38
61
25
-48
-1
-39
-29
-53
-34
41
-46
18
-25
46
38
-61
9
68
0
-38
23
-36
28
42
-22
-17
71
68
78
14
33
6
11
71
-17
-16
64
39
2
74
52
73
59
-28
35
-15
-128
-56
7
-73
56
-56
5
67
-97
20
-27
22
-107
-62
-44
-47
43
17
-27
-8
-37
37
-5
-16
-4
39
7
-8
-25
-24
33
-33
67
9
0
64
-19
-60
-8
-32
-6
-16
-72
-18
-26
14
6
-40
-11
54
-29
-5
73
-57
-51
-35
58
68
-10
-50
-41
69
-17
-12
15
-48
-72
-7
5
22
-64
14
-54
51
8
41
69
-3
50
105
-39
57
-7
46
-18
78
44
1
-52
-19
-49
-6
-101
-32
-58
75
-73
-62
25
-25
-95
-32
-127
44
21
11
15
-82
-74
83
57
-34
-36
65
4
-50
-58
77
29
25
-8
-12
59
80
58
33
-68
35
48
6
2
-75
51
25
-17
-69
32
9
5
71
47
-13
29
-63
-56
-34
16
-36
54
9
-92
-39
-20
11
51
-9
-13
-58
-21
-25
-18
-37
36
46
-1
-15
-5
78
32
24
14
27
1
7
77
103
-12
-14
-57
5
32
29
-40
-34
23
-38
-7
50
-38
-67
33
31
27
58
52
68
17
70
26
39
-19
32
-16
-9
-12
-20
11
-19
0
65
-14
-6
-32
-72
-56
-6
-53
-55
15
-65
-52
-20
-66
27
1
-15
-23
-46
-12
-19
-74
29
37
-47
-36
2
-3
-19
-71
10
-12
-72
-44
45
-107
-85
-10
-42
-58
11
-7
-18
30
88
5
-16
35
-43
-38
1
-12
-39
-13
-26
15
-19
9
-23
-51
59
83
79
59
127
38
69
-14
78
103
79
39
60
-29
-15
-33
25
49
8
-37
-54
-32
35
33
60
-36
-15
27
5
-13
-17
23
33
73
60
-13
12
51
-38
80
10
-38
-72
0
77
-32
5
48
-53
27
-43
5
14
-18
5
3
-2
1
-57
-4
38
57
101
-30
-40
-29
38
98
-3
72
-84
-30
-11
-47
64
13
65
11
-22
-29
97
-83
92
-75
3
39
-46
121
-58
12
-65
-57
68
91
61
86
-8
-64
76
50
3
-38
-40
52
-20
-23
63
17
-61
8
-52
7
-49
-21
-21
26
90
8
-68
57
-70
20
-63
-14
55
53
-74
78
-2
62
-86
-34
84
62
34
-15
-11
-5
14
-128
66
-17
-57
-109
62
-1
-43
87
15
52
-88
-71
-76
71
-87
11
-108
72
61
38
62
-46
-111
10
-13
-45
-5
97
-35
-2
5
-76
67
61
50
14
21
90
2
47
70
-75
90
-44
54
16
59
60
-109
3
88
31
-24
-84
-24
6
103
-42
16
-30
75
-43
-4
76
-47
-50
50
4
-30
84
65
-58
0
65
-49
-80
-82
-83
71
-106
-94
-110
-57
-110
-125
-81
23
-73
-107
-82
23
76
-27
-93
-105
-71
-67
37
-49
53
-52
10
-8
-34
51
-36
12
101
6
35
87
-29
-21
73
58
82
-43
-43
-14
-32
-38
-27
37
42
21
-89
77
-54
-60
-58
71
-35
12
-99
20
2
66
17
-72
4
-85
-16
74
63
-64
-22
-53
-90
-93
26
-7
-77
32
71
-15
65
99
-35
-51
17
73
72
-33
-59
-109
75
-24
0
82
-21
-103
-83
-35
-43
-106
-18
16
28
53
-80
-28
22
-79
-6
-26
46
-57
-50
17
32
29
33
98
96
-63
3
-51
-72
-33
-1
29
-30
-59
42
-46
34
-55
48
36
30
30
40
-11
-78
-33
6
24
-45
73
54
-42
23
52
29
42
88
3
-36
77
66
-27
13
-28
-43
-14
73
24
-39
88
84
-75
58
77
-1
-10
51
-45
28
-16
5
58
114
69
27
127
-6
44
47
77
78
9
58
-74
-126
-51
-62
35
-16
3
75
70
14
-56
37
-68
-80
-116
-59
-88
64
-64
-67
24
54
-78
60
80
-5
21
-5
-36
8
0
23
-62
18
1
56
4
75
11
-75
-20
1
-43
-50
-4
70
76
-54
-93
-29
-12
-78
-30
22
-54
-6
-33
-67
61
-1
51
-49
18
52
8
59
-22
78
-68
-2
-43
4
-11
-54
16
-53
70
47
16
-64
-62
4
73
-47
30
96
-19
55
-42
-7
47
37
-29
93
-3
-47
41
-74
68
3
-26
-92
67
-26
-2
-81
-25
-60
-28
83
15
-29
99
-34
-11
53
-93
84
69
59
-17
77
19
28
77
-32
70
77
18
60
-22
-58
36
80
-35
-47
86
-62
-20
84
-62
16
-54
-40
27
49
31
4
-62
48
-44
87
-64
-21
34
-9
-73
52
-33
40
48
59
-12
-25
-21
-48
80
45
92
-62
-74
88
15
15
35
50
3
85
37
-6
45
76
-45
-95
-77
15
-31
9
-31
61
64
16
23
87
-86
-55
84
-83
-37
-48
73
-85
51
25
-64
-28
21
-61
-24
-60
-42
-8
-83
63
0
-75
-93
-58
8
5
-33
-47
48
-24
70
73
-24
-13
-51
-81
77
-74
65
73
-63
-44
92
50
-41
21
-73
-91
-100
-71
-86
-128
19
-94
59
-2
95
-10
-15
-99
7
-120
-41
-58
9
-107
29
30
62
-6
42
-55
-39
-100
-77
-17
-66
-49
-24
-20
69
40
59
51
86
-19
95
-11
-4
17
78
-42
30
15
-52
-4
-73
50
88
25
11
36
72
-103
-19
38
56
80
11
-84
-103
40
47
-25
-27
-6
24
-79
-4
46
77
61
-44
-13
-47
31
63
-26
101
26
32
60
57
-59
-92
-10
-17
-70
-3
70
41
55
-67
-50
-110
-83
0
-4
-13
-20
9
67
88
-37
51
-99
-38
1
-93
-36
-68
-12
40
-67
-92
-52
-106
-90
73
4
7
115
5
75
45
-25
107
22
31
-38
43
-59
-24
58
27
-87
107
41
-45
-76
20
-98
-2
-92
-21
94
57
-13
-73
-44
60
34
-96
82
-8
-14
2
98
0
-28
-54
92
1
22
52
75
7
85
33
-33
82
17
-91
82
72
-57
80
-90
9
-10
-22
-2
-33
53
8
5
-4
38
-72
23
-9
-65
1
76
89
-57
-54
-53
-15
-1
-8
14
56
-16
28
96
2
-21
9
11
-27
5
-57
17
58
92
-27
35
-57
47
0
13
-46
-47
18
79
23
26
25
78
18
-81
-3
-3
2
17
-11
-23
-19
40
69
-43
-7
18
-80
-14
-46
-31
-59
33
-70
-85
-5
46
-8
19
65
52
-10
-29
14
-128
-3
-37
77
-21
41
12
88
116
36
-25
-62
18
56
38
78
-6
-38
44
-37
19
-38
-46
-26
38
-27
2
-45
7
90
-55
-43
-15
-50
-18
-20
-76
-69
-59
-36
55
55
-15
-47
-13
-52
87
16
-67
50
73
45
-57
-32
29
42
-69
85
55
-69
4
62
77
-49
10
-68
36
-78
32
61
42
89
70
45
86
29
-46
106
-43
-55
42
-52
-8
35
45
-14
-12
92
59
29
87
75
-32
43
4
-39
36
-27
1
-1
12
-16
29
92
73
26
-48
28
82
-40
-88
-6
-52
-66
127
71
-28
16
-5
-30
-48
-3
45
16
21
37
-35
-1
-47
7
-22
52
-71
-4
52
-91
76
-31
70
52
-63
91
12
44
-52
90
19
-77
-89
-8
-55
-83
77
-66
105
-23
-49
-23
-66
-59
-44
-60
-42
-60
98
75
4
-36
-20
-55
2
-59
57
5
-30
40
-31
51
-51
73
-66
27
-23
12
-33
30
14
-32
117
44
30
-16
17
15
-12
31
17
36
-57
-38
-68
-14
-9
75
14
91
34
2
-89
-5
53
-50
33
-67
-50
-97
62
105
9
6
38
-63
-50
73
-31
-79
38
53
-121
-52
-43
-54
-63
-5
85
43
-80
-21
95
49
85
25
-26
-70
-14
-53
70
-43
-78
-23
-100
-65
52
65
98
-72
13
-52
5
45
21
61
59
1
-67
-103
35
-127
-33
-53
14
56
-7
68
-60
-55
-5
-70
-88
23
26
5
66
55
-54
56
-33
72
-58
8
-87
-39
-1
26
-24
-40
-69
25
-103
-100
85
-47
67
72
6
-31
33
79
77
-58
-51
-23
67
-20
45
-71
-87
-91
-29
4
81
51
-48
74
62
5
-36
27
-3
22
63
-19
66
26
-80
5
-35
8
-57
33
35
33
-37
-104
63
-65
-38
6
-25
-115
10
24
72
42
59
51
-24
-11
-44
43
67
-102
-44
57
71
40
44
56
-26
-91
64
-52
28
-10
-77
56
-22
71
54
-20
-21
-36
65
47
-73
90
-21
67
-56
-51
23
74
-23
92
68
17
-48
37
-73
-89
13
-84
38
65
35
95
-27
-34
74
-24
33
-24
96
-72
-83
9
-60
-86
-71
20
25
-66
87
-102
-84
-91
16
53
-50
15
-23
17
-18
-78
44
-64
-50
-31
18
-59
47
31
-76
16
18
-103
22
96
-113
-86
-93
23
57
-82
57
-92
-43
-40
110
53
-98
103
-21
51
-57
51
-90
-112
95
-26
-125
118
-70
-3
81
-69
-69
-74
-74
1
54
-60
-86
-115
-50
80
20
86
80
39
-82
83
45
-70
-89
40
123
-76
84
-74
-85
109
-56
16
85
120
74
-10
-47
-35
-73
102
114
-99
-111
-89
-67
-95
-44
-30
80
22
-58
-21
-117
-119
-102
89
-5
-123
-10
70
-110
-69
-27
16
114
-118
31
-102
-45
85
-16
22
-86
-76
-110
34
3
92
-120
72
-106
10
-69
43
-95
56
-116
-8
38
-9
-95
8
70
57
-105
42
-110
78
-9
-12
-77
-78
123
121
-24
-60
62
32
-49
-16
-62
-19
-92
11
-61
41
-114
118
86
-61
-22
106
-3
79
-122
127
-66
-111
45
-76
-76
88
99
11
72
48
-24
31
35
-28
-102
91
71
0
-44
62
-66
-57
6
13
-73
62
55
-50
1
-76
62
-71
109
37
-125
-5
52
58
-78
-27
75
-32
30
-42
26
-96
23
77
-111
-122
-122
-102
-12
-15
-76
-117
-113
39
-111
-8
31
5
112
-91
-94
-49
38
-71
-31
-68
-3
-61
52
-54
-115
-62
-125
-29
-98
92
-122
-60
25
-5
-37
-65
-124
-127
-62
-54
50
25
-85
-113
-3
-67
11
3
95
72
18
-112
-51
-25
62
49
-69
-8
56
71
-55
27
-29
-35
22
-39
-56
-113
12
-73
13
-28
-52
-1
-107
-58
29
-65
-57
71
89
61
30
-59
36
19
-1
34
-57
1
67
-28
-80
-23
-99
-48
-60
-50
31
-34
-52
84
55
57
-10
-61
-62
72
-22
-36
2
-40
-48
48
35
-45
72
-84
-48
-34
25
36
9
82
-32
14
71
-104
65
-35
18
40
50
53
50
0
-51
-52
34
-32
-18
-71
-53
-14
-46
-11
25
47
-78
-43
50
-61
-74
-15
-1
-5
79
18
62
48
29
30
-39
10
30
-37
19
26
15
30
37
-15
58
3
-21
-10
-57
-60
44
-73
61
40
-58
-21
-8
-11
23
-14
-80
-27
-39
60
80
-48
-37
41
-42
-38
-57
-60
-19
54
4
-54
51
7
-23
-46
25
6
-27
60
13
6
18
40
57
72
72
1
-14
18
-28
66
65
-102
-2
30
-38
-53
-41
30
-21
-73
-6
23
-97
-10
116
79
15
22
47
-2
6
-20
-24
-46
55
19
72
-1
-12
68
-14
109
-68
90
91
69
-45
9
-27
85
16
-12
-9
-78
-39
-9
14
-4
125
-34
18
64
127
43
30
-34
25
108
-6
-44
-47
-64
87
94
60
-19
31
15
74
-76
52
-62
-8
-78
-93
52
-117
-29
-38
-45
28
-70
-58
30
62
40
-18
-43
-38
25
11
23
59
0
20
16
-33
1
-69
-10
-4
51
-50
-5
-63
-76
-73
53
-24
-38
72
-20
-36
81
25
-79
-28
67
-57
-76
1
-39
-46
-69
-51
58
23
-32
-64
-13
-17
-3
8
-51
-31
45
20
-53
-35
68
-43
63
44
-12
-21
-45
0
-1
-16
58
-30
84
-45
50
-52
108
-17
8
-15
79
-3
-26
82
38
24
71
86
58
-32
-3
14
-16
1
-33
20
-37
-31
-57
-47
40
-28
-70
-18
-48
-26
-28
61
-42
21
13
-73
3
-91
12
72
25
67
14
-30
-15
2
-31
-26
81
-35
-84
14
-98
-6
-19
10
31
13
34
21
65
71
-46
68
21
-26
49
18
-72
5
19
-30
13
93
-1
46
1
44
-63
-37
-67
-55
36
-20
-128
23
-4
-84
-54
-38
-26
-7
2
-17
29
-25
2
48
-30
70
57
19
-50
43
-3
-26
-9
43
71
78
-42
27
-4
-50
37
34
-8
43
6
62
-50
28
-54
0
63
78
77
-12
61
-28
-43
-64
4
-21
-58
78
-3
41
-50
84
0
-13
51
75
-2
16
44
-38
-66
-57
58
85
-60
27
36
39
6
42
6
-54
-8
29
52
-70
-34
37
-19
-86
-36
21
29
67
61
25
-55
33
-13
-80
40
-13
-66
-113
100
114
71
21
18
37
97
-100
-123
-81
-123
-6
-115
85
-3
-41
-65
22
86
91
-63
-103
-115
34
-119
77
-122
-110
-30
-82
-89
97
79
-23
80
78
125
-67
90
-126
-8
-6
-19
-61
-94
4
55
51
24
-59
-113
-22
-25
-6
94
-77
60
-95
87
16
45
-106
67
73
-111
-80
-84
-26
-45
-19
72
-91
-43
31
127
-3
-47
114
-60
109
-116
-108
-80
-82
-123
-72
52
2
-120
-83
-71
-9
-98
28
-109
-93
124
-121
23
-25
-106
-25
36
-50
-122
-89
53
-86
-92
-71
-61
-83
-86
104
-43
73
-108
-53
-62
-93
-30
29
-24
122
-71
-34
-18
-93
-108
27
-18
44
56
-17
78
53
39
-30
-61
-29
-39
-40
-83
-86
-15
73
-87
-109
-4
106
-58
50
-37
-40
103
73
121
76
104
74
23
15
98
48
-40
72
-29
15
-99
57
-120
-71
44
93
51
-12
36
-98
26
90
20
98
42
90
-94
88
71
65
-70
103
66
32
-44
-78
-126
4
-60
-103
94
99
5
70
27
99
-97
-71
84
-51
20
-60
-68
-61
66
-92
83
-52
-113
-124
25
-112
53
32
112
-115
20
23
74
121
-71
60
-15
83
-57
-15
-33
-113
88
103
87
75
36
-92
-2
43
105
-23
-59
106
-78
-121
-37
-111
79
-25
-73
58
-31
-83
14
-25
23
-48
-63
34
-72
49
96
-72
-20
89
102
26
-32
9
-46
-10
-58
7
-47
-26
-24
10
62
47
127
-77
-37
87
-66
40
-34
1
11
-62
-83
97
11
-57
47
39
9
52
-55
78
12
-100
-19
40
15
23
-19
-27
20
1
-98
42
-6
-26
-32
-72
33
-68
71
18
63
-69
-74
23
-6
-3
-5
62
25
-85
-29
-80
-126
-23
26
-109
18
-7
10
-11
34
56
36
-26
82
27
38
-81
-18
3
0
88
55
-91
97
6
46
16
3
32
24
47
-26
121
6
-52
100
108
-95
-51
-49
-51
-58
47
3
97
1
63
97
29
-33
43
-16
-35
-95
63
-53
79
16
17
37
-14
99
-56
88
4
105
-91
60
-25
-85
19
46
32
-34
-32
5
34
15
8
44
-54
-38
19
45
-72
79
34
-94
14
-66
-1
96
-57
-30
-97
40
-49
-51
-25
18
-14
-57
-119
-74
44
-92
-6
53
-10
-106
-67
-112
-50
0
3
66
-65
-58
73
96
-73
-74
57
48
-21
-26
-94
-54
103
46
-65
40
20
-10
93
-91
42
-95
19
78
27
-102
-107
17
10
38
47
-50
25
-91
-96
-24
78
-24
-38
-41
68
26
49
-14
57
14
62
-65
-82
75
-83
21
36
90
-75
91
14
-56
55
53
42
9
-8
5
29
20
11
-25
-56
-85
53
-59
-62
56
-5
56
56
-23
29
-61
14
-28
18
32
43
-44
-40
-10
23
31
4
13
85
92
41
11
36
32
25
50
-19
41
-34
46
-19
47
21
92
-26
42
-13
-75
40
-77
53
72
-15
4
58
-33
41
21
35
-53
40
-8
95
-25
-4
-46
67
111
-34
-3
9
44
18
4
65
75
8
-10
-69
19
44
-34
-21
80
15
-67
20
-37
127
91
-31
81
-50
45
56
-1
-3
6
-47
55
-76
-16
-54
48
-69
-68
15
-45
72
-20
-50
-27
-34
1
-6
-62
38
-76
29
71
30
-28
58
-56
20
-31
-26
38
30
51
71
35
-78
65
15
-7
61
-45
-19
-64
-29
21
74
22
-5
-19
54
-82
-59
-63
22
-21
-30
-52
57
-16
-72
12
70
37
-15
71
-1
43
-10
18
-2
44
53
71
-4
43
22
38
51
41
38
55
48
-30
-13
-10
-7
32
-27
2
115
-4
8
-49
-46
-1
51
16
-20
-19
49
-74
21
-35
38
-17
66
8
-30
65
15
94
-24
-33
63
15
-74
-39
-14
21
-32
-29
46
26
35
-69
69
-6
84
27
-41
21
-61
63
45
41
-49
-34
-75
-61
-67
-25
-34
21
-7
48
62
-88
-35
9
-13
-18
45
13
-24
55
36
-61
-84
112
-51
89
-82
-54
60
89
-87
73
-58
104
-64
1
-18
-42
-29
3
-70
-119
-84
-90
-20
71
-83
-118
-9
0
53
-92
83
-35
97
7
-126
-110
41
65
106
-86
-34
49
4
72
-104
-91
89
6
122
-6
-44
-80
49
104
-110
-128
117
61
1
-115
-10
-71
-40
114
-75
-124
-82
72
62
60
15
91
66
-67
-61
-65
-78
-54
82
-121
-52
-71
4
-12
110
119
-95
66
117
23
32
82
115
49
-94
55
-126
-105
-48
-79
-20
51
-36
-82
3
14
-72
-39
56
-111
77
-34
-3
-3
80
-98
-125
-44
83
-113
41
-94
-106
-18
35
108
-123
-33
44
-61
-68
-125
-34
-103
-9
-120
-99
-107
118
13
48
-73
-69
-76
107
-66
117
57
-35
11
98
-57
-16
23
2
-97
3
-92
38
14
-118
22
71
-125
-67
50
65
-14
52
18
19
23
-121
-35
74
14
-67
-116
26
-3
-86
60
101
-44
72
-41
36
-113
117
-27
104
-14
-110
77
-94
63
70
102
16
-109
45
-33
62
55
33
-113
-92
35
1
94
69
-73
-93
-110
-65
-85
33
-86
81
-79
-84
75
54
-96
112
12
-28
-113
75
-38
-72
-33
-52
21
126
96
-47
89
80
-22
-60
-110
26
-22
89
49
-8
-95
-78
-72
15
-87
-3
-79
-5
23
-44
-39
96
-11
100
67
0
102
53
-6
-65
83
79
47
30
0
-58
-108
40
-64
-65
79
-16
-73
18
55
-128
-66
68
37
67
0
-74
-16
52
53
-43
74
42
-73
-13
-84
55
92
-26
93
14
-7
15
1
-31
-51
-55
45
-54
70
23
46
-82
-46
35
54
-42
-6
-58
54
85
10
21
59
-13
68
-8
10
46
49
-49
-80
71
22
0
-70
-53
70
8
102
66
47
-36
-45
-75
61
-8
69
-23
23
-70
-21
-43
65
88
-77
48
-6
-3
-13
-86
-89
-90
81
-86
-9
-16
76
28
98
53
68
-44
1
-26
-24
-88
-42
76
-72
11
-52
12
26
-74
-60
-16
67
31
66
-17
-32
-87
23
86
-42
-15
11
66
58
-4
28
66
-36
15
45
-73
-32
58
11
-77
83
49
0
-36
-1
45
91
80
122
64
21
63
39
33
-27
8
45
86
-60
-11
72
99
-33
34
-30
-10
87
8
9
35
11
7
54
75
-16
-25
61
84
59
-20
-7
104
36
-83
80
22
-42
-54
-2
-17
-18
67
-68
-9
-77
34
-62
93
49
5
-37
33
85
-48
-28
-80
96
84
-14
65
60
-1
106
-51
60
-57
86
-29
-68
45
53
43
85
47
-20
-6
-4
-7
117
-30
8
83
6
52
-49
56
26
62
-42
80
-86
-35
0
60
11
16
-41
29
-43
-25
-84
-46
59
-86
74
8
-101
-46
-103
-90
-8
81
-79
-62
-36
-44
-23
91
76
-37
-87
56
-6
-16
-15
-82
-34
-63
47
-83
-37
80
34
72
26
-28
40
-1
-56
-58
44
99
-61
4
-74
24
-84
-32
-57
56
-80
-64
26
50
37
-64
-83
31
16
-113
5
-26
-40
-45
12
-66
-127
-8
70
-5
10
73
-80
-21
-43
-54
-28
62
-75
-72
17
-24
-79
102
40
2
-6
-59
78
72
9
65
-64
88
-63
112
-55
-33
-17
-59
-7
17
-73
81
101
-52
-48
102
11
-17
79
-51
-79
-9
-25
3
-48
-59
96
-75
27
37
-7
21
-35
73
6
28
42
104
7
-53
111
39
32
78
18
22
-78
47
79
2
-84
16
27
68
-11
-80
-20
68
86
-23
-52
-71
42
78
-63
-46
-69
29
-7
119
-10
68
-96
97
-95
78
41
-4
-1
-27
18
-15
-8
-59
87
-17
41
10
-70
-15
-59
-8
-72
-82
25
-67
-54
-18
-64
-104
28
-112
48
28
94
97
69
89
3
-75
102
-6
-22
-48
48
-8
25
-19
-91
98
46
-97
-11
-49
-42
43
-98
-64
52
13
-57
0
-55
-28
-31
-68
45
-63
69
87
-77
-23
43
19
-68
5
-55
97
56
87
-43
-51
-68
9
32
-60
23
-55
85
36
7
12
74
-31
-27
40
-73
-58
-16
-105
48
40
-32
45
-29
-14
-32
-103
41
12
-36
-84
16
-21
-21
59
-29
75
-2
48
-85
-23
14
15
19
-3
-46
-31
79
43
23
-14
50
29
56
72
-27
74
-15
62
-45
-4
-67
45
49
-76
63
-8
-73
8
-50
-75
-16
-27
61
-19
-19
-70
-33
27
50
-27
7
48
46
-22
-69
-33
-47
64
27
-64
61
62
82
40
4
-57
-53
-21
63
30
37
46
-55
65
18
74
46
-2
-43
38
-22
38
-63
6
26
30
2
-67
-56
31
-70
-13
-47
-7
4
-9
44
-3
-70
-22
63
45
-44
18
-69
-7
14
-30
-28
47
72
39
-2
55
17
76
67
30
39
-2
49
43
-3
-4
5
65
99
49
54
-52
-77
33
46
-81
60
12
40
-13
-70
-59
-30
-84
-67
-71
21
-61
-52
20
33
-79
-60
-56
-50
13
-62
-97
-128
95
-80
-102
-87
-78
5
-54
30
45
12
-7
-49
26
-51
3
-47
-12
46
-25
-19
30
-35
23
16
71
18
58
-48
-44
4
-10
-50
46
50
-55
69
22
39
6
-43
78
-66
63
-64
-35
-4
-68
-73
14
74
62
-88
-59
-44
-89
-87
13
-17
-24
-40
-46
-41
23
90
36
80
53
93
17
93
44
44
-7
32
-48
-46
19
-37
-51
-40
62
-39
96
76
-38
-16
33
-7
9
53
-34
-103
-87
65
48
-42
80
-25
28
13
-88
-37
-62
-61
30
-33
25
-30
-49
-20
45
51
-12
23
-14
57
-20
47
-25
21
-40
-50
-54
49
19
63
48
38
67
-90
-18
-95
7
-80
24
-56
-100
-44
-84
-11
15
17
31
-9
-31
56
-35
-48
-73
-74
-53
-73
82
9
-51
59
-20
41
33
17
-84
-8
15
33
29
22
91
14
-25
67
-34
-61
38
56
59
1
75
-21
58
24
64
65
-72
104
-18
72
-76
29
-66
-46
-29
104
10
-32
-94
80
-15
85
45
80
27
-63
64
-57
68
55
78
23
-63
64
97
-48
-77
10
46
-30
13
71
-30
69
59
-57
-52
65
14
48
63
-44
-91
-43
-62
-31
-10
73
44
-85
25
-73
61
-35
-58
-88
-64
-79
-13
11
44
70
8
-128
50
63
73
38
-48
-41
44
-67
54
91
12
-49
90
45
17
-11
-65
87
23
-2
-65
-49
24
58
78
-1
-34
-73
85
-23
-33
-66
34
30
-5
77
-14
6
-67
-24
-40
43
-6
-79
8
-48
-13
20
22
-57
-51
-3
-40
35
71
54
-68
37
63
-29
-38
-20
-38
-61
-1
-79
38
80
5
-65
0
-68
-75
-1
-30
59
29
23
27
56
-66
-12
-16
-48
-33
58
-67
70
87
4
-42
-14
-1
-37
-5
2
-46
88
6
52
-14
60
-31
41
90
111
73
-2
68
40
36
60
76
56
105
7
-26
64
72
-41
-17
116
19
-8
6
46
-32
-17
-17
46
-83
-88
7
49
34
-58
53
65
-47
-117
-78
-2
-61
39
33
127
52
9
67
127
35
46
89
108
14
22
59
-61
-12
7
16
41
-44
28
44
3
11
-40
-80
-14
13
-17
25
-2
25
66
21
69
-34
52
3
-66
-61
-13
11
-15
-82
45
58
75
32
4
36
3
59
31
26
18
41
32
-37
11
48
-52
77
-50
-72
64
23
-82
50
68
53
-52
24
-22
30
50
4
-81
-28
71
17
35
51
74
66
-32
55
-39
77
12
-14
29
52
-28
-77
-45
39
8
-22
-53
71
9
-23
-50
4
57
69
-5
37
-35
-19
85
32
-58
5
-88
-70
1
0
-88
-49
13
-59
-67
72
61
-82
25
63
-55
4
-53
-36
-2
14
-67
-18
-54
-11
-89
97
-45
60
48
-31
43
34
48
-48
-6
-64
-68
39
-60
41
-40
42
-46
56
37
-84
59
-94
-51
-25
16
-34
-24
-59
-47
8
-1
-26
-7
25
-64
-68
-49
-75
46
30
39
-82
-62
18
-74
-63
34
-3
-66
-27
-25
17
50
-90
51
8
27
12
-106
86
12
-40
22
-87
-84
-38
75
-11
-29
-28
98
17
23
37
-64
-27
-61
-105
-19
-3
10
-65
37
-42
-74
-25
-111
25
-24
73
52
113
99
20
26
-6
69
-34
23
55
-58
6
7
13
-104
20
46
-45
-23
-33
45
-94
-65
99
44
-27
80
-53
8
108
-26
-25
34
-16
84
-24
-48
19
-100
41
-99
20
-25
33
-86
45
-65
-52
-46
37
40
-110
119
-50
73
14
-102
104
88
-55
66
55
56
52
-59
7
86
14
61
-12
29
2
-33
61
-1
-60
-11
-7
44
-88
-66
-47
108
45
-15
56
70
27
27
90
-77
26
34
-38
-37
70
-46
-10
-99
-105
-16
51
-69
26
-23
12
-62
49
-27
27
6
-16
-105
72
31
68
-36
-3
-47
25
57
-84
-3
66
98
98
-34
-46
42
-50
81
56
-20
-73
48
75
-18
70
89
-43
-35
-63
127
42
73
60
-102
17
-52
-56
17
-51
-8
96
-41
-63
16
48
26
-41
-67
-6
70
92
-61
-11
11
-51
20
73
64
25
-30
11
-31
-49
-77
-16
15
-22
-79
62
72
44
20
-30
-87
-43
-64
-17
-82
-9
-52
-23
12
77
39
-51
22
9
58
-59
55
-7
54
70
65
-33
-84
55
40
0
-40
-62
10
-25
61
39
-51
-65
58
22
-37
-40
97
-49
-49
-64
65
104
52
-68
-19
85
15
10
-19
-34
127
73
-30
20
38
73
54
28
7
36
64
3
3
30
83
30
27
42
-5
59
-44
-11
-8
-2
25
69
-51
14
28
-59
13
64
60
55
-36
33
82
4
-53
56
60
-30
28
82
44
-59
87
43
-45
-36
74
-15
37
80
64
-95
-22
24
62
33
55
93
-20
-12
35
-51
33
22
-76
-18
-26
-32
-76
72
-8
-57
72
-23
-33
24
72
21
48
44
-54
33
43
-34
-4
43
-24
-63
-36
-39
-16
25
-61
18
92
54
21
2
26
-58
-42
-43
-71
-83
51
-53
81
62
-79
28
-28
-73
-21
56
-85
44
39
16
4
101
-81
-73
35
7
108
13
-61
105
56
28
75
3
35
-83
82
52
70
-28
34
-25
62
-4
9
-52
49
80
-47
60
54
-24
-40
-23
44
9
-35
-100
-56
-33
12
-40
28
-52
68
54
-61
30
13
28
89
-46
5
67
-1
-73
31
-37
68
51
52
69
-24
-43
68
88
71
88
88
-13
70
68
-8
-75
-54
-21
71
-62
2
44
76
44
64
50
19
30
4
77
-30
-64
-86
39
-74
33
50
68
83
-64
-30
-26
-25
-70
-17
8
51
-101
20
30
-51
-61
-17
72
8
4
-52
-64
-66
-51
-23
3
-60
-32
-45
40
81
-60
80
73
-42
48
127
62
112
6
3
-59
-25
37
-67
60
60
33
12
34
69
9
21
-71
-10
76
-59
-2
43
-68
-40
-52
-62
62
41
-57
16
29
3
66
-3
79
35
29
51
-36
-58
-56
-17
7
-22
41
39
-26
12
-51
21
23
-23
-44
40
43
68
-19
34
2
-13
70
23
15
29
22
-5
44
69
-82
7
43
42
-20
39
1
-46
55
-7
60
-50
56
-33
2
-27
43
30
-23
49
34
35
9
-9
19
-53
51
22
-5
69
-43
10
77
-35
5
74
9
-4
-33
69
-33
20
45
27
13
14
0
-76
74
-56
-42
-56
-16
-4
-27
-86
22
-9
-62
16
-62
19
89
-48
-20
30
-54
4
-17
87
27
88
58
35
-44
37
80
28
57
85
-29
23
-29
-27
14
103
37
-23
-36
42
13
55
21
-21
58
89
-28
-21
-10
-37
-12
11
-80
-74
5
-50
-44
-34
4
-55
-32
-49
26
-48
-48
-15
-22
51
65
9
-48
-20
64
8
-54
4
80
21
-81
-79
52
-37
18
8
-6
-48
79
27
-21
-66
-63
-59
-63
5
-2
-83
17
53
5
-94
59
38
-60
27
-23
-51
-18
49
-3
47
77
-60
16
11
-15
2
44
16
65
-90
11
-79
103
86
-41
3
-59
-79
-72
24
-68
45
114
-87
42
118
66
-38
32
-38
76
109
65
-20
-58
6
30
37
50
-37
-69
-57
41
86
79
-90
-26
-55
-9
20
-15
102
0
14
9
49
4
34
-63
88
-73
97
20
63
85
48
-67
-33
11
-57
-25
10
30
127
90
96
38
64
53
-29
25
95
65
101
0
42
15
-85
14
-50
13
-91
-47
-37
-41
32
-76
-77
29
-4
-53
-59
-14
-65
-77
-17
-30
42
43
29
-16
-24
3
-85
-58
-78
3
24
92
101
-70
-65
35
32
-50
28
-41
12
-9
1
-44
-26
-84
33
-25
92
18
47
32
-66
-71
16
16
30
42
-6
30
-61
-63
-44
-18
71
-7
105
111
86
89
-44
109
-79
23
95
69
-14
-57
59
108
53
25
-32
0
36
4
-10
104
87
-40
83
114
3
-56
-46
-11
40
20
78
34
-62
-38
-76
54
-92
-73
102
-121
34
-18
-15
-4
-7
-71
-3
53
14
-65
-17
53
-30
20
50
29
75
75
-26
84
-83
49
-56
-56
11
60
-16
42
-61
98
39
-4
18
28
-39
86
62
21
-44
-9
33
102
23
-36
-54
8
43
-12
42
24
-9
-17
88
89
69
-12
21
7
-34
4
33
-89
65
46
-62
-108
-61
2
-98
-104
32
-57
50
-56
24
-75
39
-73
58
-21
24
59
70
1
-124
-37
87
-19
-73
-1
14
25
-40
-47
-102
54
13
-63
-35
-110
19
64
53
6
21
-89
-51
65
4
-94
-13
10
-22
11
40
22
-28
35
30
-38
27
-90
-88
-36
-6
14
82
-26
30
-21
60
-71
59
-42
-69
-128
-26
-25
21
-67
11
-51
-56
29
66
-100
8
78
-28
52
-15
41
74
42
-31
93
32
89
83
94
-10
2
74
37
62
-38
41
72
94
59
61
-27
98
-27
-46
59
-82
59
-2
-95
-45
-73
-56
-7
14
5
71
71
42
-95
-92
-36
-71
39
-24
52
65
-85
89
-15
-49
25
67
-79
26
95
25
103
0
59
89
-27
73
1
-5
25
-6
-73
54
47
-63
45
23
5
-79
7
23
36
87
72
100
-105
70
28
83
-54
-45
-123
46
111
-41
30
-98
55
-9
-52
-22
-3
4
-95
-64
34
76
-11
65
11
69
73
54
17
-36
-107
45
11
36
-100
97
12
-4
30
-82
-61
-8
-35
21
8
-46
-10
72
57
41
-87
-5
85
88
36
75
-40
-43
102
-77
21
-50
-38
-28
-85
-67
-51
84
60
73
56
45
47
37
-87
-94
-68
-77
-24
-29
-3
-77
-90
-55
-101
25
-1
-25
-26
92
25
57
-27
68
-16
-73
-7
11
-56
-78
15
-36
55
-53
-99
24
-32
-58
26
-82
-20
-64
-109
-64
40
70
17
54
-109
-38
-16
38
-42
-4
-31
65
44
-64
-27
17
2
-34
-23
-110
-54
-35
-10
-99
-107
-3
17
86
77
29
57
82
1
91
36
75
99
63
80
-44
66
-23
-116
-49
-4
-60
-68
-1
-107
-57
-89
-89
-123
49
-52
-9
-74
-11
62
-52
0
30
-71
-17
-45
-27
-105
-74
37
-56
-88
-91
-37
36
-86
39
23
-13
-19
7
-6
19
-80
-3
-77
27
-23
10
25
49
-33
-8
-26
-29
71
-24
-88
-102
-4
-47
-75
-83
-45
-49
96
-37
13
92
58
-70
68
-70
21
27
-90
55
39
81
11
63
-47
93
-48
10
-18
-3
-17
39
-106
19
-81
-49
44
37
-28
7
31
33
-9
27
60
-100
11
37
58
20
-6
-48
-3
-105
27
32
55
14
-5
83
-68
-3
-7
-24
1
15
-127
25
-8
66
-40
-63
40
75
-80
70
-74
-29
28
51
-78
77
-86
73
-39
48
28
-83
-67
-46
65
76
-79
-15
-50
13
-91
-70
56
27
-18
-36
51
-10
-12
-85
-54
78
-77
-56
32
-45
-86
35
-73
23
50
-49
2
93
-2
-7
-99
-11
-90
75
-68
0
-77
-78
-62
49
-22
-64
16
-77
35
18
-13
-11
-36
-60
-65
-10
53
83
50
64
-126
-40
14
-21
38
25
25
41
102
66
63
71
11
83
-66
-85
-56
58
-55
51
-15
-119
70
65
70
-19
30
-16
-16
-45
-93
-28
-76
-66
18
-51
-44
51
113
59
33
-7
10
-97
-91
-53
-25
38
91
-81
32
100
40
-14
18
91
-4
-52
6
-18
-43
98
-5
123
33
17
29
48
113
-39
112
19
30
-95
56
32
-26
58
39
-83
-65
-111
38
-45
-91
1
-75
45
-36
-72
-90
-93
-2
-25
24
4
54
22
72
-90
32
99
-54
28
-28
-48
121
31
-85
-36
-17
-91
-76
-122
-59
105
-1
-76
38
-93
-78
35
108
-57
34
93
87
46
-75
-82
-62
25
8
-35
57
-86
50
75
-76
-37
-100
57
-56
91
-64
37
49
116
34
-41
64
115
37
-6
54
40
108
112
-27
3
-55
-25
-125
-81
-51
-2
-35
18
75
-79
60
-39
33
-111
-113
-60
-74
-116
56
34
-31
-84
-37
38
-61
-111
-128
-99
-44
-53
60
-115
17
-6
-22
-34
61
104
-38
-13
81
-62
92
-56
81
-93
54
-45
83
76
44
110
113
31
-110
82
-3
19
55
-34
-67
18
3
52
101
-49
18
-8
37
2
34
-89
47
-29
-8
101
76
83
77
102
-31
45
59
-28
61
-52
68
44
-51
4
-68
45
76
59
-26
-26
-53
11
73
3
39
55
44
27
11
-29
31
74
-36
98
13
-22
9
12
-72
-9
-16
-23
60
-66
-47
60
57
-69
40
78
44
29
20
-30
2
58
63
55
32
-59
9
-24
-1
72
-72
57
53
-81
-58
-70
47
16
62
64
34
104
17
96
-26
-41
27
-7
30
-27
-2
-31
3
-4
78
11
6
-57
-63
68
37
69
43
80
63
94
66
12
67
14
2
70
-2
-52
20
-36
-59
42
-18
16
52
87
-72
9
1
-56
-27
60
68
-75
-55
66
-13
-35
-24
42
-33
-9
-11
65
48
-78
-65
30
1
-57
1
56
31
-17
45
1
50
-2
82
3
-77
-81
-88
-86
-45
39
-9
84
86
-40
87
86
-39
35
9
-38
-64
29
-35
16
75
65
-19
43
-19
75
-8
31
19
62
81
-28
87
56
56
13
37
-14
-22
-80
37
-17
45
30
14
-42
20
-66
-80
34
-76
47
-77
-60
29
30
-16
-61
75
-16
-67
52
-22
92
3
22
127
91
-9
77
-88
-33
54
-65
48
-40
0
-62
-9
68
41
4
-21
38
54
-83
-71
44
-31
5
-30
6
92
-67
70
45
-68
67
-6
44
52
67
-34
27
26
50
-43
38
12
78
58
12
1
-8
-89
-88
51
-3
-6
31
43
95
-88
42
-40
92
106
-16
38
39
-12
28
-112
-45
-75
-70
-120
-18
-112
85
-22
13
53
-62
49
-66
3
37
67
5
-14
10
62
8
54
-52
-98
-67
-95
31
29
67
3
-96
43
-41
41
23
85
53
8
37
89
84
35
17
31
36
47
63
85
-64
-46
66
-53
-36
-44
-4
97
67
22
-50
-41
70
-51
-50
73
31
3
-20
32
1
-76
-49
-2
65
-33
-119
-13
19
-30
-72
22
16
-84
85
29
-26
-51
-61
-65
-93
-27
3
118
30
-39
84
-14
-13
89
-27
34
-40
-2
68
-72
87
90
-84
-26
-44
-90
74
-46
40
-77
-70
91
49
13
0
95
93
-22
-90
-59
29
-64
-55
47
49
-85
67
-47
41
28
-91
-49
22
-70
-26
-22
-55
53
-76
87
-4
-72
-5
-49
31
76
20
-27
-54
37
54
11
-81
-3
65
-23
88
-6
-23
10
60
-44
-28
119
80
-28
-3
81
41
70
75
44
22
-77
19
11
-75
45
-85
-57
10
-91
56
72
-54
-96
-65
5
53
-99
-93
1
69
86
-57
41
-15
-35
47
-11
8
98
-86
-128
-97
-37
-35
-77
10
97
69
75
-62
77
58
-91
47
-25
50
5
76
-37
58
-16
111
-26
-3
-57
-21
76
-66
-26
-46
98
-15
-27
-41
-28
-28
1
27
24
-27
-27
8
80
-75
103
21
-80
27
-39
75
-12
66
-60
27
-69
33
25
-12
-57
-9
-84
25
-72
-101
26
57
11
-27
65
72
-27
67
-59
-56
-42
-90
31
-65
-28
29
86
-20
-45
-24
-52
78
78
5
2
-63
-13
51
90
-68
69
-1
-45
80
19
54
-65
-22
-32
62
32
-9
-39
-93
-128
-5
-4
-86
118
19
27
91
-3
-23
-58
1
-78
44
-66
73
79
76
30
-70
111
-47
-38
3
46
-52
44
-43
103
38
-57
-22
8
-15
-36
113
36
-39
-84
-7
-26
-24
-96
-18
98
-33
34
-39
29
57
-75
75
-6
-77
-44
-6
35
-4
-46
-11
-72
80
48
-71
93
-54
-24
1
-78
0
2
87
-2
-55
37
101
-61
-95
-65
-28
-77
60
37
31
77
58
21
28
23
82
-39
10
-62
4
6
-20
-39
98
64
-3
-79
-30
23
33
22
-11
-9
-52
-100
93
-53
-60
-41
18
9
20
47
14
-61
58
95
-78
-60
15
68
15
-22
29
-3
38
43
-36
-77
-9
-19
-83
43
83
24
16
7
-27
62
-97
73
16
-34
73
-3
44
-64
-66
-61
-56
-68
14
-36
17
29
-24
102
-44
-1
94
9
-6
24
79
-104
32
67
57
8
92
49
-25
107
1
84
-21
-86
43
-26
-70
-58
-21
-16
93
-64
49
36
66
92
53
26
5
4
79
80
-46
38
-15
-74
37
-24
39
-1
79
92
-32
75
92
10
55
-20
76
43
8
-13
33
13
32
-66
-65
-27
91
-8
-32
-17
-24
-19
32
74
51
86
-20
-57
-82
74
-58
30
-85
-13
68
89
-54
20
13
-47
46
32
-20
33
-48
-45
75
-59
-68
-56
-57
-128
-76
31
-84
81
7
93
-73
36
31
7
30
65
55
60
90
25
-24
-9
61
3
82
11
10
44
-87
-64
52
-41
-20
-79
34
57
82
64
108
-50
-27
87
-4
34
-18
-23
62
-22
6
91
-25
-49
-78
-44
-79
8
23
-34
9
46
7
39
-72
18
44
-87
-27
-10
98
102
-51
-42
29
99
75
-38
-65
64
-47
-67
-14
78
49
36
15
91
-10
118
-8
48
-49
-18
88
-62
23
-16
-15
41
-68
-115
16
-14
-107
-94
60
-110
-50
12
1
-21
-100
3
27
71
0
-47
-33
11
74
-46
-10
104
92
16
-16
82
5
-24
103
34
6
32
96
23
92
-32
-60
61
78
-31
78
-11
28
84
22
-70
-3
-30
-1
29
-37
29
23
-8
-8
21
23
34
-31
55
41
94
90
-61
-12
54
-88
-19
22
-40
-49
44
-28
0
31
-68
32
-32
40
33
-96
-128
-101
34
-80
-15
-84
-60
-5
-92
-62
-61
-38
20
-55
-14
-93
26
-39
42
48
27
62
-6
-64
-90
-61
-11
43
62
-1
-55
31
-70
35
-65
-32
-100
-65
92
15
-94
-78
19
36
22
21
-30
-48
-59
52
-4
-4
56
3
27
45
-17
-53
-56
42
-48
41
45
-83
54
36
50
-51
-53
-80
-58
-4
-64
32
-50
-55
-33
-60
-56
-8
-3
-10
28
67
-69
44
42
-10
-27
-37
46
-12
60
-44
-34
83
18
-29
40
-13
-32
-75
-25
32
29
-42
6
45
-25
-61
-57
73
-28
-89
-15
68
56
-19
-12
-47
14
-44
-62
-40
-32
-5
16
-31
-19
-8
70
72
61
36
72
21
-71
79
48
28
-48
12
73
57
26
-19
-101
-18
78
-17
54
59
86
-14
-110
62
73
100
-37
82
90
-33
-32
-46
-44
68
44
41
43
1
66
50
-72
-17
-73
-22
46
9
-21
9
-12
-113
24
-118
-56
-50
27
81
-7
-38
-7
-30
-55
95
-31
89
11
69
35
-92
27
-21
117
101
60
31
5
48
-27
-53
10
42
-17
70
-32
-40
-21
-9
-33
68
-62
-45
-35
41
-36
-39
1
80
62
14
-85
-33
-7
12
-83
3
-7
-15
33
98
20
-18
-56
39
33
-80
-77
-53
58
77
-55
18
85
57
62
-32
27
4
46
33
11
73
-30
95
-25
43
-81
-53
-20
-77
-94
60
-57
46
-54
-67
13
-38
-26
4
-53
-7
87
-47
17
108
30
-40
72
4
-15
34
35
56
-18
-30
-54
-59
-45
85
2
-3
-54
80
79
-43
-65
-66
9
64
48
-9
-75
19
82
-50
19
-49
-72
-79
7
95
-67
11
17
-74
59
19
-63
6
28
51
-39
-2
-114
3
-34
19
-51
-15
-36
81
-39
-38
8
43
-55
-54
78
2
36
-59
74
43
-63
57
-8
-39
7
-76
-61
27
-21
-15
78
-26
-7
-10
94
44
29
-15
6
50
59
-59
-71
-7
46
-67
-1
-49
76
74
26
-27
-32
-48
-1
-44
-63
12
-37
-26
62
39
-51
69
5
23
30
92
43
57
-4
30
53
36
15
1
-33
56
70
-36
-7
-28
26
19
4
50
73
-77
93
40
51
89
-46
-47
69
33
84
35
127
42
41
39
-14
60
32
10
71
32
32
-18
25
8
-50
70
43
42
-8
3
-1
75
-73
-55
-54
-23
-82
-47
54
-53
76
75
15
-11
-37
-81
-72
75
60
-3
-50
21
56
27
-21
-86
-31
-73
7
-49
-30
-68
48
39
43
-49
5
91
-51
36
-58
4
28
-17
2
90
33
-44
19
47
-74
-11
41
34
-44
-81
16
-27
-28
-44
-21
32
62
55
5
40
-28
54
-10
-22
45
32
21
-31
-44
32
116
3
1
-41
-25
-12
58
27
-30
71
6
78
-2
40
66
-71
88
-75
-32
13
27
79
9
8
27
-50
-52
-23
1
64
13
37
83
47
36
8
14
65
-53
4
-56
-23
48
38
61
-78
-114
-83
-68
-45
-53
62
-15
-58
76
-57
43
35
-7
-43
54
67
-25
-9
24
15
-31
-31
-128
27
33
-8
29
-80
0
-105
25
-86
100
12
-2
54
14
56
-77
-23
-87
38
66
-61
-51
77
23
-28
-25
-49
-24
-54
-66
-68
-105
-14
-45
-4
-52
47
79
-81
-35
-9
93
17
-55
46
-30
13
21
-47
-31
-76
-13
-61
-61
66
-81
41
60
-67
-76
-53
-72
-110
-4
47
-57
-5
32
-83
-30
-52
-83
72
47
41
112
-19
-90
63
14
98
-5
-81
51
97
17
6
57
-51
-69
-95
-35
65
10
-65
16
71
120
-105
-17
-50
42
-43
-62
1
-70
54
69
2
-42
52
-40
-46
72
-9
-49
7
-49
93
48
-10
34
36
23
-13
-56
-64
78
7
89
72
-3
-1
64
-87
-55
-79
9
-44
-46
6
8
-81
-78
-40
43
12
4
-60
4
-72
76
25
13
38
98
83
-66
-27
-67
-36
16
-43
46
-53
-25
-72
-36
-21
-6
-77
-31
-35
78
-70
36
-60
50
-74
-42
-48
-97
32
-55
48
-28
98
56
38
-42
-39
110
61
-40
71
98
39
-41
-20
115
-11
109
9
28
-20
-39
14
-67
55
-71
48
-28
-15
63
24
69
0
50
63
-95
15
7
-55
82
-90
29
-49
-53
-74
88
23
72
-12
-102
7
29
-18
40
48
0
95
93
50
65
101
38
71
81
-43
-43
-7
117
50
28
29
83
-10
35
-36
-26
-9
3
127
-66
-34
50
-13
20
41
59
-8
-32
28
33
-97
-65
67
6
-7
60
25
79
-13
-77
48
-44
-71
8
78
41
-1
13
45
50
60
-39
-31
-3
44
-47
-35
41
94
45
36
44
16
83
52
-88
87
43
-4
-96
-17
-80
76
-71
75
-16
71
-84
74
29
100
16
53
33
57
-128
3
75
42
-86
-5
70
-89
-21
78
-25
16
14
87
12
-66
41
71
1
-98
81
-66
-98
59
8
12
2
30
0
42
-52
12
28
36
-67
-6
100
-90
-53
19
-47
-73
-9
85
-83
-29
-12
14
30
88
-53
81
24
-77
-67
-28
88
-19
86
24
-68
10
83
90
44
23
-49
-57
-48
98
-36
41
-45
34
56
42
49
-51
70
42
-5
22
92
2
17
71
-49
-9
-40
-49
-86
-14
-37
-88
4
-92
-87
-87
-68
-42
38
-88
-58
-12
-75
16
42
-8
-7
61
-24
100
-24
-31
-35
26
39
26
-65
14
-29
-13
-83
33
33
103
45
61
-21
91
-73
-4
-50
4
-26
-67
-36
-47
27
12
-8
59
8
-8
-12
69
-54
-31
-67
67
71
28
27
-27
-63
-74
-30
55
-69
-36
42
37
-92
-73
59
19
57
-91
-17
-73
-86
-69
38
62
73
54
-79
11
3
-15
-70
-54
56
12
-75
-55
27
-44
-17
-94
-90
-59
-70
56
27
-61
71
-29
23
-49
-37
22
62
-2
85
43
-67
2
-24
59
-34
13
-96
-84
-8
-9
13
-4
5
56
-40
40
-26
103
-27
-58
79
84
10
-7
71
75
28
-16
-19
-2
-40
24
73
29
-11
-27
101
-54
82
39
-54
-90
-49
-64
-9
-61
67
-66
-60
-40
-52
-35
1
37
35
37
-41
-46
-21
-34
50
23
-63
106
27
122
-32
-2
43
-27
-88
58
-10
42
34
-44
-25
17
-35
-71
88
66
-3
36
-6
83
51
73
-56
77
24
-47
-5
-17
5
-45
23
-25
76
56
49
12
-39
-80
-13
-81
-50
-20
-76
-88
94
-8
60
-17
-81
-54
64
-60
42
-23
-28
13
45
-17
30
-27
10
64
86
37
17
79
-51
95
68
59
38
88
98
-72
-4
-18
51
127
-47
60
-7
-50
12
-19
-19
-44
41
-55
67
-10
-2
-36
-14
29
45
-4
55
21
-44
-19
2
-36
-41
-49
16
-55
35
22
-39
-100
-63
-29
36
44
-16
23
-49
74
62
98
-79
12
-1
68
62
-37
-49
32
-9
55
88
68
71
72
37
42
81
73
50
-16
-13
-43
-30
41
-37
19
-50
48
-60
51
67
-55
-128
-52
-43
-42
-127
-44
-73
0
-8
85
58
-41
-16
81
43
52
70
46
-91
38
30
-36
-53
-74
-75
9
-52
-10
37
-49
22
27
-50
38
-68
71
-43
-21
86
22
-31
20
-11
2
-33
-36
26
-63
2
-80
6
-27
75
63
-15
7
-60
-71
-51
-19
70
-82
-24
-27
64
-74
-58
66
42
77
13
41
16
-46
-65
-29
-44
21
-22
-13
-59
-83
-35
-69
-17
3
-38
-10
-73
-26
-40
-2
-3
59
62
-49
34
64
6
10
-32
-57
66
84
35
36
51
-20
-8
20
-53
4
-36
-28
-23
-32
-14
-15
52
-60
-76
-47
-21
46
14
34
-53
-30
59
-32
-26
-91
23
15
19
-54
-12
-55
19
-53
-15
-17
-29
-12
-60
0
-80
-6
78
-43
43
52
58
9
0
-81
22
-16
22
76
-84
37
24
47
-46
24
54
-69
86
41
-34
9
73
-46
79
26
-49
-11
90
8
55
-33
86
80
51
47
9
61
-53
34
69
-11
66
-22
-11
36
-82
82
106
-21
92
34
-26
-88
-35
-31
18
89
-98
-98
26
-49
-64
-81
-14
101
-9
-36
-11
66
52
-72
-65
-23
84
30
13
74
72
65
26
-75
17
29
-41
14
-47
20
-71
-84
-84
-49
-1
71
20
-37
-82
28
-40
-29
-25
-47
-72
51
87
-69
-95
-21
59
-17
59
53
-31
24
-4
-106
-68
-64
6
-29
57
-81
-68
-52
-1
6
-59
-62
-128
0
22
-93
-83
-9
-48
-19
48
74
76
46
-10
76
96
-38
-67
31
-37
14
83
-12
26
52
-8
74
-45
-3
10
71
64
-15
9
-51
0
53
46
29
-8
18
-21
26
-51
40
41
26
-46
63
-41
88
42
-70
20
82
-35
39
-85
42
-3
7
61
-84
5
-38
-65
-10
-15
-32
-32
35
86
42
-11
83
3
-33
88
-22
29
-96
-29
-90
-52
-4
-21
50
50
-2
96
77
89
-75
-62
-37
-18
51
46
-4
-12
-7
34
65
-3
85
2
-12
-52
68
54
-18
3
15
62
49
81
16
4
-8
-35
-81
85
52
62
-72
1
-86
23
27
20
-91
-78
-85
-42
53
-50
-12
-51
-6
5
33
39
-38
31
69
-41
-7
-68
-25
-70
-30
-50
48
35
-73
-25
68
50
33
25
-72
37
50
-42
-30
7
10
31
41
-96
-73
-16
-6
-91
-75
12
-90
6
-16
-54
7
-52
81
-20
-86
16
-21
27
93
105
80
30
43
52
13
1
6
-4
4
-17
-28
-19
31
5
52
83
-43
-45
-14
-25
-46
93
-67
10
88
84
24
-79
-26
-91
-3
-81
3
95
68
-17
-49
6
57
-20
21
-29
26
-27
-69
-52
83
-31
-28
-115
62
86
57
32
37
21
-64
-47
16
6
4
-83
60
-82
63
-83
-79
100
-65
-88
60
10
92
-43
-59
-46
-21
-39
-71
-36
-73
44
106
77
29
102
86
-23
4
-58
9
70
23
-116
73
66
20
-56
33
62
-107
-7
28
88
-18
67
34
81
-94
99
32
65
-8
0
107
14
11
-116
-87
33
-102
27
-127
61
-50
12
-54
-128
-118
-3
-58
107
-7
-45
-75
21
-96
-5
-71
-53
-123
-87
-49
-24
-17
-84
32
40
36
-8
-27
88
26
123
-83
71
84
-10
85
-71
-50
55
37
21
37
108
-6
-35
12
-78
0
-52
-61
-32
-52
13
60
-47
40
-105
-40
-49
-104
71
2
-91
-55
-86
52
37
81
-75
35
7
69
-80
-43
99
92
-15
-86
-24
-74
-65
57
-27
70
-8
-3
-33
-102
-40
-9
23
125
7
10
-30
105
65
39
55
-80
55
58
61
93
61
13
-53
16
9
-127
33
-37
50
-7
9
22
80
-14
40
-34
75
-10
-38
2
-39
54
15
-1
27
-62
-16
-99
70
23
11
-127
39
-68
-1
-97
-14
-110
15
-43
-95
-56
-36
-66
-9
74
-48
-78
78
90
45
-9
72
-37
-11
49
14
60
3
-52
-27
-56
12
80
-15
-30
80
76
62
-13
-13
61
16
-13
20
-79
12
-89
63
-12
90
12
-84
-49
-74
-97
-83
13
32
-47
-89
73
-70
-77
-121
-58
-8
45
33
-45
69
-53
91
28
32
80
8
28
-41
1
-36
3
-76
-52
-56
-42
-101
-102
0
-1
-33
43
-82
9
-42
23
44
-11
-52
18
27
-20
55
-31
6
46
-8
69
18
-76
-77
21
-13
-30
37
39
-87
-56
-60
-113
-11
-71
22
-17
-37
39
-20
87
35
51
80
47
-55
40
39
15
-60
22
80
-55
5
32
45
-59
11
18
32
22
-17
75
13
75
86
45
36
62
9
56
83
69
50
71
66
-3
5
-49
-8
-24
69
82
7
-10
26
45
20
5
82
-57
-25
99
-101
-3
-28
-30
-81
39
-49
-45
34
25
69
60
16
48
53
-26
64
76
8
-32
-66
-65
25
65
62
5
1
-22
-56
14
21
71
-78
61
-70
-29
72
-44
101
4
50
34
57
-112
29
12
4
-43
64
-6
32
-29
-60
-42
71
26
-70
4
-37
-35
52
38
-84
-4
-34
9
68
-55
4
14
-34
-64
47
15
82
-55
-3
-55
-67
-21
-17
60
-81
-27
50
-70
-79
19
-63
-51
-19
-43
9
45
30
-17
-35
-37
54
9
60
62
37
-5
-17
-42
13
15
31
65
81
-67
46
-2
-84
42
-4
-12
-66
7
-29
-85
57
-60
-128
-37
17
-85
11
-44
64
109
53
38
-28
-51
-54
-17
-13
52
-73
16
-92
-32
-78
5
-50
56
-18
-3
65
-59
-41
11
-91
81
-54
-31
70
53
61
79
11
-31
-19
57
46
36
5
-30
-53
16
38
-66
-74
9
54
33
-38
24
3
51
12
36
73
-26
85
3
-34
59
52
-71
-110
7
-16
31
49
20
40
-52
27
-91
-69
-92
-8
29
-79
-89
-68
-31
3
39
12
-92
-29
65
-45
21
91
-11
25
-29
-2
44
-21
94
-45
119
19
-19
44
100
64
107
-24
78
82
89
64
96
46
62
19
-16
-41
87
-19
-64
2
9
6
72
48
36
-124
-93
-26
-2
-5
-76
69
-49
-62
5
-51
32
31
-56
-11
-79
-31
57
-49
32
76
72
-3
-15
42
42
-49
-73
-61
77
-41
-79
-46
-46
-46
-11
-23
-29
64
34
33
-8
60
-9
27
25
-8
56
-70
35
-63
63
-42
-13
31
41
46
30
9
12
37
-61
-65
-97
31
-103
-48
56
5
85
-50
-39
-12
36
116
-9
30
99
69
111
-27
1
95
-34
-38
-55
42
30
18
-41
17
-53
10
24
67
-6
30
-68
47
10
74
-10
36
-2
-70
4
48
19
47
45
-41
-19
54
-3
68
-12
-6
-72
-10
85
-50
-9
67
-1
-33
32
61
32
17
88
-27
-31
10
0
-44
62
-13
-46
-2
-65
-36
-22
37
56
35
104
0
69
72
-21
-41
-18
-75
-73
10
50
-59
-67
71
1
59
-75
-83
-37
-83
-45
55
5
-15
58
-13
57
33
-69
-57
44
61
69
-3
-19
50
-7
27
43
-57
31
6
-5
-53
-49
20
-47
-27
-13
-71
4
-71
-81
-83
-74
71
-53
-61
-14
10
-24
23
-37
-49
-17
-5
-39
-104
6
38
-68
47
69
67
23
-59
88
62
84
17
82
8
-128
-22
26
-11
22
61
-19
117
58
-26
-33
-47
-72
4
-19
-64
94
-28
96
60
51
27
-19
-72
40
-52
82
-35
43
-9
-2
62
43
-18
-28
74
-59
57
29
13
78
-37
16
36
-36
-18
-66
-2
53
35
32
65
4
-70
-79
52
-13
-46
-69
-87
-42
-85
13
-44
-114
-2
-62
-34
-26
-84
-8
-36
20
-16
-30
-4
63
-68
81
24
42
17
-33
-25
-78
-40
23
-76
-73
22
-20
-62
3
-31
48
30
43
-33
-4
-111
-10
15
59
61
66
-103
-96
-97
45
-76
-61
-103
-6
-20
-46
-6
-41
-21
-10
-90
36
-49
62
44
-71
87
0
-35
100
29
69
-93
22
-55
92
21
-18
81
-70
71
-101
-88
71
-10
69
127
96
5
43
47
-97
72
-34
8
6
75
-73
80
11
-27
-25
-34
23
35
-65
71
-60
37
76
95
-20
-13
57
-22
27
64
-76
-39
-49
22
-69
25
73
28
64
-92
-81
72
83
-15
48
-34
66
-4
17
8
-15
72
-5
-14
-24
-45
-56
78
-49
76
47
-11
20
15
17
3
12
37
-27
-48
67
34
-83
-33
-85
72
-37
65
15
-12
-81
-14
-90
-7
93
49
70
44
-38
-109
53
-21
16
-39
48
63
57
-57
-66
-78
67
97
108
47
-43
127
-36
33
30
38
-59
-111
-64
-91
53
49
47
38
-53
-116
97
8
84
-89
14
57
66
65
-68
-35
53
60
-37
-79
-9
-71
71
40
36
-21
-20
-78
34
29
-71
-101
93
26
-2
-109
-24
-42
34
-90
-84
31
-42
-66
53
16
62
90
56
94
-25
-21
-22
96
-56
89
46
2
-21
92
-75
-52
33
30
-1
98
31
50
54
-40
-35
-20
42
39
-118
1
42
77
-45
23
-87
-34
100
20
-81
5
-24
38
37
-45
62
-53
-31
-63
-29
59
-54
27
-75
26
-38
-76
45
-35
-5
19
-63
-81
58
29
12
-24
39
-67
0
7
-65
-83
62
2
-43
20
15
20
37
63
-23
11
31
-82
-19
32
33
50
32
27
-74
21
78
13
88
1
-75
11
43
67
32
-45
-9
-49
80
-22
13
-15
110
-4
-15
46
19
-28
6
51
-28
112
-94
-80
-53
24
62
5
95
69
32
-71
22
58
-80
38
-44
-73
87
-20
17
-19
-87
-65
71
47
-7
21
-68
-56
80
76
6
-9
-46
34
47
-21
60
-40
-67
59
28
4
-37
-37
-65
33
-17
0
-47
-59
-38
64
-69
-10
-34
-64
-74
79
44
82
-39
-13
-24
50
52
88
41
24
-24
59
-16
-6
19
-10
-63
47
28
36
-37
81
71
-112
-24
21
25
26
79
111
-107
-82
-61
-60
43
34
24
20
-46
56
53
24
-17
34
-1
-37
80
-50
24
-26
40
59
85
-42
-27
-58
-36
17
23
29
-93
46
66
42
11
28
-65
-57
88
-15
-65
-12
-22
42
27
-42
29
-28
24
-92
-92
60
-37
45
-77
14
-12
36
-57
99
52
-78
-127
-42
18
-76
-2
48
-26
65
23
-74
-2
-95
84
82
-40
-69
46
-41
69
-50
-72
-64
3
-48
19
-49
71
54
35
-52
-30
-4
3
-44
-60
-95
43
-28
63
-50
-30
28
-4
-34
-62
1
-62
-82
-8
-105
-16
40
40
-79
-59
-48
-76
-89
-23
-99
-105
-111
-116
-102
-46
63
-69
61
81
-47
44
-64
-40
-11
43
20
-21
19
68
75
-54
-95
-31
-11
-63
-89
39
76
35
-51
-88
47
20
-46
68
37
62
-61
15
-35
99
-21
-34
-72
22
8
-5
42
16
-65
-2
-89
-79
-56
-48
-73
13
51
-16
23
-7
11
91
28
14
70
81
12
-49
-50
0
-40
-39
7
-7
0
41
-35
3
-68
42
-10
-87
-34
-43
-25
-77
-29
12
35
-15
-28
35
63
-59
57
83
87
94
-30
-52
-76
12
-62
73
-47
-36
91
-12
-10
16
26
11
59
-46
25
-70
68
11
-37
38
-64
8
-54
-15
1
-10
82
-61
58
-93
0
55
13
127
-40
-9
38
-11
44
47
40
83
82
-91
19
-6
-71
59
-4
87
49
-30
-37
42
-3
40
81
-51
55
-69
-68
65
-16
-84
-51
-37
67
-11
74
17
76
-66
-14
-70
-6
-97
60
78
-26
26
66
-29
20
63
-26
-15
-60
35
69
24
-24
-28
65
47
42
43
-25
-63
-5
-53
-87
3
33
73
-55
14
29
80
-32
52
-71
-75
-68
-74
-39
45
26
27
60
-56
73
69
-81
56
98
87
33
31
-28
27
98
10
-81
119
-94
27
14
61
53
-56
127
-103
-54
68
45
47
58
49
13
37
-43
-78
-72
109
30
47
-75
45
-25
94
11
-29
100
34
-40
-14
-45
21
48
59
-28
34
73
-30
-10
75
3
-52
-46
10
-62
61
-80
1
114
80
-70
-25
46
99
29
49
-24
-107
-101
66
-64
67
-95
42
-41
-84
-78
-21
27
33
63
-52
-43
37
-36
-81
91
24
9
-27
-8
-18
-83
-51
-7
57
36
-19
-88
-73
-59
69
-42
-96
-28
61
6
-28
-26
58
-4
-33
-33
-37
-52
57
-30
-89
-39
5
12
24
-82
61
79
4
-22
20
89
-79
56
-20
-7
-25
-44
-33
5
33
-1
20
67
-51
36
12
-20
92
37
-46
98
0
65
-98
23
-12
41
49
34
7
-62
111
103
-60
-67
46
108
37
-83
10
65
-21
-63
-31
34
-111
-22
-21
43
9
-79
-57
26
78
-79
-18
-56
-78
80
100
28
89
-25
0
36
4
-34
61
75
63
30
91
32
-50
73
-29
-36
19
-11
-5
-20
-34
22
-41
82
84
43
-24
74
44
3
47
-70
28
-30
84
-35
78
-22
-84
79
4
-13
-24
44
48
19
47
86
-72
36
10
-55
4
-72
-54
-89
-59
-78
-45
74
5
1
-58
-81
32
86
0
-37
-26
55
-21
6
19
88
82
3
-55
-14
60
62
-18
-68
64
52
25
-39
26
-58
58
74
80
67
-17
-16
80
74
32
39
-54
1
9
36
-58
52
-55
-60
-53
-90
17
28
83
-40
18
-24
57
93
-65
4
-94
-63
-59
-90
89
-6
-70
13
102
-2
-84
40
83
3
9
21
-68
-32
-104
26
10
-3
74
23
13
52
54
-29
-21
31
70
58
-25
96
-49
-66
45
67
40
1
-26
-20
100
82
-48
-76
25
-15
80
-2
-8
-85
-6
52
97
-34
75
72
-27
16
28
-56
90
16
57
-7
94
67
10
-14
-8
50
-16
8
29
5
-66
78
-43
-29
52
-4
112
22
-75
62
35
-52
61
70
-66
-29
123
89
22
13
39
27
55
-51
31
-6
-69
21
91
46
-78
28
-43
48
32
80
56
-79
-19
-56
-16
-105
-97
5
56
67
-31
-128
-87
-115
-78
-27
83
121
26
-94
61
-23
59
3
49
81
-36
34
0
53
-21
-50
26
-15
-49
-42
-59
-12
-96
15
-61
-43
18
0
82
68
-61
75
56
44
92
28
74
-4
-89
19
28
-43
68
63
-18
-93
79
-74
-60
-60
18
11
33
-103
-50
-44
84
6
-5
16
-50
73
36
80
93
-62
-86
104
48
-43
-12
38
-72
53
66
66
91
-74
-79
-72
-65
-19
-80
-25
39
-41
-17
37
-12
-3
2
-68
101
24
127
-10
-11
-93
48
114
31
19
39
-17
28
93
21
-52
19
-10
-95
-56
23
-20
65
76
-33
-80
-57
20
32
-76
-40
75
-8
1
-90
-46
-92
54
11
-104
73
-29
12
22
-78
-10
28
31
60
-1
65
6
91
36
-48
-4
-25
-7
52
-21
55
78
-78
-86
-34
-103
53
-19
-16
-32
-41
-36
65
-18
-42
38
107
-53
-60
-8
-46
63
54
30
-47
-91
6
39
-9
42
-16
94
8
54
6
-8
-36
-25
-49
-71
41
30
81
46
-22
62
25
-3
-87
-91
-10
106
63
34
42
60
-104
-17
-3
7
63
-45
-60
43
38
-70
-83
-54
104
79
66
-50
22
48
72
33
-3
85
-66
57
76
-66
-122
-113
-111
-106
-31
63
88
-29
105
20
-24
55
-111
8
-110
-18
-77
81
45
-49
19
51
-14
41
77
90
53
-45
70
84
64
-94
30
-17
-5
-28
36
-6
-58
-35
-3
-92
24
91
20
57
105
-54
-21
-35
-14
-55
-108
91
-1
-5
45
48
10
-11
35
-86
96
69
-37
40
-55
46
-31
-19
-70
80
-90
-87
-57
-9
-9
93
-106
-105
97
8
-18
-93
95
55
-44
58
23
-52
41
-47
-6
-20
-13
43
51
6
-31
-45
17
-36
-6
-14
-49
-27
40
-59
61
108
-32
-23
-56
-14
11
-40
-104
72
-60
-59
-29
-68
-6
53
7
72
-65
-15
-54
13
-48
31
-24
10
-48
46
-78
22
-83
83
34
4
-11
-6
9
-77
23
15
-37
-20
-7
5
-48
83
20
-39
-15
67
-21
69
-19
15
-22
-41
57
34
60
31
42
49
43
4
90
85
-29
41
63
-6
-46
-59
-51
77
-75
25
51
-83
21
-54
82
13
-74
44
35
-71
41
-55
-41
-38
-2
42
49
61
-73
82
16
-41
66
89
96
47
-42
-22
88
59
76
-1
9
68
82
-27
42
-34
-73
-24
-14
4
34
57
45
33
-64
-5
51
78
-12
-72
-19
22
66
82
102
-104
6
-9
-41
58
-57
54
-10
-43
-35
-60
-47
42
37
75
-45
13
12
100
71
-92
-28
-52
49
-89
35
10
-20
6
-43
89
12
30
22
-66
62
20
-84
-5
43
-18
-3
57
33
14
58
-61
-20
-6
-22
49
-12
-92
16
-18
40
-74
57
-14
28
-80
-6
81
-76
41
35
-15
-1
-20
-28
19
11
-82
17
65
-6
43
58
45
-56
-59
-72
-22
-60
8
-21
30
-4
-25
35
-20
-16
-24
-14
83
58
-2
-23
-59
127
-15
52
-6
22
78
12
-3
-49
-2
-54
-16
-6
13
-35
-69
59
-50
65
44
-14
-54
-58
-46
74
-100
56
37
4
-92
7
-25
-121
-88
-51
-15
-29
71
-49
43
24
-54
-24
35
-58
61
-88
4
67
10
70
-55
10
76
52
-49
17
-12
54
93
-33
5
5
-87
32
-39
45
113
-71
-19
-42
-50
127
8
-11
109
-34
39
75
-29
94
33
-67
24
62
84
12
104
67
11
8
108
110
116
112
10
12
11
-11
-99
-31
2
-80
-2
88
-10
69
-87
55
62
54
-103
-87
22
48
43
-51
1
-4
-31
38
86
-76
-1
-22
-53
51
43
56
-75
-43
-52
-19
9
-38
-5
-20
17
58
-46
-5
55
2
-54
-59
0
-79
38
49
12
63
-55
-13
72
98
-70
21
42
53
80
55
25
-88
-20
-46
-41
-18
-60
101
65
33
-50
-7
58
72
64
112
-60
-37
-19
9
-55
26
-6
108
-43
42
3
10
24
-79
-88
32
-5
36
-87
17
-73
94
96
-56
-94
-15
38
-71
-20
76
89
30
38
66
-20
-7
-8
51
67
-56
78
32
-22
105
80
84
34
84
-29
61
-43
-7
-87
-64
1
7
-26
26
-12
20
-83
-62
-54
-61
50
-51
36
49
-91
43
-25
85
63
71
-83
-56
-45
24
79
-73
-42
-47
32
-37
-31
-30
-76
-83
-22
49
40
-45
79
26
-12
34
-85
17
-49
-39
-6
60
-65
7
-84
17
-55
-77
-111
-28
-125
-128
52
-42
67
78
-79
58
-8
-13
31
-70
17
42
0
-54
7
-35
82
15
2
75
32
-4
50
80
-35
34
82
-49
87
8
-61
-14
-115
-49
82
23
-61
93
66
28
-58
8
-19
-51
-25
70
-39
-8
-27
-78
27
45
-64
11
17
18
-61
50
-23
-13
-5
37
-24
-36
23
-66
31
-58
-12
10
66
48
5
-11
-15
-69
31
-44
-5
-74
6
-1
61
10
0
83
-28
13
-13
-42
16
29
66
-76
3
-53
67
14
-64
-84
18
4
-71
55
-64
-62
-10
55
-6
40
62
-85
-61
6
93
-35
-23
-58
-49
-66
-11
-57
61
31
-17
-31
30
72
-37
-88
-5
-89
55
-66
-32
72
-31
-27
-42
-13
85
3
-49
-39
112
75
47
12
-7
89
89
-52
1
-5
39
-39
46
90
78
43
-57
3
50
5
-101
-15
-47
-17
-99
51
89
32
-7
-67
-56
10
-30
-53
-10
39
-38
-17
9
76
-79
-7
14
-47
39
-97
-31
32
76
17
28
6
4
-49
18
72
5
35
67
43
56
31
75
-44
8
81
-74
-33
49
5
-69
-2
-27
65
-81
-61
-17
88
-43
3
-104
82
83
86
-46
-41
85
-71
-7
-16
79
-74
-66
75
87
54
-12
-41
-38
29
39
85
-17
-88
-91
-98
-94
4
-49
-47
-79
47
-1
-94
-19
-22
54
-51
25
-17
78
56
-96
-71
-4
-54
-31
67
80
21
2
59
-32
77
76
61
35
58
-85
-75
-10
-23
30
75
-31
10
-37
-80
-25
-128
70
38
-52
16
31
-1
-6
8
31
-29
20
61
83
-23
21
83
32
28
-23
57
-86
-7
-11
-81
-71
-59
75
-52
-10
19
85
41
-34
-53
-10
-71
9
84
-3
14
41
26
-49
48
-36
53
38
-37
-11
-80
-15
-49
-22
27
-98
-88
12
15
-65
26
79
68
-70
-72
13
61
-67
47
35
-39
-53
28
31
56
32
2
59
98
71
-73
84
40
-92
58
68
77
43
23
-84
-9
-64
65
61
8
42
-1
84
-32
15
6
-29
-44
-98
-67
39
30
34
77
-100
-51
20
-11
-2
-32
-21
71
23
9
-61
-95
-1
-19
-39
-39
76
32
52
55
-17
-39
39
-23
40
-85
-49
15
-38
23
-47
-12
-75
-7
80
-23
89
-57
-91
-57
71
22
51
-9
30
-80
-42
-53
48
32
-53
65
11
-84
7
-59
60
42
-78
10
45
-2
11
27
61
66
-23
21
48
-55
-15
55
-80
-6
13
-23
29
79
-86
103
30
-15
-111
-72
109
-47
-42
-47
89
-76
-3
76
42
-1
-110
-51
19
65
51
-41
45
39
-35
19
-4
-20
55
-22
-62
20
67
-1
-40
78
-50
82
58
-41
-73
-80
-14
50
49
-25
-36
7
95
96
-4
-57
-31
29
-70
47
-63
-76
-79
49
30
16
-48
-55
85
21
-15
-101
19
42
29
37
-32
48
59
107
-6
-30
75
83
36
71
15
-65
20
-69
34
43
-27
54
-73
42
-41
-36
27
51
57
36
-90
56
-55
-50
-75
-44
76
39
98
36
34
30
58
-29
30
49
65
102
70
-34
1
-61
-66
-42
-24
94
47
-51
-64
86
84
33
28
-44
22
-87
-56
-70
-74
-61
-69
-31
74
-26
37
45
-48
39
89
-55
96
78
61
-31
-56
63
-8
3
40
-27
60
-23
-34
-43
-39
7
5
37
-14
17
28
68
28
-28
42
93
127
21
-70
-77
64
48
54
39
-22
50
24
-36
33
30
95
45
-44
-54
69
-51
67
-72
-62
86
19
-53
68
90
23
93
45
-21
48
-63
70
-68
73
50
90
32
-30
36
50
-19
-14
-68
-32
-89
-19
16
24
90
-34
45
52
-14
-5
-38
22
-19
-30
86
3
19
-64
-110
-13
-9
36
94
-35
-20
-48
-36
-68
-18
15
-84
-27
34
-15
56
4
40
-65
-52
27
-5
-99
39
-54
-27
-32
-73
54
-62
65
-32
-14
-14
-64
-97
-46
-91
80
54
73
47
9
-59
-14
18
-5
1
-46
31
-50
26
79
72
89
-71
-16
74
-67
15
-45
-7
21
21
-48
14
-71
-23
50
28
23
-20
-61
31
-30
28
-57
91
23
55
-27
-20
108
-75
-73
95
-4
18
-33
-59
62
-50
11
-4
2
-100
-1
-18
-1
50
27
53
-110
-14
-9
-61
25
-51
34
14
-66
-63
87
91
80
-90
39
-76
-38
-50
-36
-100
-33
82
25
-19
-43
-15
18
36
-3
7
-15
-75
88
42
-71
10
-17
55
116
26
-61
-78
48
84
100
62
74
47
-69
-86
-57
74
70
11
92
23
-75
-32
-47
90
-43
12
74
-31
41
-64
-56
-58
-32
-13
-15
-75
35
63
-9
-126
54
-35
16
11
-69
-24
-29
-34
-77
2
26
-99
22
-89
75
-42
56
-76
-11
-75
-3
-96
-29
-15
-20
-5
127
-11
-37
48
73
-58
119
44
-47
-4
22
-44
22
82
5
90
40
76
1
64
59
-60
-8
-66
-8
-31
-25
62
-32
33
-41
-65
32
66
51
-62
-47
61
5
-51
70
38
-56
-69
76
-35
-8
11
67
99
65
51
57
19
-5
14
-70
-14
-18
-58
88
-41
16
68
21
-37
-5
3
-56
-9
-6
27
-45
14
-61
45
-66
34
34
-7
-94
47
-77
11
34
76
68
-34
7
-49
16
9
-62
89
42
33
10
-73
4
-57
